tree
version=v4
num_class=1
num_tree_per_iteration=1
label_index=0
max_feature_idx=15
objective=binary sigmoid:1
feature_names=step type amount oldbalanceOrg newbalanceOrig oldbalanceDest newbalanceDest balance_diff amount_to_oldbalance_ratio dest_balance_diff lag1_amount lag2_amount lag5_amount rolling_mean_10 rolling_std_10 rolling_mean_30
feature_infos=[34000:36999] none [17590.123:58659.017999999996] [-0.016618000000000001:0.017357000000000001] [-0.0077580000000000001:0.010418999999999999] [0.0065240000000000003:0.017353] [0.17319999999999999:5.3380999999999998] [-0.015845999999999999:0.014321] [17362.774826422821:58588.084719075086] [0.16136:5.3262609999999997] [17590.123:58659.017999999996] [17590.123:58659.017999999996] [17590.123:58659.017999999996] [17866.038759999999:58265.694110000004] [74.549153611521575:1616.7030599266909] [18494.513433333334:57018.665889999997]
tree_sizes=3406 3402 3403 3400 3445 3404 3457 3413 3457 3392 3400 3394 3429 3467 3430 3201 3437 2684 2791 3422 2477 2888 3445 2479 3455 3398 2908 3441 3210 3320 3428 3461 3104 3408 2389 3425 1735 3423 3430 3433 3406 2598 3422 3431 3441 3435 2581 2909 3448 3449 3472 3458 2694 3445 3437 2826 3019 3401 3449 3426 3340 1834 2785 3428 3404 3417 3126 3438 3218 1832 3116 3393 2801 3334 3419 3441 3459 3402 3424 3450 3448 3466 3445 3451 3422 3446 3218 3435 3459 3444 3467 3416 3426 2915 3411 1841 3458 3424 2684 3428 1945 3318 2032 2050 2685 1729 2049 1311 1738 2773 1618 2356 3432 1208 1619 2144 3401 3418 1537 3417 2263 2385 3083 1627 1100 2679 3420 2047 1207 2053 2155 2454 3438 3414 2884 1511 2484 2252 1211 1409 3338 2674 2261 1939 1725 1416 2699 3402 2252 2387 2257 1429 2997 1741 2378 3090 3417 1946 2599 2152 1435 2789 2554 2550 3422 3421 3448 1831 1204 3277 2986 2260 2152 1728 1938 3413 3409 2143 2257 3187 2813 1317 1835 2882 1955 2907 1327 3406 3315 2260 3424 3436 2687 1428 3324 2895 2703 1751 3426 1526 3309 3306 3327 3331 3357 3351 3349 3370 2238 2206 2334 3349 2347 2969 3357 2651 3379 3374 3368 2753 2972 2137 3381 1500 2783 3380 2846 3383 3183 1610 1077 3374 3381 2323 3383 2961 1831 1814 2232 3376 1921 3109 2980 1928 2247 1722 2863 3313 1714 3077 3390 1832 3400 1944 3076 3400 2142 2871 2575 1722 3203 1509 3407 1724 2986 1607 3410 2565 1835 1515 3412 1845 2580 3374 3398 2576 3417 2773 1417 2761 1511 2480 2043 2681 3418 3420 3099 2146 2245 2453 1311 1528 2265 2353 2663 3402 2688 3418 2044 1216 3384 3377 3400 3403 3424 3407 3396 3398 3404 3403 3379 3396 3425 3403 3401 3409 3394 3410 3393 3422 3405 3379 3410 3309 3375 3406 2991 1949 3301 2045 1737 2670 1415 2024 1530 2242 2238 1420 1520 2582 1599 1525 2032 2046 3426 3442 2670 2797 3395 1315 1316 2069 1719 2570 1622 3431 1401 1411 2989 2581 1307 2145 2560 2465 2247 2061 1308 3393 1838 3110 3093 3421 3428 2026 1834 2046 2777 2575 2714 1408 1619 2262 2345 2275 1734 2244 2250 2052 2479 2654 1621 2235 3316 1941 3215 2469 2471 1523 1950 1528 3404 3403 3415 3406 3406 3405 3409 3422 3417 3404 3400 3421 3396 3415 3396 3424 2874 3429 2997 2883 3414 2884 3410 3401 2889 3405 3391 3405 2680 3385 3415 2346 3417 3420 3409 3303 2485 3414 3111 3204 3426 3411 3413 3327 2888 2153 3426 2469 3319 3405 3428 3426 3405 2694 2251 3216 2668 3423 3002 2691 2040 3201 2356 2135 3217 2264 3326 2897 3418 1954 2262 2147 3423 3423 3408 2174 2477 2785 2890 3083 3341 3405 3411 2668 3450 3418 3418 2905 1839 1858 2256 3450 3430 2775 2456 2366 2595 3407 3435 3117 3361 3341 3345 3344 3373 3347 3055 3389 3209 3422 3403 2875 3392 3406 3432 3395 3366 3387 2785 3396 3394 3387 3402 2876 3381 2772 3399 3428 3397 2892 3384 2856 2704 3408 2258 2558 3382 3190 3420 3089 2117 3093 2244 1717 3293 2456 2816 1502 2236 3314 2471 2578 2999 1954 2048 3435 1709 2988 2266 2141 3408 3413 2868 1833 3403 3399 3289 3000 1841 2147 2480 3111 1291 2479 3109 3014 3087 3416 2679 3004 3408 1833 2680 2802 2801 3433 1735 2360 2279 2890 1532 3331 3114 1300 3419 2492 3094 3441 2058 2162 3378 3378 3395 3385 3405 3389 3388 3407 3417 3381 3406 3406 3417 3412 3403 3417 3422 3405 3422 3393 3420 3432 3411 3304 3422 3414 2552 3413 2987 3406 2550 3212 3413 2365 3393 2234 3104 1948 3409 3378 3431 3421 3310 2156 2459 3424 3433 2393 3434 2578 3438 2460 2999 2271 1945 1834 2658 3428 1842 3437 2156 3404 2569 3406 2982 1735 2473 1424 2160 3297 1953 2865 2248 2554 1525 3333 2479 3414 3446 1826 2568 2784 1946 3423 2179 2364 3099 3416 3412 2379 1853 3134 3416 3421 2062 2483 3417 1420 3127 3417 3383 3374 3383 3396 3397 3398 3392 3405 3087 3177 3078 2881 3105 3400 3406 3417 3420 3390 3406 3390 3413 3423 2981 3384 3393 3397 3398 3421 3429 2989 3407 2772 3429 3412 3397 2883 3397 3419 2045 2563 2997 2891 2684 2500 3415 3003 3430 3410 2265 2585 1934 3416 2487 3416 1947 3430 2568 2284 1414 2586 3308 1209 2355 2491 3396 1743 1735 2144 1520 2151 2894 2362 3424 3434 2355 3405 3421 2450 3430 2490 2484 3418 2569 2183 1211 2473 2360 2788 3434 3417 2456 1953 3415 3401 2592 1519 3459 3121 1523 3215 3358 3351 3384 3402 3375 3392 3403 3435 3385 3368 3418 3377 3391 3407 3364 3404 3382 3360 3403 3410 3403 3421 3414 3400 3399 3407 3369 3416 3394 3409 3385 2341 3408 2887 3411 3394 1924 3417 3400 3397 2136 3397 3201 3397 2044 3411 3438 3440 2799 3422 3418 1929 3103 3013 2895 2351 2695 2484 3108 2560 2875 2783 3404 3081 3110 3418 2159 3305 3199 2974 3318 2657 2903 1004 3379 2997 2142 3090 3200 2869 3137 3013 3402 3306 2687 3419 2887 3401 2704 2685 1646 1302 1739 3230 3444 1100 3392 2693 2994 2361 3170 3277 3396 3385 3300 2757 3368 3392 3311 3401 2868 3395 3413 3095 3426 3425 3426 3384 3442 3425 3420 3294 2901 3082 3415 3415 3171 2462 2859 3407 2792 3439 2900 2980 3013 2254 2792 3431 2255 2576 3412 2566 2154 3420 3405 2676 3407 3413 2797 2281 1847 2046 3437 3413 2346 2987 3408 3410 2897 3424 2463 3438 3425 3278 2683 3013 2873 3443 3429 1515 3328 1224 3427 1621 2482 3434 2994 2492 3117 3419 3422 1618 2574 2069 3458 1320 2595 2351 1761 2354 2812 1313 1432 2679 2573 1414 3433 2921 2709 1628 3376 3362 3289 3392 3417 3410 3084 3403 3406 3389 3393 3414 3413 3427 3395 3427 3383 3406 3425 1936 2165 3402 2154 3293 2679 1933 3203 3404 2676 3419 3402 2260 3414 1611 3422 2888 3401 1947 2994 2154 3400 2157 2267 3374 2782 2785 2474 1425 2878 3413 2051 1418 2994 2284 2360 1426 2059 3389 2899 3399 2289 1954 2253 1527 1842 2157 1522 1960 2349 1215 3405 3362 2039 2981 2156 2987 2787 1436 3417 2989 1945 1320 2146 1965 1526 1938 2051 1824 1318 1938 3327 3081 1321 2777 2898 3430 2986 3431 1430 3208 3376 3375 3368 3408 3411 3389 3422 3387 3405 3407 3385 3395 3406 3397 3382 3392 3414 3400 3403 3386 3406 3420 3397 3404 3429 2859 3403 3412 3404 3404 3428 3410 3423 3422 3422 3406 3405 3433 3193 3411 3398 3421 3186 3085 2569 3419 3440 3415 3396 2664 3432 2433 3431 2157 3215 2272 2658 2662 2158 2055 2171 3441 2445 3436 2244 3211 2572 3409 2672 2901 3337 3099 2573 3401 3425 2782 2141 2868 3092 3428 2683 2041 2580 3416 2892 1721 2156 2598 2909 3318 3387 2683 2774 2146 2870 2479 3401 2602 2133 3423 3384 3394 3394 3387 3384 3396 3365 3362 3408 3375 3396 3401 3401 3300 3391 3302 3408 3078 3415 2241 3403 2880 3420 3391 3415 3416 3394 3401 3399 3394 3412 3193 2361 3411 2466 3406 2787 3412 3448 3400 1516 3407 2368 2453 2995 3415 3014 2579 3384 2992 2558 3419 2432 2785 3408 3219 2351 2794 3437 3416 2564 2149 2891 2366 2899 2484 1946 2551 2156 3105 3401 2275 2045 2218 1959 2161 2658 2137 2370 2054 2164 2034 1538 2380 3444 3435 2171 2588 2155 2243 2249 1833 2578 2789 2270 1836 3178 1937 2263 1421

Tree=0
num_leaves=31
num_cat=0
split_feature=15 0 0 6 11 0 13 15 9 5 4 15 14 8 4 10 4 12 4 12 4 5 8 13 13 14 4 14 14 12
split_gain=8.96792 7.14648 6.86749 7.56198 5.73852 5.54594 5.70157 7.56591 12.7878 9.16916 5.1723 4.92915 4.48961 4.48233 5.43986 6.45603 5.09476 7.128 7.59748 6.6471 4.42984 4.27382 4.25506 4.06135 5.10514 4.59782 3.62389 3.55687 3.51064 3.27154
threshold=206.59532333333337 11106.500000000002 11012.500000000002 1.1241500000000004 348.56660000000005 11482.500000000002 191.05300500000004 198.88556500000001 0.71892650000000013 0.011002500000000002 0.0011485000000000002 254.21480000000003 1.7598022976645715 209.04641029154703 -0.0039139999999999991 210.11555000000001 0.0039200000000000007 222.41190000000003 -0.0035194999999999996 213.45660000000004 -0.0013404999999999999 0.011772500000000002 38.50095663064544 210.90991500000004 209.38329000000002 2.6316318491742234 0.0058815000000000004 4.0590827435076084 3.878325261417602 201.21220000000002
decision_type=2 2 2 2 2 2 2 2 2 2 2 2 2 2 2 2 2 2 2 2 2 2 2 2 2 2 2 2 2 2
left_child=5 2 4 11 29 22 -7 8 21 -10 -6 28 -9 14 -3 20 17 19 -19 -15 -16 -8 -1 24 26 -25 -24 -14 -4 -2
right_child=1 13 3 -5 10 6 7 12 9 -11 -12 -13 27 16 15 -17 -18 18 -20 -21 -22 -23 23 25 -26 -27 -28 -29 -30 -31
leaf_value=0.046506351670423496 0.037498436292338816 -0.096421363136153238 0.075587436475583844 0.063705120709929938 -0.081083987137412591 0.028179889828883597 -0.031457257518145515 -0.03009246701838866 -0.074248895614107288 0.025643275316894362 -0.018654078782287122 -0.025722895493974829 0.040545812448266938 -0.031617164987958649 -0.03280413464154483 -0.10779194695904068 -0.069711717226382586 0.010797275515305401 -0.034811271825590073 0.020505798261411856 0.037953076469024016 -0.10779194726018933 -0.0068978225348974506 0.092211411930261861 -0.064328721674219935 0.0075210070261490375 0.018741576028475343 -0.0015314103609866021 -0.0011343774832934667 -0.010852637033927363
leaf_weight=3.8191199973225585 3.5220469683408728 4.0900592058897045 2.6851368248462704 6.2780433744192115 5.4431785941123954 24.011598840355873 3.135530203580859 4.3485780656337765 2.9049441069364539 10.98126298189163 8.4964113980531675 8.7666763663291913 14.074769526720049 8.917734771966936 12.335292711853983 2.4405426979064933 4.7409546673297873 11.233945667743681 48.77713280916214 19.473449677228928 2.6953444182872763 4.4161884486675262 844.56570123881102 2.076146259903906 3.8307608217000952 7.0261090844869614 14.010207533836363 7.8089675456285468 3.3528525084257126 522.83969950675964
leaf_count=48 18 17 12 28 37 100 13 18 12 45 55 39 58 37 51 10 20 49 211 81 11 18 7552 11 20 40 132 32 15 3210
internal_value=-0.00820028 -0.0125989 -0.0102753 0.0177206 -0.0113677 -0.00506001 0.0083109 -0.00169714 -0.0237317 0.0047462 -0.0430319 -0.00177951 0.0163102 -0.0239714 -0.0445147 -0.0323632 -0.0192159 -0.0165079 -0.0262734 0.00413386 -0.0201157 -0.0760972 -0.00615497 -0.00638574 -0.0067364 0.0268382 -0.00647944 0.025531 0.0329844 -0.0105291
internal_weight=1623.1 676.089 561.384 21.0827 540.301 947.01 71.6818 47.6702 21.4379 13.8862 13.9396 14.8047 26.2323 114.704 21.5612 17.4712 93.1432 88.4023 60.0111 28.3912 15.0306 7.55172 875.328 871.509 862.407 9.10226 858.576 21.8837 6.03799 526.362
internal_count=12000 3901 3414 94 3320 8099 296 196 88 57 92 66 108 487 89 72 398 378 260 118 62 31 7803 7755 7704 51 7684 90 27 3228
is_linear=0
shrinkage=1


Tree=1
num_leaves=31
num_cat=0
split_feature=15 0 0 6 0 13 15 9 5 15 12 12 14 8 4 10 4 12 6 4 5 8 6 13 13 14 2 4 14 10
split_gain=8.09429 6.45357 6.20091 6.83388 5.00778 5.14542 6.83138 11.5629 8.28202 4.45105 4.3397 4.19431 4.06565 4.05253 4.92904 5.85041 4.60543 6.54865 4.48317 3.99915 3.88109 3.84241 3.80514 3.66746 4.612 4.16388 3.28739 3.27082 3.17583 3.17496
threshold=206.59532333333337 11106.500000000002 11012.500000000002 1.1241500000000004 11482.500000000002 191.05300500000004 198.88556500000001 0.71892650000000013 0.011002500000000002 254.21480000000003 200.26900000000003 340.93810000000002 1.5201773829222545 209.04641029154703 -0.0039139999999999991 210.11555000000001 0.0039200000000000007 267.78715000000005 0.47255000000000008 -0.0013404999999999999 0.011772500000000002 38.50095663064544 0.64535000000000009 210.90991500000004 209.38329000000002 2.6316318491742234 215.25190000000003 0.0058815000000000004 3.878325261417602 258.96435000000002
decision_type=2 2 2 2 2 2 2 2 2 2 2 2 2 2 2 2 2 2 2 2 2 2 2 2 2 2 2 2 2 2
left_child=4 2 10 9 21 -6 7 20 -9 28 -2 -12 -8 14 -3 19 17 18 -15 -16 -7 -1 -14 24 27 -25 -27 -23 -4 -5
right_child=1 13 3 29 5 6 12 8 -10 -11 11 -13 22 16 15 -17 -18 -19 -20 -21 -22 23 -24 25 -26 26 -28 -29 -30 -31
leaf_value=0.051998912378220553 0.063767277189747437 -0.084007223979282897 0.079712476495321316 0.024027330090006904 0.034567511705810863 -0.022099325854290759 -0.03841234674662649 -0.062833289669896569 0.032156170991289347 -0.016649007744225796 -0.0022702460170545948 -0.022062526175933607 0.069097375464395705 -0.044406495668630093 -0.023379677214027415 -0.094890717783204473 -0.05850725962714759 -0.03058474963290328 0.0041289739687881645 0.043860938166929195 -0.094890717963709431 0.0012373327859177029 0.019460597816942451 0.095595616465983163 -0.053377363414718326 0.042531130567913501 -0.027451545498768704 0.02559659246712381 0.0067124965759273389 0.096914081853462355
leaf_weight=3.8171198815107337 2.4221570640802375 4.0806361138820675 2.6813502162694958 2.4553674161434165 24.007236137986183 3.134807392954829 2.4230116009712246 2.9009929150342932 10.979642495512961 8.7653736621141416 509.61049491167068 28.251458749175072 4.8487294912338283 5.1688387840986243 12.332182034850122 2.4335081130266181 4.735279068350791 23.384458035230637 59.831075012683868 2.6944193243980399 4.4034592509269714 844.56985322386026 18.954242870211601 2.0717739313840848 3.8268647193908683 4.2555465698242188 2.7705812305212021 14.009212851524351 3.3529077172279358 3.8164160847663879
leaf_count=48 12 17 12 11 100 13 10 12 45 39 3125 183 20 22 51 10 20 103 253 11 18 7552 78 11 20 24 16 132 15 17
internal_value=-3.88718e-08 -0.00417923 -0.00197133 0.0246385 0.00298336 0.0156918 0.00618076 -0.0147692 0.0123038 0.00610209 -0.00300913 -0.00330985 0.0232907 -0.0149887 -0.0345328 -0.0229701 -0.0104677 -0.00789389 0.000269399 -0.0113228 -0.0646202 0.00194307 0.0295717 0.00172383 0.00139068 0.0333032 0.0149352 0.0016348 0.0391504 0.0683793
internal_weight=1622.99 676.016 561.356 21.0714 946.973 71.6521 47.6449 21.4189 13.8806 14.7996 540.284 537.862 26.226 114.66 21.5407 17.4601 93.1197 88.3844 64.9999 15.0266 7.53827 875.321 23.803 871.504 862.406 9.0979 7.02613 858.579 6.03426 6.27178
internal_count=12000 3901 3414 94 8099 296 196 88 57 66 3320 3308 108 487 89 72 398 378 275 62 31 7803 98 7755 7704 51 40 7684 27 28
is_linear=0
shrinkage=0.05


Tree=2
num_leaves=31
num_cat=0
split_feature=15 0 0 6 11 13 4 4 0 4 15 6 15 4 3 6 3 2 10 4 4 10 6 8 13 13 8 0 6 8
split_gain=7.30651 5.83132 5.6059 6.20601 4.87983 4.72452 6.48789 4.67599 4.52637 4.80047 5.51957 8.16063 9.02272 6.89141 4.74338 4.24375 7.17887 3.72876 7.7048 5.92363 4.97603 5.21898 4.89275 3.47509 3.31728 4.17235 3.71077 3.13136 3.12509 3.11446
threshold=206.59532333333337 11106.500000000002 11012.500000000002 1.1058500000000002 348.56660000000005 282.90280500000011 0.0022340000000000003 0.0011485000000000002 11482.500000000002 -0.0020004999999999997 188.99764333333334 0.74900000000000011 198.88556500000001 0.0044090000000000006 -0.0042209999999999991 0.83035000000000014 0.0053135000000000014 214.41830000000002 222.37270000000004 -0.0041869999999999989 -0.0039139999999999991 213.34725000000003 0.82285000000000008 38.50095663064544 210.90991500000004 209.38329000000002 214.53733957892129 9602.5000000000018 0.56335000000000013 221.23987470248949
decision_type=2 2 2 2 2 2 2 2 2 2 2 2 2 2 2 2 2 2 2 2 2 2 2 2 2 2 2 2 2 2
left_child=8 2 4 5 -2 -4 -7 -6 23 14 15 12 -12 -13 -10 28 -17 20 29 -20 -3 -22 -21 -1 25 -25 27 -26 -11 -19
right_child=1 17 3 -5 7 6 -8 -9 9 10 11 13 -14 -15 -16 16 -18 18 19 22 21 -23 -24 24 26 -27 -28 -29 -30 -31
leaf_value=0.049494291847780654 -0.00208595761671521 -0.080282431861182182 0.024226740566470725 0.062231114612232422 -0.068321132026964923 0.022143001538615557 -0.097925661605114039 -0.0089098050926761617 -0.011051593893432177 0.016855272802227605 -0.062195015109220021 0.022648104578530042 0.01718701014849015 -0.062101681597453107 0.066018190525499038 0.044835321277287905 -0.053181987914634049 0.0092672143656710882 0.023576077450581101 -0.0061773985727884822 -0.011715250474582772 -0.068814576130204613 -0.036545338350961382 0.0015530645156098155 0.018903027423057023 -0.050834656790418986 -0.008183765461250634 0.094169291195577279 0.087282973233596226 0.060803228080395302
leaf_weight=3.8099344819784156 526.33812892436981 4.0570197701454154 9.6115903556346911 6.9217985719442359 5.4288175851106635 2.2517513036727896 2.2485804557800293 8.4932387471199018 2.6864153891801834 2.360174447298049 8.738931864500044 28.302859202027324 6.0631317794322959 2.6207829117774954 7.7733941972255689 5.4390022158622724 2.8452945798635483 16.398574963212017 7.7603741735219947 23.728529512882233 24.193459719419483 4.7950338870286933 30.074514642357826 858.57669396698475 2.7078846991062147 3.8175869882106772 3.5513685792684555 2.8220153003931046 4.7354581356048584 3.5697381496429434
leaf_count=48 3228 17 43 31 37 10 10 55 11 10 36 116 25 11 32 23 12 68 34 103 100 20 130 7684 16 20 21 14 20 15
internal_value=-7.8773e-08 -0.00397119 -0.00187285 0.0234517 -0.0028588 0.0044306 -0.037849 -0.0320769 0.00283454 0.0149246 0.00956683 0.000851604 -0.029679 0.0154655 0.0462242 0.0354779 0.0111707 -0.0142506 -0.00850815 -0.017262 -0.0284186 -0.0211601 -0.0231523 0.00184603 0.00163772 0.00132116 0.0316994 0.0573129 0.0638571 0.0184803
internal_weight=1622.72 675.871 561.294 21.0337 540.26 14.1119 4.50033 13.9221 946.851 71.5654 61.1056 45.7257 14.8021 30.9236 10.4598 15.3799 8.2843 114.577 81.5317 61.5634 33.0455 28.9885 53.803 875.285 871.476 862.394 9.08127 5.5299 7.09563 19.9683
internal_count=12000 3901 3414 94 3320 63 20 92 8099 296 253 188 61 127 43 65 35 487 350 267 137 120 233 7803 7755 7704 51 30 30 83
is_linear=0
shrinkage=0.05


Tree=3
num_leaves=31
num_cat=0
split_feature=15 0 0 6 11 4 0 4 15 6 5 4 3 6 3 15 8 4 12 4 12 10 4 12 4 8 10 6 9 2
split_gain=6.59613 5.2696 5.06896 5.67878 4.4149 4.25411 4.09384 4.34478 4.9935 7.38023 10.2065 6.2276 4.30044 3.84993 6.48348 3.79478 3.46216 4.19131 6.4844 6.39079 6.1911 4.07763 5.56116 3.79051 3.32568 3.14701 2.92371 2.84568 2.80418 4.10901
threshold=206.59532333333337 11106.500000000002 11012.500000000002 1.1241500000000004 348.56660000000005 0.0011485000000000002 11482.500000000002 -0.0020004999999999997 188.99764333333334 0.74900000000000011 0.011772500000000002 0.0044090000000000006 -0.0042209999999999991 0.83035000000000014 0.0053135000000000014 254.21480000000003 209.04641029154703 0.0038580000000000008 222.41190000000003 -0.0035194999999999996 213.45660000000004 210.11555000000001 -0.0037669999999999995 222.41190000000003 -0.0013404999999999999 38.50095663064544 258.96435000000002 0.56335000000000013 0.51593400000000011 315.19905000000006
decision_type=2 2 2 2 2 2 2 2 2 2 2 2 2 2 2 2 2 2 2 2 2 2 2 2 2 2 2 2 2 2
left_child=6 2 4 15 28 -6 25 12 13 10 -10 -11 -8 27 -15 -4 21 18 20 -20 -18 22 -3 -19 -24 -1 -5 -9 29 -2
right_child=1 16 3 26 5 -7 7 8 9 11 -12 -13 -14 14 -16 -17 17 23 19 -21 -22 -23 24 -25 -26 -27 -28 -29 -30 -31
leaf_value=0.047166547541484888 0.011578535740890662 -0.070271183134161905 0.036029170373408165 0.019813974442108244 -0.065217075750441153 -0.0084660014520630995 -0.010497009457917508 0.016022355332465026 0.018379801568266043 0.021526185653235615 -0.06532140063321755 -0.059108689928962836 0.062909241914167177 0.04267685294669829 -0.050474457804386065 -0.015552136379807941 -0.021405283836375185 -0.094170681051870084 0.017880235044726672 -0.023996036037348484 0.029016924370613678 -0.089783616672141048 -0.01951754362836608 -0.010595479808018525 0.042290978377103015 0.0015559326273845622 0.090011730505785328 0.083290387111938313 -0.0034732422432133441 -0.022502973574944161
leaf_weight=3.7983465790748587 65.095565557479858 4.7470590174198195 6.015619337558749 2.4440923035144797 5.4034557342529288 8.4915892928838712 2.68691486120224 2.3587597459554663 6.5343277454376212 28.289394631981853 8.2284699082374555 2.6159188598394385 7.7502092868089658 5.4286347031593305 2.8479373902082443 8.7552012801170331 8.9100981205701846 2.6896693855524054 11.231646105647085 48.25033937394619 19.219882905483246 2.645361676812171 11.359717547893526 2.7375329732894897 2.6920812875032398 871.43992014974356 3.7732483148574829 4.7147964090108871 451.00059744715691 10.234223887324331
leaf_count=48 399 20 27 11 37 55 11 10 27 116 34 11 32 23 12 39 37 11 49 209 80 11 47 12 11 7755 17 20 2767 62
internal_value=-9.76971e-08 -0.00377378 -0.00177949 0.0223288 -0.00271611 -0.0305352 0.00269335 0.0142007 0.00910159 0.00080896 -0.0282735 0.014701 0.0440117 0.0337729 0.0106238 0.00545506 -0.0135501 -0.0093757 -0.0067344 -0.0160888 0.0130458 -0.0316614 -0.0234825 -0.0520145 -0.0076761 0.00175387 0.0624164 0.0608591 -0.00198169 0.00694826
internal_weight=1622.39 675.697 561.214 20.9882 540.225 13.895 946.694 71.4554 61.0182 45.6681 14.7628 30.9053 10.4371 15.3501 8.27657 14.7708 114.483 93.0392 87.612 59.482 28.13 21.4442 18.7989 5.4272 14.0518 875.238 6.21734 7.07356 526.33 75.3298
internal_count=12000 3901 3414 94 3320 92 8099 296 253 188 61 127 43 65 35 66 487 398 375 258 117 89 78 23 58 7803 28 30 3228 461
is_linear=0
shrinkage=0.05


Tree=4
num_leaves=31
num_cat=0
split_feature=15 0 0 6 11 4 0 4 4 3 15 4 4 3 7 7 4 15 9 5 3 6 5 3 7 3 3 7 3 4
split_gain=5.95561 4.76766 4.58849 5.18558 3.9982 3.88336 3.70663 3.94048 4.55339 7.77531 7.39432 6.38265 4.89178 3.90975 3.60175 10.9859 8.81225 3.43107 3.17831 6.43068 7.29466 6.05529 8.40127 6.5253 5.46334 4.2112 3.71164 5.05894 3.11154 2.95495
threshold=206.59532333333337 11106.500000000002 11012.500000000002 1.1241500000000004 348.56660000000005 0.0011485000000000002 11482.500000000002 -0.0020004999999999997 0.00024650000000000003 0.0011525000000000001 194.24967333333336 0.0012785000000000003 0.0017815000000000003 -0.0042209999999999991 0.0022795000000000007 0.0015595000000000001 -0.005487999999999999 254.21480000000003 0.8115475000000002 0.010040500000000003 -0.0022844999999999996 0.64885000000000015 0.012813500000000002 0.00099000000000000021 0.00014500000000000008 -0.0046939999999999994 0.0049705000000000001 0.0045335000000000002 -0.0045284999999999987 -0.00073349999999999989
decision_type=2 2 2 2 2 2 2 2 2 2 2 2 2 2 2 2 2 2 2 2 2 2 2 2 2 2 2 2 2 2
left_child=6 2 4 17 14 -6 -1 13 9 10 -9 -10 -13 -8 15 -2 -16 -4 21 20 28 23 25 24 -3 -23 27 -21 -20 -11
right_child=1 18 3 -5 5 -7 7 8 11 29 -12 12 -14 -15 16 -17 -18 -19 19 26 -22 22 -24 -25 -26 -27 -28 -29 -30 -31
leaf_value=0.0016662250530268194 -0.0018494707736123499 -0.083701650169311692 0.034300582429710187 0.05978045524647544 -0.062378707660126965 -0.0080445265120994581 -0.00997092772659737 0.028326046663763184 0.064333265121356106 0.076167944872075732 -0.065557934043610142 -0.042361704338778193 0.015249706661608504 0.060062378815018948 -0.077711493212468286 -0.031583812111575724 0.0059032380640554952 -0.014781085369925348 0.012846480485253751 -0.012750550632697401 -0.040108900213368832 0.044127317745982018 0.07433800347014656 0.014481967174595442 -0.020557930029202989 -0.015251287800604328 -0.061530018927389962 -0.051097365795621144 0.07679432961140692 -0.0016258172978692081
leaf_weight=875.22449517995119 327.98488026857376 4.4606762975454393 6.0031500309705761 6.1685412824153891 5.3677436858415595 8.4897102713584882 2.6872375905513763 2.9100674688816053 6.0674796700477591 2.4323849081993103 7.5089240223169327 4.1124866753816596 35.413133442401886 7.712598651647566 3.2140748947858802 34.314123123884201 160.80388493835926 8.751413017511366 4.1797143816947937 33.677019506692886 4.1863505691289884 3.9756145179271707 4.9059077799320212 10.065686821937559 14.762800469994543 11.995356813073158 7.0577238053083411 11.550840869545935 3.4910497218370438 2.4503863900899878
leaf_count=7803 2016 19 27 28 37 55 11 12 25 10 31 17 148 32 18 210 984 39 18 143 18 17 21 43 63 51 30 49 15 10
internal_value=-1.33829e-07 -0.00358687 -0.00169078 0.0212834 -0.00258066 -0.0290911 0.00255925 0.0135222 0.00866437 -0.0149364 -0.0393357 0.0165852 0.00925546 0.0419663 -0.00188266 -0.00466567 0.00426473 0.00518864 -0.0128941 -0.0202673 0.0129777 -0.00346656 0.0171091 -0.0181326 -0.03521 -0.000470318 -0.0278065 -0.022544 0.0419499 0.0371277
internal_weight=1621.93 675.406 561.098 20.9231 540.174 13.8575 946.519 71.2947 60.8949 15.3018 10.419 45.5931 39.5256 10.3998 526.317 362.299 164.018 14.7546 114.309 64.1427 11.8571 50.166 20.8769 29.2892 19.2235 15.971 52.2856 45.2279 7.67076 4.88277
internal_count=12000 3901 3414 94 3320 92 8099 296 253 63 43 190 165 43 3228 2226 1002 66 487 273 51 214 89 125 82 68 222 192 33 20
is_linear=0
shrinkage=0.05


Tree=5
num_leaves=31
num_cat=0
split_feature=13 10 9 0 3 3 12 4 5 4 14 15 15 3 0 0 4 4 9 12 13 14 4 4 4 13 14 9 11 2
split_gain=5.53437 6.15488 5.15358 5.23151 5.46225 7.08773 4.84155 4.66383 5.58978 5.63278 6.29693 5.04565 6.57853 4.99011 4.68352 6.64709 8.55195 4.45567 4.34183 4.19393 7.33976 5.92749 3.94397 5.42367 3.92661 3.42949 5.63289 4.55192 3.16662 2.83427
threshold=191.58397500000004 186.7587 0.51013500000000012 10824.500000000002 0.0013155 -0.0012489999999999999 185.99965000000003 0.00043850000000000003 0.0151415 0.00074350000000000013 1.8416014509084502 300.22404833333343 194.24967333333336 0.010138000000000003 9179.5000000000018 7910.5000000000009 -0.0028614999999999995 -0.0052574999999999992 0.78902050000000001 198.87150000000005 192.82879500000004 3.2281721040958904 -0.0026424999999999995 0.00036850000000000007 0.0049155000000000006 234.35225000000005 3.9282714087480248 1.0723010000000002 209.25610000000003 204.98330000000001
decision_type=2 2 2 2 2 2 2 2 2 2 2 2 2 2 2 2 2 2 2 2 2 2 2 2 2 2 2 2 2 2
left_child=1 -1 6 22 5 -5 -3 13 9 10 -9 12 -11 14 15 16 -2 -17 -12 20 -16 -21 -4 -24 -13 27 -27 29 -29 -10
right_child=7 2 3 4 -6 -7 -8 8 25 11 18 24 -14 -15 19 17 -18 -19 -20 21 -22 -23 23 -25 -26 26 -28 28 -30 -31
leaf_value=0.0017590235239774224 0.014225437180337815 -0.075398363470199944 -0.049008917629146477 0.060866681169313111 0.071352539328400119 -0.032342369970757949 0.0066051693446771463 -0.061595051425328756 -0.0060884392517350765 -0.014895684326069126 0.05405085319237074 -0.018375117144167199 0.0068614814883273534 0.059719646096783853 -0.043431908318607278 -0.041937521502686398 -0.015520984887384249 0.010088454231880479 0.013842748257596536 -0.024285127257486126 0.009050311061756874 -0.0063665743899247174 0.041088334883143424 0.0018063273321215073 0.020131125152799724 -0.072774640053392431 -0.012880326821084465 -0.080141856804814199 0.0043783068203048373 0.068213254971833628
leaf_weight=678.06335928291082 31.296192616224289 2.6014813929796201 2.4049933701753607 4.2080050110816956 9.5761303305625898 3.9577974975109118 5.8419440910220146 2.0191197842359569 2.3227305710315722 40.513629987835884 11.144892409443857 46.45186522603035 243.90563967823982 2.872257560491561 7.8420954495668402 4.2904785275459281 105.99659346789122 100.85569816827774 16.887914896011353 88.182165905833244 44.266098186373711 96.836675062775612 14.371054716408251 22.614841736853123 7.7210073620080939 6.0839247107505825 11.065107271075247 2.0233535170555115 2.4501367062330246 2.8685035705566406
leaf_count=6726 217 13 15 18 41 17 30 10 14 207 64 284 1352 15 37 25 744 595 97 423 208 463 79 126 46 33 65 11 12 13
internal_value=-1.7961e-07 0.00317363 0.0178008 0.0231893 0.0457337 0.0156902 -0.0186607 -0.00268862 0.0013366 0.00293982 0.0236856 0.00109852 0.00376232 -0.00598813 -0.00638167 -0.00149491 -0.00874022 0.00796554 0.0298281 -0.0113779 0.00115193 -0.0149068 0.0130352 0.0170695 -0.012887 -0.0207049 -0.0341289 0.00311445 -0.03385 0.0349682
internal_weight=1621.54 743.64 65.5762 57.1328 17.7419 8.1658 8.44343 877.896 395.458 368.644 30.0519 338.592 284.419 482.438 479.566 242.439 137.293 105.146 28.0328 237.127 52.1082 185.019 39.3909 36.9859 54.1729 26.8138 17.149 9.66472 4.47349 5.19123
internal_count=12000 7065 339 296 76 35 43 4935 2208 2060 171 1889 1559 2727 2712 1581 961 620 161 1131 245 886 220 205 330 148 98 50 23 27
is_linear=0
shrinkage=0.05


Tree=6
num_leaves=31
num_cat=0
split_feature=13 4 8 15 7 4 5 10 4 4 2 15 5 15 14 6 15 15 6 3 3 14 7 8 9 6 6 14 7 15
split_gain=5.10273 6.64376 9.10767 6.52692 6.25657 6.02973 5.67356 5.48349 7.44437 5.66306 5.52861 6.14594 5.51193 5.44842 5.14069 5.1085 6.80686 5.27841 5.10842 5.03809 9.44405 4.6214 4.56002 4.07919 3.72866 3.50477 7.53883 4.40957 3.99097 3.45872
threshold=200.33514500000001 0.00046750000000000009 226.81264088990488 236.34167000000005 -0.00042749999999999987 -0.0032234999999999994 0.012211500000000002 222.37270000000004 0.0045920000000000006 0.004807500000000001 222.35575000000003 194.72638000000003 0.015062500000000001 199.66532000000004 5.7294895526282614 0.55125000000000013 333.70310333333339 216.4576466666667 0.49730000000000002 -0.00080949999999999989 0.0049705000000000001 3.3404479948164276 0.0022795000000000007 225.527291776699 0.69352950000000002 1.0514500000000002 0.76085000000000014 1.5988618260742857 0.0092600000000000009 196.16706000000002
decision_type=2 2 2 2 2 2 2 2 2 2 2 2 2 2 2 2 2 2 2 2 2 2 2 2 2 2 2 2 2 2
left_child=13 2 6 4 -4 14 23 8 10 -10 11 -3 15 25 -5 16 -9 -17 -15 -8 -21 -14 -7 -2 -20 26 -1 -28 -29 -27
right_child=1 7 3 5 -6 22 19 12 9 -11 -12 -13 21 18 -16 17 -18 -19 24 20 -22 -23 -24 -25 -26 29 27 28 -30 -31
leaf_value=-0.00051418760678856432 -0.0071056569561987722 -0.07679042173026579 0.00083483074227714248 0.020767996803464285 0.074368698963770644 -0.012674237815760353 -0.040567434817300199 0.021959819146902287 -0.095209539145806918 -0.0078864349116381568 0.078685772321186537 0.016964596068783155 -0.080085550132146535 0.084014177233959361 -0.0098851301353002526 -0.042638372487398352 -0.079051462200262712 -0.0011390331326903407 -0.019109262880130012 0.012407719733731027 -0.078192820227257973 -0.016081089762994171 0.0036337204434756403 -0.058413000375525687 0.026079856760522782 -0.0013120167420155649 0.0045114513224189107 0.020534013136140238 -0.042399825661051598 -0.028619061711434891
leaf_weight=320.79570044577122 79.635560303926468 1.787634715437888 6.2982754111289978 39.715250790119171 5.3497175723314268 142.19325038790703 37.426230795681477 35.892577216029167 2.2803367525339118 9.9930571913719159 3.5448662340641013 78.819347985088825 3.3466057777404812 3.1193227320909527 20.862616673111916 8.0199675410985929 1.7490864098072041 171.82506336271763 5.7984180003404644 13.046875238418581 3.6897601038217536 17.932793751358986 61.364231571555138 4.0720441937446585 21.456851616501808 298.35731210559607 106.67949214577675 101.59725237637758 2.5831798240542403 12.064854644238947
leaf_count=2862 404 10 38 234 30 873 191 212 12 53 18 385 18 15 121 41 11 1035 30 70 19 101 379 22 107 2738 1149 735 25 62
internal_value=-1.87698e-07 -0.0030279 -0.00726734 -0.0020216 0.0346076 -0.0036369 -0.0177604 0.00220392 0.0122673 -0.0241106 0.0175729 0.0148854 -0.00186015 0.00259856 0.0102113 0.000516141 0.0172662 -0.00298965 0.023403 -0.0303698 -0.00756608 -0.0261471 -0.00775806 -0.00960156 0.0164661 0.00184813 0.00431295 0.0116568 0.0189736 -0.00237333
internal_weight=1621.3 748.845 413.654 275.783 11.648 264.135 137.87 335.191 96.4252 12.2734 84.1518 80.607 238.766 872.452 60.5779 217.487 37.6417 179.845 30.3746 54.1629 16.7366 21.2794 203.557 83.7076 27.2553 842.078 531.656 210.86 104.18 310.422
internal_count=12000 4277 2381 1675 68 1607 706 1896 478 65 413 395 1418 7723 355 1299 223 1076 152 280 89 119 1252 426 137 7571 4771 1909 760 2800
is_linear=0
shrinkage=0.05


Tree=7
num_leaves=31
num_cat=0
split_feature=13 10 6 12 14 4 7 4 12 15 6 2 6 14 12 12 12 14 7 3 2 3 2 6 12 6 13 10 3 12
split_gain=4.668 5.50957 4.95612 5.16068 4.46594 3.77911 5.28452 4.54688 7.00885 9.52155 5.17093 4.54453 6.69692 4.3891 3.92518 5.80686 4.85321 4.35211 4.32519 3.79495 4.60137 3.66075 4.95047 3.08071 8.00982 3.60612 3.05762 7.20628 7.41456 3.77216
threshold=191.58397500000004 186.7587 0.50805000000000011 185.99965000000003 1.1211110639253408 0.00043850000000000003 -0.0066864999999999989 0.0015885000000000003 194.60030000000003 190.51327500000005 0.55125000000000013 257.50195000000002 0.69895000000000007 2.4216468786373473 192.54220000000001 194.60030000000003 194.00800000000004 3.0230766169518843 -0.0046705000000000002 -0.0010804999999999996 211.65875000000003 -0.0070574999999999987 188.09265000000002 0.37245000000000006 219.81420000000003 0.54205000000000014 262.17930000000007 207.51870000000002 0.0048120000000000012 191.32820000000001
decision_type=2 2 2 2 2 2 2 2 2 2 2 2 2 2 2 2 2 2 2 2 2 2 2 2 2 2 2 2 2 2
left_child=1 -1 3 -3 -4 6 26 10 9 -9 19 12 -12 -13 18 16 -16 -17 -8 20 -7 -6 -23 24 -10 -25 27 29 -29 -2
right_child=5 2 4 -5 21 7 14 8 23 -11 11 13 -14 -15 15 17 -18 -19 -20 -21 -22 22 -24 25 -26 -27 -28 28 -30 -31
leaf_value=0.001576781763365869 -0.020482863431803427 -0.080477841256591159 -0.06906628053902765 0.0074102734022878942 -0.05038636822171199 0.062711792041382233 0.028583655114699694 0.0047947019318620825 -0.088216954413419424 -0.071551856852304377 -0.022808533510345425 -0.056291644279773762 0.020006899555738904 -0.0026801421708366681 0.0041693411196999557 -0.013189323241273178 0.074168719312392814 -0.0029394306536812739 -0.056999565152445156 0.053717187167450199 -0.023291677404214946 0.050523512090301162 0.016849075980813959 0.015567460320238117 0.0052656103178938983 -0.0017596549287271235 0.035165468517299632 0.03804419816364666 -0.044830564546408103 0.060633486101179503
leaf_weight=678.04377156496048 1.895990327000624 2.4749895483255377 1.3227754160761822 5.1370603889226913 1.6122741475701321 2.354766562581065 1.8575741946697233 7.9999474808573749 3.5296912193298322 8.3425927460193616 10.939477562904356 4.2978244274854651 55.307212345302105 34.172399073839188 6.5903996527194959 173.32007998973131 3.9664734378457069 257.30944676697254 7.1920052766799909 10.340053349733351 4.580424040555954 15.018824554979799 39.932901971042156 34.985519431531429 6.5315485298633575 211.91415604203939 11.268414989113806 3.8451717793941489 9.0530426353216154 5.8719583302736282
leaf_count=6726 10 12 8 26 9 11 10 41 18 42 57 28 294 208 32 973 19 1475 37 58 27 74 210 199 38 1187 68 21 52 30
internal_value=-2.76378e-07 0.0029145 0.0167625 -0.0211658 0.0217501 -0.00247018 -0.00544123 0.00115382 -0.00242886 -0.0341789 0.00918025 0.00499913 0.0129367 -0.00866952 -0.0068353 -0.00616667 0.0304698 -0.00706481 -0.0394322 0.0345248 0.00590984 0.0238738 0.0260526 -0.00040958 -0.02753 0.000695586 0.0142133 0.00278888 -0.0201242 0.0408347
internal_weight=1621.01 743.543 65.4988 7.61205 57.8868 877.466 482.171 395.296 273.303 16.3425 121.992 104.717 66.2467 38.4702 450.236 441.186 10.5569 430.63 9.04958 17.2752 6.93519 56.564 54.9517 256.961 10.0612 246.9 31.9346 20.6662 12.8982 7.76795
internal_count=12000 7065 339 38 301 4935 2727 2208 1525 83 683 587 351 236 2546 2499 51 2448 47 96 38 293 284 1442 56 1386 181 113 73 40
is_linear=0
shrinkage=0.05


Tree=8
num_leaves=31
num_cat=0
split_feature=13 4 12 5 11 4 2 12 4 14 7 5 3 3 14 3 4 11 6 6 0 0 5 0 2 14 7 14 4 0
split_gain=4.24892 5.47914 8.10738 4.90846 5.21251 6.30706 5.15271 4.89775 5.45597 5.03372 4.73558 4.44103 5.82028 7.22034 4.222 7.85029 4.11698 3.73432 3.67096 6.88566 6.46124 5.07175 9.56255 4.93815 5.41652 3.80397 4.90886 3.43056 3.21414 3.78255
threshold=200.33514500000001 0.00046750000000000009 227.74360000000004 0.016800000000000006 304.89910000000003 0.00057450000000000003 299.79595000000006 229.25210000000001 -0.0032234999999999994 5.7294895526282614 0.0022315000000000004 0.012211500000000002 -0.00080949999999999989 0.0049705000000000001 3.0230766169518843 -0.0026114999999999997 -0.00065049999999999993 244.53620000000004 1.0514500000000002 0.76085000000000014 11717.500000000002 11764.500000000002 0.010925500000000003 11482.500000000002 204.03340000000003 1.5988618260742857 0.0092600000000000009 2.732824125902066 0.0044090000000000006 9132.5000000000018
decision_type=2 2 2 2 2 2 2 2 2 2 2 2 2 2 2 2 2 2 2 2 2 2 2 2 2 2 2 2 2 2
left_child=18 2 11 4 5 -3 -7 27 9 -9 -10 14 -13 -14 16 -16 -2 -5 19 21 25 23 -23 24 -1 -21 -27 -4 29 -6
right_child=1 3 7 17 28 6 -8 8 10 -11 -12 12 13 -15 15 -17 -18 -19 -20 20 -22 22 -24 -25 -26 26 -28 -29 -30 -31
leaf_value=-4.7064832614277283e-05 -0.010339627896203463 0.053000112717168583 0.080316615392960047 -0.092035004496001452 -0.011171215137590302 0.0030432956400384095 0.036533888353537006 0.020467379699780717 -0.011685034653990616 -0.0092045939507296396 0.0043098698663124064 -0.041421515699015143 0.011787617611133035 -0.062114694405678184 -0.011443668161366985 0.042612504155264075 -0.043254147142568949 -0.0055415680836946712 -0.001872501195698339 0.003369140326803795 0.055855666325301992 0.040387218037522821 -0.068259761025354512 0.040193928426470571 0.09651910036726008 0.018456696755794959 -0.054842472171154427 0.00060218507163354337 0.011096417261889577 -0.056749183728150666
leaf_weight=313.33507953584194 36.670178964734077 6.9164170920848838 3.0488985627889624 2.4067886471748343 46.854390144348145 244.76276728510857 12.050424829125403 41.180400863289833 144.84561045467854 21.891975075006485 68.000056326389313 31.922485791146755 13.775205910205843 4.3483846932649604 23.020220518112183 9.483197405934332 12.822456642985342 2.5917093902826309 321.67649128288031 105.4441681355238 7.9998356848955146 2.9006175845861417 6.7108482122421265 7.9941455870866767 1.4589064121246327 102.4131615832448 2.3362427875399581 2.4217214286327362 14.404671236872671 5.0419798493385306
leaf_count=2839 186 40 19 11 291 1357 73 243 889 126 415 162 74 23 114 49 68 15 2854 1145 33 12 28 34 8 746 24 13 84 25
internal_value=-2.9216e-07 -0.00276402 -0.00661509 0.00198826 0.00273307 0.0058837 0.00461477 -0.00181873 -0.00274758 0.0101684 -0.00657497 -0.0168364 -0.0285737 -0.00594373 -0.00967258 0.00432776 -0.0188671 -0.0471884 0.00237115 0.00485045 0.0117518 0.000320242 -0.0354715 0.00138599 0.000400469 0.0100733 0.0168219 0.0450288 -0.00979937 -0.0155993
internal_weight=1620.73 748.46 413.431 335.029 330.031 263.73 256.813 281.389 275.918 63.0724 212.846 132.042 50.0461 18.1236 81.9961 32.5034 49.4926 4.9985 872.269 550.593 218.193 332.4 9.61147 322.788 314.794 210.194 104.749 5.47062 66.301 51.8964
internal_count=12000 4277 2381 1896 1870 1470 1430 1705 1673 369 1304 676 259 97 417 163 254 26 7723 4869 1948 2921 40 2881 2847 1915 770 32 400 316
is_linear=0
shrinkage=0.05


Tree=9
num_leaves=31
num_cat=0
split_feature=13 10 6 12 14 6 15 6 14 0 8 3 2 6 8 7 7 0 5 6 3 6 7 3 2 3 6 0 7 8
split_gain=3.91177 4.8548 4.42149 4.65227 4.00392 3.41098 4.04271 5.45734 4.77992 11.8292 6.83109 3.3255 4.49204 3.175 3.12406 3.1159 7.57484 6.0655 6.41291 5.73367 4.69419 3.6419 4.30987 4.2489 3.62012 3.9897 3.54009 3.09602 3.03756 2.85177
threshold=191.58397500000004 186.7587 0.50805000000000011 185.99965000000003 1.1211110639253408 0.53455000000000008 328.10726833333337 0.44435000000000008 1.8920863744679466 10307.500000000002 208.30319837040352 -0.0070574999999999987 188.09265000000002 0.23550000000000001 325.36467437707688 0.0022795000000000007 0.0015595000000000001 10965.500000000002 0.011042500000000002 1.8731000000000002 -0.0035584999999999996 1.7093500000000004 0.0070125000000000014 -0.0046074999999999996 191.32820000000001 -0.0048394999999999992 0.61885000000000012 9038.5000000000018 0.0085375000000000017 38.50095663064544
decision_type=2 2 2 2 2 2 2 2 2 2 2 2 2 2 2 2 2 2 2 2 2 2 2 2 2 2 2 2 2 2
left_child=1 29 3 -3 -4 6 8 -8 9 10 -2 -6 -13 -10 -15 16 24 26 -19 21 28 22 -17 -23 -7 -26 -18 -22 -21 -1
right_child=5 2 4 -5 11 15 7 -9 13 -11 -12 12 -14 14 -16 19 17 18 -20 20 27 23 -24 -25 25 -27 -28 -29 -30 -31
leaf_value=0.044716584314971337 0.10047457443955661 -0.076659673644701776 -0.06564943302934434 0.0069290040336214666 -0.048389553458806793 -0.045477887390543953 -0.073278846062723543 0.011425908850813356 0.077108143336467372 -0.076067380108504612 -0.0066927181178932987 0.04782887295313764 0.015715890563083708 0.00851803499717654 0.063275628259477842 0.004134833923644156 -0.083821079698591636 -0.035044485165472643 0.038933880102929259 -0.0038782763002160395 0.021345179993219891 -0.0012600150568724577 -0.012331053859482903 -0.067747339080386867 0.034814670245792038 -0.0038960787285538287 -0.029442538603667939 0.097274155824516706 0.057503645567621699 0.0011701772276503316
leaf_weight=3.7807487696409217 1.9100417792797069 2.4638299047946921 1.3211877197027195 5.1315674632787704 1.6114718168973912 5.1479781568050376 3.7344288080930701 3.8743086904287338 1.7865512520074833 5.6432627886533728 6.7134466618299484 14.980384975671766 39.881068214774132 103.58886630833149 2.671966776251792 169.82284108549356 3.2767831459641448 5.185211315751074 6.7337807714939117 8.5641891807317752 2.2477747872471801 5.374360054731369 51.881471388041973 4.3460814133286458 6.7589921206235877 437.0810711979866 34.552862673997879 3.3336672335863113 2.6358277499675742 674.20602098852396
leaf_count=48 11 12 8 26 9 26 23 24 10 25 41 74 210 581 16 951 19 22 29 48 15 30 291 24 36 2476 207 16 14 6678
internal_value=-3.93892e-07 0.00266787 0.0156788 -0.0201859 0.0203922 -0.00226245 0.00521483 -0.0301479 0.00741462 -0.0197865 0.0170441 0.0224051 0.0244846 0.0110063 0.00989493 -0.00356305 -0.00584123 -0.024353 0.0067505 0.00101465 0.0292355 -0.00103174 0.000281618 -0.030987 -0.0037901 -0.00330657 -0.0341528 0.0666958 0.0105674 0.00141301
internal_weight=1620.24 743.376 65.3895 7.5954 57.7941 876.866 129.923 7.60874 122.314 14.2668 8.62349 56.4729 54.8615 108.047 106.261 746.943 498.737 49.7486 11.919 248.206 16.7815 231.425 221.704 9.72044 448.988 443.84 37.8296 5.58144 11.2 677.987
internal_count=12000 7065 339 38 301 4935 731 47 684 77 52 293 284 607 597 4204 2815 277 51 1389 93 1296 1242 54 2538 2512 226 31 62 6726
is_linear=0
shrinkage=0.05


Tree=10
num_leaves=31
num_cat=0
split_feature=11 4 4 5 5 5 3 10 0 12 4 2 5 9 2 9 2 12 2 0 2 9 9 5 10 14 0 14 9 12
split_gain=3.60631 3.34903 3.28726 5.27812 6.83554 5.08751 5.1473 4.60429 4.5543 5.20781 5.83606 6.36505 4.11498 6.16402 4.83113 3.91921 3.84304 3.70375 3.51916 3.38729 5.17343 3.55079 3.34263 3.07589 2.89712 2.68909 2.57059 3.97882 3.00109 2.47888
threshold=348.56660000000005 0.0011485000000000002 0.00014750000000000003 0.0151415 0.013753500000000002 0.013361500000000002 0.0076380000000000007 116.07600000000001 9179.5000000000018 198.87150000000005 -0.0018304999999999999 191.96205 0.015293500000000002 1.0827655000000003 191.96205 0.53769800000000012 179.10410000000002 112.54510000000002 264.92150000000009 7957.5000000000009 302.83230000000009 0.35967800000000005 0.96856850000000017 0.011085500000000002 39.283000000000008 1.252483601767683 5137.5000000000009 2.9442554242060273 1.0087030000000003 204.98330000000001
decision_type=2 2 2 2 2 2 2 2 2 2 2 2 2 2 2 2 2 2 2 2 2 2 2 2 2 2 2 2 2 2
left_child=2 -2 8 4 5 15 -7 17 19 10 11 -10 14 -14 -11 -4 -9 25 -18 24 21 -21 -22 -12 -1 -5 28 -28 -6 -26
right_child=1 -3 3 7 26 6 -8 16 9 12 23 -13 13 -15 -16 -17 18 -19 -20 20 22 -23 -24 -25 29 -27 27 -29 -30 -31
leaf_value=0.035455124273033906 -0.05638134663238438 -0.0059200562131701551 0.011832621818471126 0.036053228649616818 0.017940400470247683 -0.0067694676777362147 -0.052180157491009883 -0.07776765674362468 0.0031669216976914064 -0.083611273261375588 0.0058247652150934465 0.0409319648830739 0.046926262023840246 -0.032886194201422705 -0.013315167300749303 0.0010891124843860963 -0.0074317185669877193 0.09950077993561085 -0.046044372283612356 0.068249647647667513 0.0060099956266927781 0.014203781782313688 -0.026361128305439237 -0.01731656503725364 0.00083055163350792625 -0.025708264270267751 0.039758386708889461 0.013216059458192032 -0.017883913841012376 -0.0078348130908702327
leaf_weight=5.3575695976614943 5.3517854511737815 8.5269173532724363 102.54070495814085 3.4704181551933271 13.627925992012026 33.378370389342308 7.6751841977238646 2.9406583085656157 60.416332125663757 2.4815572351217261 20.747318282723427 13.684552207589148 6.6661414355039579 3.7971296608448029 162.09935738146305 493.09874883294106 21.83720297366381 1.2062291726469991 8.0859251469373685 3.1822237223386756 19.29842509329319 67.55410173535347 13.59079350531101 46.6372090280056 300.44491355866194 3.5809961557388306 20.838839277625084 43.788122452795506 10.237864166498182 113.78953351825476
leaf_count=68 38 56 773 39 155 239 62 26 279 12 96 63 33 19 777 3686 122 10 46 19 111 405 78 222 3246 39 123 244 116 798
internal_value=-4.29152e-07 -0.0253785 0.000218875 0.00258687 0.003575 0.00176525 -0.0152592 -0.0148392 -0.00194202 -0.00667616 0.000457442 0.0101412 -0.0124421 0.0179623 -0.0143751 0.00293863 -0.0232258 0.0185379 -0.0178658 0.000921974 0.00901731 0.0166351 -0.00736671 -0.0101915 -0.00107731 0.00468822 0.016596 0.0217746 0.00257261 -0.00154981
internal_weight=1619.93 13.8787 1606.05 766.307 725.186 636.693 41.0536 41.1214 839.747 316.53 141.485 74.1009 175.044 10.4633 164.581 595.639 32.8638 8.25764 29.9231 523.218 103.626 70.7363 32.8892 67.3845 419.592 7.05141 88.4928 64.627 23.8658 414.234
internal_count=12000 94 11906 5680 5398 4760 301 282 6226 1501 660 342 841 52 789 4459 194 88 168 4725 613 424 189 318 4112 78 638 367 271 4044
is_linear=0
shrinkage=0.05


Tree=11
num_leaves=31
num_cat=0
split_feature=13 11 6 0 12 5 8 8 9 9 11 3 5 6 15 9 0 9 3 12 6 0 6 6 7 0 2 11 13 8
split_gain=3.3149 4.47702 5.10129 6.49739 4.49358 3.92034 3.71495 6.1198 5.44789 3.52881 3.82158 3.15905 3.00173 2.85059 3.59516 5.12026 4.29416 4.06867 3.87879 3.85246 2.92796 7.33725 5.43312 5.3591 4.62385 3.76891 3.67285 5.50268 3.62513 3.5055
threshold=191.58397500000004 187.46220000000002 0.64885000000000015 8004.5000000000009 190.68240000000003 0.011813500000000003 189.91259555913709 191.72506260119113 0.44186350000000008 1.0144180000000003 188.09265000000002 0.0074810000000000007 0.011085500000000002 0.53455000000000008 328.10726833333337 0.44186350000000008 11247.500000000002 0.41881600000000008 0.0037400000000000007 222.41190000000003 0.6523500000000001 7487.5000000000009 0.63645000000000007 0.64535000000000009 0.0049340000000000009 6923.5000000000009 263.24365000000006 266.42065000000008 194.74065000000002 190.60258256033629
decision_type=2 2 2 2 2 2 2 2 2 2 2 2 2 2 2 2 2 2 2 2 2 2 2 2 2 2 2 2 2 2
left_child=1 -1 4 11 6 -6 8 -8 -3 -5 -11 12 -4 14 16 -16 -2 19 -19 -18 21 23 24 -15 -23 26 28 -28 -22 -27
right_child=13 2 3 9 5 -7 7 -9 -10 10 -12 -13 -14 20 15 -17 17 18 -20 -21 25 22 -24 -25 -26 29 27 -29 -30 -31
leaf_value=0.0013609875685570557 0.01076478726953835 0.013136997683722562 -0.086644123830973432 0.052772261477215643 -0.012217297387447132 0.085677154882246587 0.077831642158884273 -0.038075358874460674 -0.078467978719511 0.071177147877695676 0.0076898608918059726 0.052338070467376235 -0.0091263469617295489 0.023971459083160868 -0.065663650170029952 0.016890516636813482 -0.018892082878579963 -0.012424528435509964 0.059358654370956825 -0.091585588899762468 -0.073336467313614193 -0.018731999473171782 -0.054229865126261358 -0.078729130137642073 0.01809607742867787 -0.025715826386224667 -0.073260879495498393 -0.015229123412696775 -0.0026853272138522635 -0.00015165049821440235
leaf_weight=688.41608785092831 103.89681649953127 2.5082160830497724 1.754739150404929 15.606678187847139 2.0163098946213713 2.075331911444664 1.9844313859939573 2.6725534871220589 4.5990452915430069 2.9002590626478186 12.972764149308203 1.3790099173784254 4.3317645192146301 17.530632093548778 4.1867295652627936 3.4064618200063705 6.3895116448402423 6.7761931866407377 2.605460524559021 2.5499459803104401 1.8902024775743473 58.311105743050575 9.2252844125032407 1.3694691210985173 9.9818322956562024 13.734453767538069 5.5485502332448986 15.485672667622564 46.014272272586823 567.49218001961708
leaf_count=6778 606 13 13 74 11 12 10 14 23 14 61 10 32 127 26 21 27 29 11 11 15 306 50 10 50 68 41 116 345 3076
internal_value=-4.67662e-07 0.00245589 0.0162102 0.025944 -0.00769806 0.037436 -0.0233958 0.0113149 -0.0461398 0.0358895 0.01929 -0.015993 -0.0314747 -0.00208356 0.0047551 -0.0286282 0.00682914 -0.0154894 0.007511 -0.0396276 -0.00327262 -0.0114036 -0.0182143 0.0165299 -0.0133491 -0.0020668 -0.0131205 -0.0305371 -0.00547306 -0.000755735
internal_weight=1619.61 743.217 54.8011 38.9452 15.8559 4.09164 11.7642 4.65698 7.10726 31.4797 15.873 7.46551 6.0865 876.395 129.811 7.59319 122.218 18.3211 9.38165 8.93946 746.584 96.4183 77.5182 18.9001 68.2929 650.165 68.9387 21.0342 47.9045 581.227
internal_count=12000 7065 287 204 83 23 60 24 36 149 75 55 45 4935 731 47 684 78 40 38 4204 543 406 137 356 3661 517 157 360 3144
is_linear=0
shrinkage=0.05


Tree=12
num_leaves=31
num_cat=0
split_feature=11 4 4 5 5 5 3 10 0 10 12 0 4 4 11 4 2 12 11 12 3 2 10 0 0 9 4 2 9 9
split_gain=3.23597 3.13546 2.92257 4.73034 6.21736 4.53699 4.66204 4.13055 4.05995 5.14965 4.76744 3.81631 3.93664 5.66111 3.7 3.51944 3.49102 3.35555 3.17453 3.7858 3.19335 3.14799 2.6136 2.35363 3.7581 2.70888 2.27807 3.46777 4.18094 2.19721
threshold=348.56660000000005 0.0011485000000000002 0.00014750000000000003 0.0151415 0.013753500000000002 0.013361500000000002 0.0076380000000000007 116.07600000000001 9038.5000000000018 291.81390000000005 163.44915000000003 7957.5000000000009 -0.0052574999999999992 -0.0045649999999999987 285.64310000000006 0.0015355000000000002 179.10410000000002 112.54510000000002 307.43830000000008 324.26425000000006 -0.0038079999999999993 264.92150000000009 39.283000000000008 5137.5000000000009 11059.500000000002 1.0087030000000003 0.0022340000000000003 352.08055000000007 0.79367550000000009 0.34205500000000005
decision_type=2 2 2 2 2 2 2 2 2 2 2 2 2 2 2 2 2 2 2 2 2 2 2 2 2 2 2 2 2 2
left_child=2 -2 8 4 5 15 -7 17 11 10 -10 22 -13 -14 -12 -4 -9 -5 20 -20 -11 -18 -1 25 -25 -6 -3 -28 -29 -24
right_child=1 26 3 7 23 6 -8 16 9 18 14 12 13 -15 -16 -17 21 -19 19 -21 -22 -23 29 24 -26 -27 27 28 -30 -31
leaf_value=0.033704286981690479 -0.054277434281022857 0.038107758368875803 0.0078071211463591715 0.0043869832334823451 0.016978917454026167 -0.0063532373621224148 -0.049589240142091859 -0.07402806751420625 0.043394111867375934 -0.00017466097287470418 -0.0064213859066414893 -0.044054382161695008 0.085327622574639508 0.010076623864635105 0.027709384113777172 -0.00016856037791575099 -0.007043854926206343 0.094752162859419994 0.025672150013805042 -0.049247792711026375 -0.06835432809296596 -0.04360944330210411 -0.021949045769333247 0.027154654785548005 -0.0019623399154313167 -0.01705873484926887 -0.061272097393965878 -0.042569423272057844 0.068016994629400029 -0.00084040032286775753
leaf_weight=5.3436329290270796 5.3022702932357779 2.2308067381381971 218.44954530894756 7.0496655926108343 13.625114992260935 33.372754372656345 7.667266070842742 2.9374955967068663 5.0636092722415915 2.2501941919326791 300.13271296024323 3.2128004878759375 2.5755701065063468 84.388289093971252 8.1563176661729795 377.07208606600761 21.827121391892437 1.2025512307882307 3.8049398809671393 3.0280839204788208 7.2535843402147302 8.0595134049653989 12.718480348587034 50.396453768014908 14.205688223242758 10.237291581928728 2.8659857027232647 1.6918610334396365 1.727281719446182 401.46923922747374
leaf_count=68 38 15 1626 78 155 239 62 26 22 12 1427 19 15 504 40 2833 122 10 21 17 37 46 124 306 61 116 19 11 11 3920
internal_value=-4.89783e-07 -0.0240932 0.000206871 0.00243986 0.00337504 0.00164896 -0.0144308 -0.0140666 -0.00183114 -0.00615483 -0.004728 0.00096551 0.0102973 0.0123053 -0.0055184 0.00275708 -0.0220166 0.0175554 -0.0335226 -0.00752895 -0.0522115 -0.0169045 -0.00104033 0.0157953 0.020752 0.00237631 -0.00529959 -0.0207063 0.0132966 -0.00148858
internal_weight=1619.32 13.8182 1605.5 766.103 725.026 636.562 41.04 41.0763 839.397 329.689 313.353 509.708 90.1767 86.9639 308.289 595.522 32.8241 8.25222 16.3368 6.83302 9.50378 29.8866 419.531 88.4645 64.6021 23.8624 8.51594 6.28513 3.41914 414.188
internal_count=12000 94 11906 5680 5398 4760 301 282 6226 1576 1489 4650 538 519 1467 4459 194 88 87 38 49 168 4112 638 367 271 56 41 22 4044
is_linear=0
shrinkage=0.05


Tree=13
num_leaves=31
num_cat=0
split_feature=13 4 12 10 12 14 14 6 14 12 4 14 0 5 7 14 5 3 3 14 4 4 4 7 6 6 0 0 5 0
split_gain=3.05181 4.30185 6.82864 4.52205 7.42665 6.03501 7.27897 5.80337 4.45597 4.35637 4.77207 4.59694 4.20089 4.35339 4.07434 4.06881 4.03456 5.20237 6.62842 3.92652 7.54943 5.72726 3.86983 3.40758 3.18885 6.08168 5.65897 4.43142 8.2857 4.40362
threshold=200.33514500000001 0.00046750000000000009 227.74360000000004 222.37270000000004 214.50900000000004 1.8416014509084502 2.4599659223388244 1.1489500000000004 1.8555147209227296 229.25210000000001 -0.0032234999999999994 5.7294895526282614 11623.500000000002 0.015062500000000001 0.0022315000000000004 3.3404479948164276 0.012211500000000002 -0.00080949999999999989 0.0049705000000000001 3.3702727390038301 -0.00073349999999999989 -0.00065049999999999993 0.00074350000000000013 0.0021735000000000005 1.0514500000000002 0.76085000000000014 11717.500000000002 11764.500000000002 0.010925500000000003 11482.500000000002
decision_type=2 2 2 2 2 2 2 2 2 2 2 2 2 2 2 2 2 2 2 2 2 2 2 2 2 2 2 2 2 2
left_child=24 2 16 4 5 7 -7 -3 -6 -4 11 -11 13 22 -12 -15 19 -18 -19 21 -21 -2 -5 -10 25 27 -27 29 -29 -1
right_child=1 3 9 12 8 6 -8 -9 23 10 14 -13 -14 15 -16 -17 17 18 -20 20 -22 -23 -24 -25 -26 26 -28 28 -30 -31
leaf_value=0.00012456867820107638 -0.0062089350278001741 -0.064530919116991867 0.042873482588971334 0.024626484194031715 0.083629459374719051 0.041236990380906308 -0.0012132426805768039 0.02097682025803041 0.0021352747147183465 0.019691255867052625 -0.010561418832788943 -0.0086773929814027411 -0.061239175364976112 -0.073793329834107455 0.0042824809392315215 -0.01330784399014775 -0.038550105665590917 0.011993571836704915 -0.058958704698701528 -0.0019214829184900908 0.082915545785690214 -0.042351263355018626 -0.00086287094381200941 0.040582927951967968 -0.0019458827063473857 0.0092466814534934508 0.052292209108497058 0.037297763067565284 -0.064430999483873791 0.037821353543137391
leaf_weight=314.65311907231808 43.642336085438728 5.9690949171781522 5.4586853533983222 16.100384384393692 3.7427408695220974 12.87453208863735 46.830682873725891 2.9724422171711922 9.7099570482969302 41.160453483462334 144.61808352172375 21.866350725293159 2.9384962171316138 3.2927780449390438 67.947155520319939 17.867607414722443 31.778686784207821 13.771633431315424 4.3255700320005408 20.553270980715755 3.0058020502328864 14.637422025203703 198.1817577034235 14.177451893687246 321.54872483387589 210.04629421234131 7.923231601715087 2.870904326438902 6.6105712652206421 7.9426933079957953
leaf_count=2847 224 28 32 98 17 65 233 15 48 243 889 126 12 18 415 101 162 74 23 101 15 77 1189 72 2854 1915 33 12 28 34
internal_value=-5.83285e-07 -0.0023448 -0.00576037 0.00186795 0.0110136 0.00220333 0.00794051 -0.0361055 0.0329024 -0.00135776 -0.00223385 0.00984911 -0.00182575 -0.00108423 -0.00581652 -0.02272 -0.0151546 -0.0263641 -0.00496535 -0.00832308 0.00890251 -0.0152864 0.00105231 0.0249544 0.00200966 0.00432201 0.0108114 6.24913e-05 -0.0336285 0.00105271
internal_weight=1619.02 747.423 412.765 334.658 96.2769 68.6468 59.7052 8.94154 27.6301 281.051 275.592 63.0268 238.381 235.443 212.565 21.1604 131.715 49.8759 18.0972 81.8388 23.5591 58.2798 214.282 23.8874 871.596 550.047 217.97 332.077 9.48148 322.596
internal_count=12000 4277 2381 1896 478 341 298 43 137 1705 1673 369 1418 1406 1304 119 676 259 97 417 116 301 1287 120 7723 4869 1948 2921 40 2881
is_linear=0
shrinkage=0.05


Tree=14
num_leaves=31
num_cat=0
split_feature=12 13 3 7 9 6 6 5 3 6 0 9 7 5 2 10 0 6 0 3 6 9 12 0 15 12 0 0 5 6
split_gain=2.9039 3.26876 3.94532 3.72698 2.64818 6.70986 3.91534 4.15361 3.89279 4.2356 3.89067 3.15417 5.11408 4.04696 3.74166 3.66699 3.61918 3.55816 3.04536 2.65025 3.10157 3.8696 4.03963 3.07562 3.19994 2.85493 2.57245 2.43722 3.21586 2.79205
threshold=340.93810000000002 336.10298500000005 -0.0070574999999999987 0.0057505000000000013 0.53769800000000012 0.6523500000000001 0.61465000000000014 0.0087875000000000019 -0.0059054999999999984 0.58025000000000015 6782.5000000000009 0.85595150000000009 0.0085375000000000017 0.011460000000000003 241.03865000000002 238.9539 11106.500000000002 0.84715000000000007 11200.500000000002 -0.0082689999999999968 0.37245000000000006 0.27378350000000001 283.18080000000003 11764.500000000002 300.22404833333343 295.20900000000006 8380.5000000000018 8521.5000000000018 0.011633500000000001 0.76085000000000014
decision_type=2 2 2 2 2 2 2 2 2 2 2 2 2 2 2 2 2 2 2 2 2 2 2 2 2 2 2 2 2 2
left_child=4 -2 -3 27 19 6 8 26 18 -10 -9 12 17 -14 15 -13 -16 -7 -6 -1 21 25 -23 24 -22 -21 -8 28 -4 -29
right_child=1 2 3 -5 5 11 7 10 9 -11 -12 14 13 -15 16 -17 -18 -19 -20 20 23 22 -24 -25 -26 -27 -28 29 -30 -31
leaf_value=-0.013269318471019715 -0.087470296503367892 0.034074896267021419 -0.017133979481844221 -0.067141900693847109 0.028625361875765861 0.0041290301656450546 -0.016070570883518546 -0.0082884126991219689 -0.020047895500543183 0.0018896967527546916 -0.03584102917643011 0.00037994386799104253 0.035725751824644235 -0.043318494942551196 -0.0048809825547727025 0.029471115237272874 -0.0286249847808711 0.022020359998818555 -0.05568688042054 0.021582685166663285 0.012311217669428014 -0.017676853227348032 0.03079845738722525 -0.030380813458909847 -0.012756004798022705 -0.051829565266786205 0.072869274749697607 -0.093150022751392003 0.033421076591075675 -0.013099531674657322
leaf_weight=18.779347404837608 1.5099178887903715 3.9795034974813488 9.9240617007017189 3.5260802358388892 11.877610668539999 307.07164624333382 1.4580982699990266 21.992928758263588 40.823129959404469 47.726042628288269 30.694836378097534 607.88444090634584 1.9771622493863095 8.9466925039887411 181.85877156257629 11.028995081782339 17.602147430181503 30.55464031547308 1.1771655231714238 16.534811541438106 168.54612526297569 36.948891699314117 4.863433673977851 4.7394508570432654 13.771440178155897 1.4396410882472981 1.8376313894987104 1.7247611880302418 4.6054013520479193 2.9563252180814743
leaf_count=140 12 25 70 22 97 2272 13 235 304 362 164 4827 14 62 1133 64 78 227 5 127 1259 281 28 20 82 9 9 10 32 17
internal_value=-6.80187e-07 -0.0158977 -0.0118526 -0.0198911 0.000281503 -0.000632255 -0.0103164 -0.0209338 -0.00446618 -0.00822402 -0.02434 0.000675535 0.00465876 -0.0290119 -0.00102094 0.000898347 -0.00697636 0.00574817 0.0210228 0.0048379 0.00621546 -0.00369821 -0.0120384 0.00938404 0.0104178 0.0157028 0.0335205 -0.0112183 -0.00110955 -0.0425944
internal_weight=1618.36 28.2261 26.7161 22.7366 1590.14 1324.51 157.587 55.9835 101.604 88.5492 52.6878 1166.92 348.55 10.9239 818.374 618.913 199.461 337.626 13.0548 265.623 246.844 59.7868 41.8123 187.057 182.318 17.9745 3.29573 19.2105 14.5295 4.68109
internal_count=12000 188 176 151 11812 9866 1189 421 768 666 399 8677 2575 76 6102 4891 1211 2499 102 1946 1806 445 309 1361 1341 136 22 129 102 27
is_linear=0
shrinkage=0.05


Tree=15
num_leaves=29
num_cat=0
split_feature=11 4 4 12 15 5 3 14 4 4 6 12 0 6 14 0 13 5 0 6 14 6 6 12 5 6 7 14
split_gain=2.77048 2.91195 2.5113 3.99368 2.64881 2.2157 4.71209 3.80724 2.52083 4.4824 3.10806 2.15194 2.14563 2.00044 2.33689 1.96675 1.75297 2.09434 1.71373 3.20288 2.59444 2.57917 1.66513 1.34765 1.34166 0.88764 1.04711 0.0254654
threshold=348.56660000000005 0.0011485000000000002 0.0060960000000000016 327.45285000000007 42.672551666666671 0.015636500000000005 0.0044630000000000008 4.8912826711645661 0.00014750000000000003 0.0015355000000000002 1.8967500000000002 263.50345000000004 2304.5000000000005 1.0453500000000002 4.5395274121252038 9038.5000000000018 40.022665000000011 0.010386000000000001 8803.5000000000018 1.2646000000000002 1.1322353932139317 0.90345000000000009 0.83035000000000014 42.297350000000009 0.0096215000000000016 1.22055 -0.0045014999999999994 4.1969025136192206
decision_type=2 2 2 2 2 2 2 2 2 2 2 2 2 2 2 2 2 2 2 2 2 2 2 2 2 2 2 2
left_child=2 22 4 18 12 8 11 -8 10 -10 -6 -7 16 14 -3 -16 17 -1 20 21 -4 -20 -2 -18 -22 26 -14 -24
right_child=1 13 3 -5 5 6 7 -9 9 -11 -12 -13 25 -15 15 -17 23 -19 19 -21 24 -23 27 -25 -26 -27 -28 -29
leaf_value=-0.0011525287320548749 -0.020539901864860294 -0.073462932616823504 -0.040400475317466697 -0.072423328182255622 -0.0026213078512899173 -0.0087074933576701992 -0.016732738184899735 -0.0762571493791903 0.0073376007518061379 -0.00088679940361209651 0.011112766259687205 0.020635296674955814 0.080864320309902926 0.029957627334896021 0.025928271774804515 -0.045330746642583741 -0.01616933194848753 0.042219141475405397 0.017637920817533022 0.046487969466703409 0.0076231057991369734 -0.056787010398202553 -0.072037254180597324 0.035784862146596361 0.044502427370148784 0.10004077600887706 0.011139287026498201 -0.081495099240997959
leaf_weight=4.8771887943148666 2.3545486629009238 1.5642821900546531 1.1945633515715659 1.2048708349466313 762.1716922596097 27.104454159736633 7.2520118430256826 4.2669089883565903 265.95938283577561 439.33887938037515 43.547347746789455 8.1203562915325147 0.90619705617427881 2.8380126357078552 2.5070015639066696 1.5776495933532713 6.7857436984777433 6.4835078865289688 2.1087278872728339 2.5101992785930634 3.1706164926290503 2.598566859960556 1.2928612604737284 1.529515355825424 11.099228717386721 0.82817709445953358 1.3269197642803183 1.5833315551280973
leaf_count=62 17 11 14 7 5597 206 62 22 1959 3231 319 45 11 19 17 9 85 82 10 12 26 13 10 19 98 10 16 11
internal_value=-7.5826e-07 -0.0223755 0.000190549 0.0162815 -5.26417e-05 -0.000299938 -0.0110212 -0.0387821 3.17291e-05 0.00221452 -0.00187901 -0.00194312 0.01689 -0.00429017 -0.0214962 -0.00159471 0.0108315 0.0235995 0.0209936 0.000876038 0.0303828 -0.0234469 -0.0517193 -0.00661284 0.0363082 0.0558298 0.0394337 -0.0772438
internal_weight=1618.1 13.7177 1604.39 23.8868 1580.5 1557.76 46.7437 11.5189 1511.02 705.298 805.719 35.2248 22.7372 8.48695 5.64893 4.08465 19.676 11.3607 22.6819 7.21749 15.4644 4.70729 5.23074 8.31526 14.2698 3.06129 2.23312 2.87619
internal_count=12000 94 11906 180 11726 11441 335 84 11106 5190 5916 251 285 56 37 26 248 144 173 35 138 23 38 104 124 37 27 21
is_linear=0
shrinkage=0.05


Tree=16
num_leaves=31
num_cat=0
split_feature=8 0 9 5 3 9 14 2 14 3 0 4 12 8 15 4 9 3 14 12 13 7 5 0 9 13 13 0 12 7
split_gain=2.53728 3.56134 4.07102 10.8992 7.24488 2.92005 5.9476 2.9104 6.91186 4.7856 3.1088 3.00143 6.34401 5.91494 5.4724 5.3805 5.22837 3.97165 3.54637 11.2994 3.9724 2.62677 4.59519 3.21371 2.45499 3.64214 3.18869 3.45876 5.3671 5.00398
threshold=196.2832739009452 11482.500000000002 0.68498850000000011 0.0094255000000000016 0.0056715000000000003 1.0087030000000003 2.5160698484207011 200.26900000000003 4.3778285555334815 0.0061495000000000013 11623.500000000002 0.00046750000000000009 198.14935000000006 226.81264088990488 236.34167000000005 0.00057450000000000003 0.69352950000000002 -0.0027594999999999994 3.0404151440902631 263.50345000000004 194.14050500000005 -0.0030024999999999995 0.012675500000000001 10777.500000000002 1.0369085000000002 200.33514500000001 40.022665000000011 5137.5000000000009 108.77895000000002 0.0051135000000000009
decision_type=2 2 2 2 2 2 2 2 2 2 2 2 2 2 2 2 2 2 2 2 2 2 2 2 2 2 2 2 2 2
left_child=1 24 3 -3 5 -4 -7 8 9 21 -10 12 -9 16 -15 17 -14 -13 19 -17 -20 22 -2 -23 26 -26 -1 28 -28 -29
right_child=7 2 4 -5 -6 6 -8 11 10 -11 -12 15 13 14 -16 18 -18 -19 20 -21 -22 23 -24 -25 25 -27 27 29 -30 -31
leaf_value=0.035924891661726036 0.044126584585157745 0.061885195660616059 0.054331852141552332 -0.042494211806973478 -0.045487359515876735 -0.005501533639529689 0.064554026540312115 0.053834274436870867 0.005068974906546812 -0.072315901393068691 0.080620912139061376 -0.0038777551621011091 -0.02966435670076821 0.032700346398107087 -0.0023594443789455061 0.01716444854151393 -0.0071355390947672598 0.063865111369911839 0.09741118700136818 -0.020001253468307719 -0.0029888455320571088 -0.010148361006030783 -0.04001629602444623 -0.045322447350853619 -0.0020787884452177006 -0.090787623659645947 0.001607985922936042 0.010366030613794966 -0.020413414501940612 -0.012031123687792116
leaf_weight=7.3996811956167212 4.2572302073240271 3.7083912491798383 11.554070919752126 7.681198462843895 3.0664248168468466 8.3689005970954877 4.7488274425268164 4.6492313742637625 3.1243256777524939 4.1687574535608283 2.4132737517356873 3.3818514496088028 37.500495478510857 11.620869994163511 263.54603132605553 85.947331205010414 82.210201054811478 6.0063822567462903 0.98956325650215049 26.836439445614815 223.52585387229919 18.722253523766998 2.6218908578157425 9.9423510879278165 290.78003918752074 1.1617028415203083 235.05632489174604 192.91313103586435 31.360200401395559 28.640986517071724
leaf_count=94 22 16 49 33 13 35 20 24 18 21 10 20 194 68 1607 455 424 35 5 169 1276 108 13 43 2714 6 2802 1207 317 182
internal_value=-8.13863e-07 0.00193689 0.0166601 -0.00850882 0.0269947 0.0360034 0.0198597 -0.00202415 -0.0143368 -0.021634 0.0379943 -0.00127751 -0.00423143 -0.00491509 -0.000878797 0.00212662 -0.0141929 0.0394626 0.00108742 0.00832102 -0.00254633 -0.0156898 0.0120566 -0.0223485 0.00120518 -0.00243178 0.00334859 0.0028546 -0.000984179 0.00747068
internal_weight=1617.9 826.44 39.1278 11.3896 27.7382 24.6718 13.1177 791.464 45.2501 39.7125 5.5376 746.214 399.527 394.878 275.167 346.687 119.711 9.38823 337.299 112.784 224.515 35.5437 6.87912 28.6646 787.312 291.942 495.37 487.971 266.417 221.554
internal_count=12000 7488 166 49 117 104 55 4512 235 207 28 4277 2317 2293 1675 1960 618 55 1905 624 1281 186 35 151 7322 2720 4602 4508 3119 1389
is_linear=0
shrinkage=0.05


Tree=17
num_leaves=24
num_cat=0
split_feature=11 4 4 2 6 14 4 12 6 6 6 4 4 15 8 12 12 14 15 10 6 6 6
split_gain=2.45689 2.72754 2.62619 3.05957 3.65235 2.37436 2.5114 3.6952 2.23368 4.76091 4.01914 2.62036 2.45137 3.77772 3.16586 2.06843 3.15223 1.90838 1.56232 2.25165 1.29297 1.24882 0.223889
threshold=348.56660000000005 0.0013125000000000001 0.0022340000000000003 352.08055000000007 0.8045500000000001 9.3579492514097833 0.0060960000000000016 327.45285000000007 0.54625000000000012 0.6523500000000001 0.61465000000000014 -0.005487999999999999 9.4500000000000007e-05 331.01448000000011 42.009059054658117 248.51515000000003 240.00640000000001 6.0981079088285961 263.10264000000006 296.34410000000008 0.83035000000000014 1.0106500000000003 1.3111500000000003
decision_type=2 2 2 2 2 2 2 2 2 2 2 2 2 2 2 2 2 2 2 2 2 2 2
left_child=5 20 -3 -4 -5 6 8 15 12 10 -10 -11 14 -14 -1 16 -8 -17 -7 -20 -2 -21 -22
right_child=1 2 3 4 -6 18 7 -9 9 11 -12 -13 13 -15 -16 17 -18 -19 19 21 22 -23 -24
leaf_value=0.058912797369912256 -0.019623360594654218 0.050734472375815076 -0.056241396874991481 -0.038538511114343393 0.065047930226264039 -0.075953961677247911 0.018563823125260566 -0.068738666228782802 -0.0030949657758168165 -0.018852291502725441 -0.019765082784217541 0.00064245951944102194 0.010379935319887033 -0.071126959211960009 -0.0013054237863536725 0.019688132317924194 -0.061663125837668711 0.076325671552353605 0.032069839562892853 -0.0078963581035480981 -0.079987483118906522 -0.065363092820785243 -0.053570009349292895
leaf_weight=2.2188822478055945 2.3439950495958319 1.7997759729623775 2.8305711001157761 1.6743754148483279 1.7303608059883115 1.4173268377780903 14.82595632970334 1.2033893615007389 104.54505712538958 17.502350054681301 55.273971505463123 1137.6200578920543 121.47824915498495 1.4384472668170918 133.5204818174243 3.1556992232799521 1.3345971852540959 2.813121572136879 1.6338687837123869 1.796205207705498 1.8180136978626253 1.9958205968141554 1.4351541027426717
leaf_count=28 17 12 19 11 11 9 124 7 789 134 417 8456 909 9 944 21 8 17 11 11 13 12 11
internal_value=-6.72011e-07 -0.0211376 -0.00247118 -0.0178286 0.0141064 0.000178994 0.000304933 0.0165885 6.34858e-05 -0.000772006 -0.00886038 0.000347076 0.00431091 0.00942609 -0.000321058 0.0212285 0.0119384 0.0463816 -0.02921 -0.0169997 -0.0479344 -0.0381423 -0.0683333
internal_weight=1617.41 13.6322 8.03508 6.23531 3.40474 1603.77 1596.93 23.3328 1573.6 1314.94 159.819 1155.12 258.656 122.917 135.739 22.1294 16.1606 5.96882 6.84322 5.42589 5.59716 3.79203 3.25317
internal_count=12000 94 53 41 22 11906 11863 177 11686 9796 1206 8590 1890 918 972 170 132 38 43 34 41 23 24
is_linear=0
shrinkage=0.05


Tree=18
num_leaves=25
num_cat=0
split_feature=9 4 12 11 4 5 3 7 9 5 9 8 7 6 0 6 6 11 5 6 6 7 8 4
split_gain=2.27263 2.31811 3.30988 2.15963 2.518 2.02046 3.65797 3.06029 2.52354 3.65304 3.22864 2.02595 1.8394 1.72318 1.63695 2.89044 2.28527 2.16848 2.24337 1.55214 1.47243 1.24177 0.544977 0.0235447
threshold=0.22419750000000002 0.0060960000000000016 327.45285000000007 348.56660000000005 0.0011485000000000002 0.015636500000000005 0.0044630000000000008 -0.0050684999999999992 1.8705950000000002 0.014531000000000001 1.1798335000000002 289.30626012944964 -0.0013214999999999995 1.0453500000000002 8803.5000000000018 1.2646000000000002 0.90345000000000009 102.09415000000001 0.011379500000000002 0.49295000000000005 0.83035000000000014 0.0012180000000000003 110.40608017093848 5.9000000000000004e-05
decision_type=2 2 2 2 2 2 2 2 2 2 2 2 2 2 2 2 2 2 2 2 2 2 2 2
left_child=12 3 14 5 20 8 11 -8 10 -10 -2 -7 -1 21 17 16 -16 18 -3 -19 -5 -6 -14 -22
right_child=1 2 -4 4 13 6 7 -9 9 -11 -12 -13 22 -15 15 -17 -18 19 -20 -21 23 -23 -24 -25
leaf_value=-0.010067200051066075 0.00094114866537250833 -0.063464785455374734 -0.06554220473757448 -0.018728777213594359 0.006006959613109473 -0.0060356068207700654 -0.017113878620921164 -0.071556530008310748 0.010996591984632728 -0.027431055521355649 -0.0046490966324478 0.035749298419726905 0.07523096562583588 0.028295044153762879 0.015661982570170367 0.043405293391533345 -0.054455845065138224 0.093181296431615004 0.021243744958948277 0.033364290839323248 -0.067610757259455534 -0.041224686045597522 0.036613100570159429 -0.076877347771909396
leaf_weight=1.9039467498660085 1097.4974010586739 1.1191160082817142 1.1990749984979618 2.3334334790706626 2.5726357996463758 32.016988940536976 8.2022030055522901 3.7665260657668105 84.760102957487106 6.6713129580020896 337.7768914103508 3.1899013668298712 1.3613672107458104 2.8348519653081894 2.1039174795150748 2.5083918571472168 2.5956917852163315 1.2109420001506794 2.5916311219334602 10.3845899105072 1.2569738477468493 3.0313268899917603 2.7773825377225876 1.5076673626899717
leaf_count=15 8133 13 7 17 17 234 63 27 623 46 2535 18 16 19 10 12 13 10 30 84 10 20 17 11
internal_value=-7.40171e-07 -0.000115531 0.0154019 -0.000347335 -0.020233 -0.000176299 -0.0103676 -0.0342468 0.000138613 0.00819271 -0.000374457 -0.00224971 0.0306052 -0.00347199 0.0197129 6.63726e-05 -0.0230655 0.0289648 -0.00430331 0.0396111 -0.0479775 -0.0195418 0.0493158 -0.0726642
internal_weight=1617.17 1611.13 23.7134 1587.42 13.5369 1573.88 47.1756 11.9687 1526.71 91.4314 1435.27 35.2069 6.0427 8.43881 22.5143 7.208 4.69961 15.3063 3.71075 11.5955 5.09807 5.60396 4.13875 2.76464
internal_count=12000 11952 179 11773 94 11679 342 90 11337 669 10668 252 48 56 172 35 23 137 43 94 38 37 33 21
is_linear=0
shrinkage=0.05


Tree=19
num_leaves=31
num_cat=0
split_feature=8 0 6 5 3 6 14 2 14 3 10 5 0 12 14 4 0 0 14 6 6 13 4 15 4 13 15 2 0 5
split_gain=2.21401 3.22332 3.66086 9.86508 6.55694 2.67358 5.38896 2.66156 6.24899 4.34307 3.81892 4.05565 2.82302 2.54273 3.01111 2.42577 2.77413 4.39497 3.91937 2.21586 2.11994 3.32283 2.70068 2.74622 6.64557 5.70307 2.59203 2.27886 2.02752 1.66514
threshold=196.2832739009452 11482.500000000002 0.69355000000000011 0.0094255000000000016 0.0056715000000000003 1.0222000000000002 2.5160698484207011 200.26900000000003 4.3778285555334815 0.0061495000000000013 200.26900000000003 0.011868500000000002 11623.500000000002 193.24200000000005 4.0945256202984499 -0.0060754999999999984 11106.500000000002 10965.500000000002 1.6626089528823353 0.75365000000000015 1.0514500000000002 200.33514500000001 0.0058815000000000004 199.66532000000004 -0.0035774999999999995 197.30596000000003 201.6408916666667 171.28600000000003 11764.500000000002 0.013389500000000002
decision_type=2 2 2 2 2 2 2 2 2 2 2 2 2 2 2 2 2 2 2 2 2 2 2 2 2 2 2 2 2 2
left_child=1 20 3 -3 5 19 -7 8 9 13 11 -9 -10 -2 -15 -12 17 -17 -18 -4 22 26 23 25 -25 -1 27 -22 -5 -13
right_child=7 2 4 28 -6 6 -8 10 12 -11 15 29 -14 14 -16 16 18 -19 -20 -21 21 -23 -24 24 -26 -27 -28 -29 -30 -31
leaf_value=0.0025942317022338134 0.040761120418371752 0.059297747728790352 0.013387783361840639 -0.012285667013585752 -0.043192238528061346 -0.0052672973616606352 0.061522332890126763 0.065196296257549496 0.0047481696641839821 -0.068950709672483165 0.035113638993226587 -0.03042362929239974 0.076781003613006216 -0.014491779521622198 -0.079188586668022101 -0.0013824393523183935 -0.040294860982484748 0.018501436142911908 -0.0061139075918938517 0.06441548610023283 0.00035327347478499379 -0.087171636065428271 0.031256424993061825 -0.026182541191705645 0.059492005349243364 -0.055794695776758191 0.043615734709087695 -0.0095732402720715773 -0.063932832861805747 0.022115560348007997
leaf_weight=473.99204093962908 1.9362446069717396 3.671342268586157 2.8204731643199983 3.4924670457839966 3.0740748792886725 8.3728179484605771 4.7241897583007804 4.4091120138764364 3.1246133595705023 4.1600355505943289 4.4683404117822638 2.3605407401919365 2.4086883366107941 31.66754100471735 1.9067468941211689 572.96798875927925 9.0224193781614286 29.206970006227493 119.01760338246822 8.6592794954776746 206.14258486032486 1.1480514854192723 8.3728599026799184 3.5292467027902603 6.3107739239931089 4.219264604151248 3.0891694426536551 80.355939917266369 4.1681519448757172 4.1759664118289948
leaf_count=4456 10 16 12 15 13 35 20 23 18 21 24 13 10 166 10 3516 38 132 509 37 2246 6 84 17 34 23 15 441 18 22
internal_value=-7.88072e-07 0.0018094 0.0158436 -0.00809098 0.0256526 0.0342638 0.0188242 -0.0018918 -0.0136725 -0.0206154 -0.00117759 0.0281387 0.0361046 -0.014953 -0.018166 -0.00161436 -0.00183911 -0.000418022 -0.00852249 0.0518784 0.00111437 -0.00227624 0.00310012 0.00261708 0.0287638 0.00207907 -0.00193967 -0.00243087 -0.040387 0.00314199
internal_weight=1616.98 826.143 38.9828 11.332 27.6508 24.5768 13.097 790.833 45.2039 39.6706 745.629 10.9456 5.5333 35.5105 33.5743 734.683 730.215 602.175 128.04 11.4798 787.16 290.736 496.424 488.051 9.84002 478.211 289.588 286.499 7.66062 6.53651
internal_count=12000 7488 166 49 117 104 55 4512 235 207 4277 58 28 186 176 4219 4195 3648 547 49 7322 2708 4614 4530 51 4479 2702 2687 33 35
is_linear=0
shrinkage=0.05


Tree=20
num_leaves=22
num_cat=0
split_feature=8 11 4 4 2 6 14 4 9 15 6 12 8 15 3 7 4 6 4 6 14
split_gain=2.1054 2.00047 2.34435 2.32427 2.72945 3.23497 2.0934 2.17051 2.97407 3.4262 3.19539 2.16189 5.17713 4.76717 1.7802 1.52062 1.58099 1.1567 1.06303 0.276562 0.215526
threshold=38.50095663064544 348.56660000000005 0.0013125000000000001 0.0022340000000000003 352.08055000000007 0.8045500000000001 9.3579492514097833 0.00014750000000000003 0.53769800000000012 331.01448000000011 0.66075000000000006 198.87150000000005 226.81264088990488 199.66532000000004 -0.0053134999999999996 0.0017735000000000006 -0.0022179999999999995 0.83035000000000014 0.0040840000000000008 1.0758500000000002 3.149091244427233
decision_type=2 2 2 2 2 2 2 2 2 2 2 2 2 2 2 2 2 2 2 2 2
left_child=15 6 17 -4 -5 -6 7 11 9 -9 -10 13 -13 -2 -8 16 -1 -3 -16 -17 -19
right_child=1 2 3 4 5 -7 14 8 10 -11 -12 12 -14 -15 18 19 -18 20 -20 -21 -22
leaf_value=0.049607479260028522 -0.00043051321095740345 -0.017811201235715914 0.047971747472292693 -0.053154064273046399 -0.036217290296548348 0.06142213990499288 0.0022717474975310062 0.0099731262875240329 -0.00856482514514143 -0.067999354726030484 0.0020800584288657906 -0.012111355828183904 -3.0451126918457552e-05 0.022431554740165737 -0.079350416010951219 0.083963796560265563 -0.04500184558237022 -0.048400008265409931 -0.026876750898117092 0.045305298715041117 -0.075135594432727826
leaf_weight=0.92079280316829681 419.56593660265207 2.3222214728593809 1.7998802363872526 2.7967881448566914 1.6642022579908373 1.730369299650192 2.8865871876478195 125.78654205799103 80.806900054216385 1.4248237013816822 552.658526789397 137.1050998494029 251.08572167158127 24.112242206931114 1.691926792263984 1.1526665315032003 0.84845225512981348 1.2618034370243552 2.2469530999660492 0.77282100915908802 1.8723594248294828
leaf_count=12 3814 17 12 19 11 11 18 942 606 9 4091 710 1524 119 11 15 11 10 14 10 14
internal_value=-6.6982e-07 -8.70366e-05 -0.0192912 -0.00204063 -0.0165796 0.013554 7.44334e-05 0.000192858 0.00212319 0.0090998 0.000722163 -0.00157228 -0.00429731 0.000811954 -0.0275568 0.0377 0.004237 -0.0445558 -0.0494166 0.0684477 -0.0643719
internal_weight=1616.51 1612.82 13.4476 7.99124 6.19136 3.39457 1599.37 1592.55 760.677 127.211 633.465 831.869 388.191 443.678 6.82547 3.69473 1.76925 5.45638 3.93888 1.92549 3.13416
internal_count=12000 11952 94 53 41 22 11858 11815 5648 951 4697 6167 2234 3933 43 48 23 41 25 25 24
is_linear=0
shrinkage=0.05


Tree=21
num_leaves=26
num_cat=0
split_feature=9 4 12 9 5 12 3 14 9 4 5 4 12 12 5 13 7 7 3 14 14 14 6 14 5
split_gain=1.99798 1.93982 2.96281 1.89662 5.0427 3.55498 3.01105 3.57485 2.98468 4.5046 3.10633 2.63274 2.40702 2.25855 2.20902 1.91243 1.66104 1.46086 3.32542 2.49201 2.29067 1.71776 0.811466 0.673572 0.921
threshold=0.22419750000000002 0.0060960000000000016 327.45285000000007 1.8705950000000002 0.014531000000000001 285.68905000000007 0.0062390000000000006 2.1185459700698637 1.1798335000000002 0.0058815000000000004 0.014531000000000001 -0.00073349999999999989 39.917200000000001 185.99965000000003 0.010386000000000001 339.52366500000005 -0.0013214999999999995 -0.0038974999999999995 0.0079395000000000004 6.0981079088285961 4.8300237487399578 5.7294895526282614 0.94275000000000009 2.047423308439106 0.012356500000000001
decision_type=2 2 2 2 2 2 2 2 2 2 2 2 2 2 2 2 2 2 2 2 2 2 2 2 2
left_child=16 3 17 8 6 11 7 -5 12 10 -10 -6 14 -8 -2 -14 -1 19 21 22 -20 -19 -3 24 -18
right_child=1 2 -4 4 5 -7 13 -9 9 -11 -12 -13 15 -15 -16 -17 23 18 20 -21 -22 -23 -24 -25 -26
leaf_value=-0.0098724331632847502 -0.00028352681267373764 0.034411364847995778 -0.062693545649501622 0.00220739883150585 -0.051685524096012084 -0.094066919893454073 -0.039243204928835977 0.024296347141574779 -0.0029645339411431271 -0.082724099006552448 -0.02013174120960224 0.0068492733811329727 0.00057309697401412266 0.0063909490010343635 0.052697645561304712 -0.01476469199842142 0.08956508114065799 0.016010099794042582 0.016385054366207245 0.081050219431210352 -0.054063279624710074 0.062825325327341877 -0.02309197126924914 0.022048152182017909 0.027590613958600615
leaf_weight=1.9041544348001478 3.6881064474582663 1.3513306304812496 1.1924026310443867 33.881250351667404 2.9656964614987364 1.6483342498540867 4.8856925517320615 39.872217811644077 320.4096243083477 1.8442994132637966 28.711681507527828 5.4530763626098624 1112.1057596877217 6.0924449115991592 4.2169507667422295 20.701893903315067 1.4120551533997052 10.596008367836477 1.9981618747115124 2.2452529966831207 2.7308920547366142 2.4039672315120688 1.1236665248870847 1.6644805222749708 1.0417450144886968
leaf_count=15 47 14 7 318 24 9 42 229 2404 16 212 40 8206 34 54 138 11 85 19 14 17 15 8 11 11
internal_value=-7.21347e-07 -0.00010824 0.0141085 -0.000320097 0.00653761 -0.0269181 0.0105125 0.014149 -0.000755917 -0.00478807 -0.00437636 -0.0137709 0.000484666 -0.013918 0.0279793 0.000292801 0.0287447 0.0181878 0.0116065 0.042907 -0.0242968 0.0246672 0.00830444 0.0466 0.0632542
internal_weight=1616.14 1610.12 23.6417 1586.48 94.7987 10.0671 84.7316 73.7535 1491.68 350.966 349.121 8.41877 1140.71 10.9781 7.90506 1132.81 6.02244 22.4493 17.729 4.72025 4.72905 13 2.475 4.11828 2.4538
internal_count=12000 11952 179 11773 696 73 623 547 11077 2632 2616 64 8445 76 101 8344 48 172 136 36 36 100 22 33 22
is_linear=0
shrinkage=0.05


Tree=22
num_leaves=31
num_cat=0
split_feature=8 0 4 13 4 14 7 9 4 9 4 0 10 13 11 9 7 7 7 3 3 7 3 7 8 14 4 9 3 7
split_gain=1.86193 2.92023 4.65388 6.52777 6.35267 5.27845 4.81124 4.70075 6.27973 4.51886 3.08719 2.85321 7.26722 3.59319 4.10512 2.93097 3.29579 2.56204 5.45454 8.42029 5.31724 4.66621 4.8652 4.16227 3.79045 4.84731 3.68134 3.56301 3.20757 4.18861
threshold=196.2832739009452 10448.500000000002 5.9000000000000004e-05 196.24178000000003 -0.0016714999999999998 1.311739347763623 0.0051135000000000009 1.0549520000000003 0.0005415000000000001 0.65931300000000015 -0.0019694999999999995 10166.500000000002 191.32820000000001 172.27902500000002 179.98055000000002 0.98553450000000009 0.0016445000000000001 0.0022795000000000007 0.0019075000000000003 -0.0062194999999999985 -0.00086549999999999984 0.0039095000000000006 -0.0076194999999999987 0.0037195000000000006 198.65638048911379 4.3778285555334815 -0.0032234999999999994 1.2818290000000003 -0.0016989999999999998 0.0056390000000000008
decision_type=2 2 2 2 2 2 2 2 2 2 2 2 2 2 2 2 2 2 2 2 2 2 2 2 2 2 2 2 2 2
left_child=1 11 4 7 5 -3 9 -4 -9 -6 -7 -1 13 -13 -15 16 -14 18 19 -2 -20 22 -19 26 25 -21 -24 -25 -23 -30
right_child=17 2 3 -5 6 10 -8 8 -10 -11 -12 12 15 14 -16 -17 -18 21 20 24 -22 28 23 27 -26 -27 -28 -29 29 -31
leaf_value=0.0012910900266086189 0.073800678550147922 0.07996239735127153 0.025887828824059784 0.07143852982860964 -0.041593667953551516 0.0024601729996084859 -0.080146915520011838 0.057512969286311236 -0.017357567250665354 0.0035929963005759168 0.040587000644092076 -0.047448950395224627 0.023447968977457663 0.025148965791760531 -0.0084462371709783882 -0.075313954198116415 -0.057389866842792514 -0.044805611947932394 -0.043368844424295658 -0.030446701961376617 0.0011720864788206482 -0.004930168998831916 0.047680215071451308 0.028151689739993657 -0.0020692372895517079 0.040360864952103864 0.0070178198500745748 0.10029944327868066 0.0066595905315121927 0.074119776954494829
leaf_weight=633.2271826043725 3.5919092446565619 2.6197407841682425 31.368469968438148 5.4187206476926795 8.3826973438262993 43.3369160592556 2.8722306191921225 3.3549047410488155 16.95235601067543 16.274540796875954 6.0506492108106604 3.9626814424991599 2.2523060590028745 13.414882495999334 28.224900856614113 5.1203658878803253 2.8643931448459625 3.6396514177322379 16.460588708519939 21.298441238701347 11.300559632480143 143.09502582997084 6.0593073815107337 6.9263961613178235 489.34088476747274 2.7264357209205619 68.400947570800781 2.2727455645799637 12.305233448743818 2.8302234560251227
leaf_count=6604 20 12 143 24 38 191 13 15 77 72 27 19 11 65 138 25 14 20 95 110 63 814 35 37 2809 14 394 13 70 18
internal_value=-6.49409e-07 0.00165974 0.00833739 0.0192289 0.000519025 0.0107999 -0.0189031 0.0137542 -0.00498842 -0.0117691 0.00713123 0.000335663 -0.010499 -0.00195272 0.00237696 -0.0485696 -0.0218061 -0.00173552 -0.0036469 -0.00248744 -0.0252378 0.00250497 0.0117848 0.0142468 -0.00302122 -0.0224112 0.0103268 0.0459766 -0.00261492 0.0192742
internal_weight=1615.95 825.698 136.631 57.0945 79.5368 52.0073 27.5295 51.6757 20.3073 24.6572 49.3876 689.067 55.8395 45.6025 41.6398 10.2371 5.1167 790.248 544.719 516.958 27.7611 245.53 87.299 83.6594 513.366 24.0249 74.4603 9.19914 158.23 15.1355
internal_count=12000 7488 612 259 353 230 123 235 92 110 218 6876 272 222 203 50 25 4512 3111 2953 158 1401 499 479 2933 124 429 50 902 88
is_linear=0
shrinkage=0.05


Tree=23
num_leaves=22
num_cat=0
split_feature=9 12 3 0 5 11 14 7 5 0 14 14 14 3 7 7 11 3 7 7 14
split_gain=1.81822 1.68659 2.26775 4.35913 3.06362 3.02029 2.72864 2.16454 1.968 2.79431 2.6142 3.17611 1.86401 2.25549 1.91987 3.89247 3.15421 1.50482 1.50329 1.09129 0.624446
threshold=0.22419750000000002 340.93810000000002 -0.0070574999999999987 8521.5000000000018 0.0112665 333.33040000000005 2.3294014229234192 0.0056390000000000008 0.016800000000000006 11576.500000000002 1.571579551169904 2.4028762293397858 9.3579492514097833 -0.0053134999999999996 -0.0061269999999999988 -0.0057544999999999992 299.81940000000003 -0.0011874999999999998 -0.0013214999999999995 -0.0090744999999999975 1.571579551169904
decision_type=2 2 2 2 2 2 2 2 2 2 2 2 2 2 2 2 2 2 2 2 2
left_child=18 8 5 6 -5 -3 -4 -8 12 10 -10 -12 14 -14 16 -16 -2 -6 -1 -15 -20
right_child=1 2 3 4 17 -7 7 -9 9 -11 11 -13 13 19 15 -17 -18 -19 20 -21 -22
leaf_value=-0.0092465817374606536 0.0038269361249519485 -0.034972307856071826 -0.054941787850721582 -0.00030837368384141684 -0.091436140082248582 0.05095872262316048 0.011898729285319451 -0.051427531908779078 -0.073130570153541949 -0.082087969996475996 0.044845353158119612 -0.020944781539228751 0.01593176050371068 -0.013586420468264188 -0.019853819051292475 0.00015884838881878488 0.032713510068618258 -0.036683713229295402 0.07059124723912491 -0.067840688333047017 0.029911291926132108
leaf_weight=1.9040024280548093 134.52918893098831 1.5885727256536508 2.2265227138996151 2.1995584964752188 3.2786810994148254 2.8699041604995728 12.017794243991373 1.520067662000655 1.4313297718763323 1.5876216441392905 2.6870334148406965 5.7818458452820778 2.0120856314897537 1.4285250455141065 24.727887362241745 1394.8875233754516 10.164124950766562 2.0330972373485565 1.471881765872239 2.6392739862203589 2.6271077394485474
leaf_count=15 1013 10 19 13 19 18 86 11 14 7 25 37 12 10 190 10379 61 12 15 16 18
internal_value=-6.29395e-07 -0.000103064 -0.0123265 -0.018584 -0.0499312 0.0203412 -0.00364784 0.00478829 0.000111242 -0.0205084 -0.0106334 -7.06747e-05 0.000262081 -0.0273694 0.000369474 -0.000189747 0.0058561 -0.0704795 0.0274657 -0.0487877 0.0445188
internal_weight=1615.61 1609.61 27.7342 23.2757 7.51134 4.45848 15.7644 13.5379 1581.88 11.4878 9.90021 8.46888 1570.39 6.07988 1564.31 1419.62 144.693 5.31178 6.00299 4.0678 4.09899
internal_count=12000 11952 188 160 44 28 116 97 11764 83 76 62 11681 38 11643 10569 1074 31 48 26 33
is_linear=0
shrinkage=0.05


Tree=24
num_leaves=31
num_cat=0
split_feature=8 4 0 2 8 10 15 7 0 13 15 14 6 0 12 10 0 2 7 3 6 4 6 4 6 12 4 10 3 7
split_gain=1.80261 1.67068 3.41558 4.49533 7.28062 4.8299 4.79024 3.34126 3.24567 4.81389 6.89181 3.66073 3.09004 2.65959 4.14517 3.89093 3.44781 4.38283 2.97293 2.97091 2.76121 2.72963 2.45399 3.39263 2.51191 2.23792 6.23024 2.17841 1.81764 1.39541
threshold=38.50095663064544 0.00014750000000000003 10354.500000000002 198.14935000000006 199.29054368922291 200.26900000000003 194.72638000000003 -0.0009304999999999998 9931.5000000000018 188.91045500000004 206.59532333333337 2.8216550419538131 1.0689500000000003 9179.5000000000018 163.44915000000003 291.81390000000005 7957.5000000000009 302.83230000000009 0.0064955000000000004 0.0038060000000000004 1.2722500000000003 -0.0052574999999999992 0.52370000000000017 0.00046750000000000009 0.66075000000000006 204.98330000000001 -0.0033829999999999993 189.51435000000004 0.00072050000000000011 0.0017735000000000006
decision_type=2 2 2 2 2 2 2 2 2 2 2 2 2 2 2 2 2 2 2 2 2 2 2 2 2 2 2 2 2 2
left_child=29 13 8 6 7 -6 12 -5 22 11 -11 -10 -4 16 28 18 25 21 -16 -19 -17 -18 23 -3 -24 27 -27 -2 -15 -1
right_child=1 2 3 4 5 -7 -8 -9 9 10 -12 -13 -14 14 15 20 17 19 -20 -21 -22 -23 24 -25 -26 26 -28 -29 -30 -31
leaf_value=0.0030849339410570181 -0.00014692764697664103 0.043281302624379146 0.024825602034925398 -0.070018420410909749 0.060600773325824198 0.0031998874459957423 0.090187662392341605 -0.00099175751648404131 0.029828948766929111 -0.042082880774436476 0.014388982599381709 -0.028858412904850257 0.0017170379446210821 0.072821608079448888 -0.003647004567857689 -0.022522884883641934 -0.037084867195676434 -0.012352434247882313 -0.022093474501317281 0.031446264014573067 -0.089372027459403314 0.017573965966745451 -0.0094640307647600192 0.0057152065156336066 0.00084960155394787722 0.017225934727615692 -0.012804078214565088 0.019681110561502332 0.012459581941719609 0.064999812186449318
leaf_weight=1.7586166709661477 288.17867137491703 6.539001338183879 36.718275919556618 4.9041280895471573 3.7874584943056098 113.08846855163574 2.2394374758005133 2.7285513430833808 8.5316037833690626 19.163129553198818 7.5238992869853965 3.8590781092643729 23.871076285839081 2.27609959244728 278.60402201116085 5.5651952773332587 2.3631810247898093 28.330546319484711 23.700406819581985 4.4846312403678885 2.1382122337818146 68.296494036912918 69.327820047736168 74.31129501760006 397.70472322776914 21.1007996276021 95.176508713513613 14.551731713116167 2.7587828040122986 1.8859161138534544
leaf_count=23 3174 58 168 22 17 496 10 12 42 95 38 19 108 10 1328 28 14 163 112 26 11 410 603 641 3414 146 673 102 12 25
internal_value=-7.35654e-07 -8.01563e-05 0.00159403 0.00747218 0.00197021 0.00506001 0.0183755 -0.0453426 -0.000282073 -0.0142039 -0.0261617 0.0115508 0.0157213 -0.00162795 -0.00525647 -0.00598738 0.000559946 0.00873329 -0.00509319 -0.00636676 -0.041078 0.0157459 0.000710902 0.00875347 -0.000681387 -0.00145848 -0.00735454 0.000806172 0.0397472 0.0351237
internal_weight=1615.47 1611.82 774.298 187.337 124.509 116.876 62.8288 7.63268 586.961 39.0777 26.687 12.3907 60.5894 837.525 315.043 310.008 522.483 103.475 302.304 32.8152 7.70341 70.6597 547.883 80.8503 467.033 419.008 116.277 302.73 5.03488 3.64453
internal_count=12000 11952 5743 833 547 513 286 34 4910 194 133 61 276 6209 1501 1479 4708 613 1440 189 39 424 4716 699 4017 4095 819 3276 22 48
is_linear=0
shrinkage=0.05


Tree=25
num_leaves=31
num_cat=0
split_feature=15 0 9 6 3 0 0 13 6 13 14 2 3 0 0 3 6 15 0 6 9 14 10 12 2 13 6 4 15 3
split_gain=1.69479 2.17329 1.68271 2.99503 4.43476 4.7783 5.67077 4.61608 6.29185 6.08286 3.27762 2.234 2.45705 2.16414 4.41171 4.18551 2.23047 1.92764 2.9818 1.75168 1.95676 1.71078 1.694 5.00511 2.8017 1.39242 1.27326 1.57925 1.41821 1.24769
threshold=42.672551666666671 2304.5000000000005 1.8705950000000002 1.5577500000000002 0.0021125000000000002 8662.5000000000018 10495.500000000002 195.73889 1.7093500000000004 190.42258500000005 5.3047478762310396 304.75740000000002 -0.0024029999999999993 8239.5000000000018 9367.5000000000018 0.0079395000000000004 2.0994500000000005 341.07699333333341 9038.5000000000018 1.8967500000000002 2.3165040000000006 2.3456643991680175 327.2561 327.45285000000007 323.94130000000001 40.022665000000011 1.0453500000000002 0.00083250000000000002 40.066251666666673 0.0040900000000000008
decision_type=2 2 2 2 2 2 2 2 2 2 2 2 2 2 2 2 2 2 2 2 2 2 2 2 2 2 2 2 2 2
left_child=1 25 3 17 5 10 -7 9 -9 -6 -5 13 -13 19 16 -16 -15 22 21 -4 -21 -19 24 -24 -2 26 -1 28 -28 -27
right_child=2 -3 11 4 7 6 -8 8 -10 -11 -12 12 -14 14 15 -17 -18 18 -20 20 -22 -23 23 -25 -26 29 27 -29 -30 -31
leaf_value=0.03139550368882639 0.00010311787694343808 0.052770868597461718 -0.053348919212919232 -0.0011988870652099412 -0.0017033810062550279 -0.050346321891890783 -0.0074601781111226523 -0.0048726602554757916 0.056447648112345795 -0.09636728668675805 -0.064854695674507745 0.030404742725632102 -0.035108608761901562 0.08737129503090163 0.014375117856047965 -0.058096088131940164 0.027470945390124818 -0.060065711054421926 -0.058019095191292641 0.011464281443989114 -0.01007792959627906 -0.00086139899663553808 0.048011783838665639 0.00159856001149002 -0.032550892376947485 0.0033807124538827271 0.034109535360025707 -0.067167233962791728 -0.039137946932958315 -0.040550055143662264
leaf_weight=7.2965369597077423 1329.8728438764811 3.0556665882468215 1.432683877646922 38.558980263769627 16.756298318505291 16.730203256011013 14.293624773621557 8.6227174550294894 8.1249194815754873 1.8882163614034642 2.1341160535812369 1.8860010653734205 5.9346434026956549 2.9320028722286215 32.832868844270706 2.1210156679153434 3.3069059401750565 1.3443166986107851 3.4512585252523413 26.308954440057278 17.588700540363789 13.214609570801256 7.2631459385156623 29.004431068897247 6.6014433801174155 6.3838707208633405 2.1879550591111192 0.78870575129985798 0.94680410623550404 2.1641796603798866
leaf_count=94 9855 37 14 361 153 88 63 51 44 9 15 11 35 17 154 10 19 10 20 254 170 94 45 180 40 80 28 10 12 27
internal_value=-6.59155e-07 0.0135277 -0.000194583 -0.000602524 -0.00865902 -0.0158062 -0.0305874 0.00582367 0.0248762 -0.0112904 -0.00453726 0.00628213 -0.0193096 0.00859532 0.0168906 0.00997754 0.0556214 1.79496e-05 -0.0162336 0.0010572 0.00283285 -0.0063281 0.000231167 0.0108935 -5.81749e-05 0.00746163 0.0190443 -0.00392536 0.0119863 -0.0077416
internal_weight=1615.03 22.8237 1592.2 1497.86 107.109 71.7169 31.0238 35.3922 16.7476 18.6445 40.6931 94.3438 7.82064 86.5231 41.1928 34.9539 6.23891 1390.75 18.0102 45.3303 43.8977 14.5589 1372.74 36.2676 1336.47 19.7681 11.22 3.92346 3.13476 8.54805
internal_count=12000 288 11712 11028 784 527 151 257 95 162 376 684 46 638 200 164 36 10244 124 438 424 104 10120 225 9895 251 144 50 40 107
is_linear=0
shrinkage=0.05


Tree=26
num_leaves=26
num_cat=0
split_feature=5 6 10 13 2 15 6 9 5 3 14 3 8 11 5 0 3 3 3 5 3 11 3 2 6
split_gain=1.66387 5.09271 2.84287 5.34621 3.5834 3.68617 2.94162 1.69136 1.59485 3.49979 3.82496 2.91291 2.19784 1.8167 2.08147 2.47744 1.76394 1.58572 2.40553 2.23271 1.35636 1.14994 1.88388 2.05349 0.524771
threshold=0.0081465000000000027 1.8967500000000002 302.85045000000008 268.64290000000005 175.92700000000005 106.80119333333334 0.94275000000000009 0.22419750000000002 0.015636500000000005 0.0044630000000000008 4.8912826711645661 0.0066855000000000013 289.30626012944964 348.56660000000005 0.011633500000000001 9038.5000000000018 0.0021910000000000007 0.0030170000000000002 0.0021125000000000002 0.0094255000000000016 -0.010005499999999999 222.37725000000003 -0.00080949999999999989 181.00955000000002 0.9204500000000001
decision_type=2 2 2 2 2 2 2 2 2 2 2 2 2 2 2 2 2 2 2 2 2 2 2 2 2
left_child=1 2 3 4 5 -1 -6 21 13 12 11 -11 20 17 16 -16 -15 18 -9 -19 -10 22 -2 -24 -12
right_child=7 -3 -4 -5 6 -7 -8 8 9 10 24 -13 -14 14 15 -17 -18 19 -20 -21 -22 -23 23 -25 -26
leaf_value=-0.022197566436962149 0.050903601566527505 0.065155123043424121 -0.078047055574713545 0.060987087379565021 -0.020050838531417457 0.035439781851521711 -0.071780721122965838 0.00022390193976973128 -0.036348804750238099 -0.04653147569011621 -0.050997973960372138 0.015414978638838853 0.037623557784881023 -0.052583210718720776 0.02345014686556145 -0.046035376736327141 0.0067852717187175437 0.014881627192943682 -0.0084156169947714032 0.0020071812961635015 -0.0016617726241971468 0.067197316181629205 0.028014346174975887 -0.06222150048721227 -0.086616726602901983
leaf_weight=7.4728492870926981 2.0170072354376316 2.0062552094459525 1.8032525032758702 2.2242849618196479 7.1849472075700742 4.4116570129990578 4.4504065290093422 989.48404746502638 3.1235283613204947 3.3555635362863523 1.8573647290468214 4.3680717870593071 3.3315323293209067 4.9938335306942445 4.2910644859075546 1.8297887891530988 1.6694109290838239 36.726099237799644 87.711636736989021 405.43758103996515 28.835577279329303 1.3628333956003187 1.3590376712381833 1.1761052981019018 2.3329049944877625
leaf_count=90 18 14 12 14 45 38 27 7326 25 28 10 40 19 38 30 11 12 270 670 3013 209 8 15 6 12
internal_value=-6.93969e-07 -0.0117555 -0.0173568 -0.0131057 -0.0201127 -0.000801961 -0.039837 0.000218447 0.000118499 -0.0089336 -0.0323652 -0.0114979 -0.00102323 0.000397389 -0.0183723 0.00267791 -0.037709 0.00055532 -0.000479579 0.00307653 -0.00505192 0.0269054 0.0148428 -0.0138479 -0.0708285
internal_weight=1614.82 29.5537 27.5474 25.7441 23.5199 11.8845 11.6354 1585.26 1579.35 47.2045 11.9139 7.72364 35.2906 1532.14 12.7841 6.12085 6.66324 1519.36 1077.2 442.164 31.9591 5.91498 4.55215 2.53514 4.19027
internal_count=12000 240 226 214 200 128 72 11760 11713 343 90 68 253 11370 91 41 50 11279 7996 3283 234 47 39 21 22
is_linear=0
shrinkage=0.05


Tree=27
num_leaves=31
num_cat=0
split_feature=9 6 6 5 3 6 0 0 0 3 5 4 0 4 7 0 4 2 3 0 7 2 7 9 5 7 5 2 0 3
split_gain=1.5886 4.8619 3.65512 4.13193 3.80366 4.0249 5.71689 3.64349 3.63699 4.72603 3.34752 3.20459 2.63743 2.48515 3.53723 3.78491 3.2633 3.14425 2.99458 3.18493 2.50854 4.23011 3.74341 2.33585 4.48469 6.49549 5.10879 3.77164 3.18234 2.99145
threshold=0.53769800000000012 0.6523500000000001 0.61465000000000014 0.0087875000000000019 -0.0059054999999999984 0.58025000000000015 8145.5000000000009 4996.5000000000009 6782.5000000000009 -0.0020494999999999997 0.014531000000000001 0.0022340000000000003 11200.500000000002 -0.005487999999999999 0.0006060000000000002 4808.5000000000009 -0.0046994999999999997 106.03315000000002 -0.004145499999999999 9414.5000000000018 0.006902000000000001 53.05545 0.0028485000000000008 0.45378000000000007 0.011902500000000002 -0.004030999999999999 0.010981500000000002 282.95630000000006 9602.5000000000018 0.0015665000000000002
decision_type=2 2 2 2 2 2 2 2 2 2 2 2 2 2 2 2 2 2 2 2 2 2 2 2 2 2 2 2 2 2
left_child=23 2 4 11 12 6 -6 -7 10 -10 -5 -4 -2 14 15 -3 18 -16 -15 -20 22 -22 -18 -1 25 28 27 -27 -25 -28
right_child=1 13 3 8 5 7 -8 -9 9 -11 -12 -13 -14 16 17 -17 20 -19 19 -21 21 -23 -24 24 -26 26 29 -29 -30 -31
leaf_value=-0.00043180550757086067 0.028733346332501398 -0.042444738513143773 -0.012782152733793198 -0.013876572564375148 -0.00037211770699016226 -0.020212104166281421 -0.037589084247167552 0.010954298517145375 -0.0075421734174242264 -0.047832045534720431 0.047140559919526218 0.084471038057427977 -0.050098158019022912 0.035043122986264004 0.0038539005186352471 0.027070940086992873 -0.00060566875799099459 -0.06129195207325349 -0.024321014486534082 0.029871227899457689 0.051918312270361137 -0.010384015626576492 0.0066198053867779789 0.011012206702371248 0.019312808229301953 0.012387975312261566 -0.015841800256862434 -0.041634824488466171 0.06531664989724921 -0.059060041697167158
leaf_weight=156.38340668752789 12.044385962188242 2.9334297701716441 1.7431014329195016 19.437590770423416 21.278212048113346 12.694919615983961 20.033432751893997 35.884453229606152 11.380864307284357 20.192585900425911 2.541740469634532 1.6477457806468008 1.1635087579488743 13.098637312650682 2.6875115782022458 5.8890321925282478 835.98354144021869 5.9590608179569244 6.129408232867716 4.8617031276226044 2.8233197033405295 77.821127697825432 228.18514753133059 6.4804895371198636 54.432584449648857 23.443491779267791 13.332566425204279 3.7472718060016623 4.6219788789749146 5.7224739566445342
leaf_count=1152 98 34 13 210 209 152 99 216 62 109 25 10 5 92 33 35 6232 32 55 23 35 565 1688 55 395 184 94 23 21 44
internal_value=-7.89072e-07 -0.000700727 -0.00888116 -0.0190485 -0.00326553 -0.00694684 -0.0184199 0.00280979 -0.0224376 -0.0333093 -0.00682041 0.034477 0.0217889 0.000402821 -0.0183165 0.00395728 0.000682578 -0.0410434 0.0188947 -0.000350136 0.000299349 -0.00820284 0.000943659 0.0035135 0.00903305 -0.000724073 -0.00896905 0.00494287 0.0336193 -0.0288208
internal_weight=1614.58 1346.41 160.043 56.9436 103.099 89.891 41.3116 48.5794 53.5528 31.5735 21.9793 3.39085 13.2079 1186.37 17.469 8.82246 1168.9 8.64657 24.0897 10.9911 1144.81 80.6444 1064.17 268.164 111.781 57.3483 46.2458 27.1908 11.1025 19.055
internal_count=12000 10032 1208 429 779 676 308 368 406 171 235 23 103 8824 134 69 8690 65 170 78 8520 600 7920 1968 816 421 345 207 76 138
is_linear=0
shrinkage=0.05


Tree=28
num_leaves=29
num_cat=0
split_feature=4 0 14 6 9 7 9 9 4 0 2 7 7 4 11 13 6 14 2 7 7 6 6 6 7 14 4 15
split_gain=1.53155 2.50244 2.23741 2.0826 1.75663 1.57754 1.56731 2.44654 4.09434 3.78497 2.05824 4.2473 2.03176 1.98302 2.33779 1.77696 1.85398 1.56591 1.51371 1.49186 1.34984 1.06841 4.11842 2.36817 1.35531 0.672424 0.407809 0.343548
threshold=0.0060960000000000016 8803.5000000000018 1.1322353932139317 1.2646000000000002 0.22419750000000002 0.00080650000000000025 1.8705950000000002 1.1798335000000002 0.0054720000000000003 8662.5000000000018 304.75740000000002 0.0018575 -0.0034234999999999995 -0.0042569999999999995 236.73560000000003 40.022665000000011 0.37245000000000006 1.7910137667902033 39.917200000000001 -0.0013214999999999995 -0.00047100000000000001 0.6523500000000001 0.54205000000000014 0.96875000000000011 0.0010754999999999999 3.0404151440902631 0.00043850000000000003 109.59694166666669
decision_type=2 2 2 2 2 2 2 2 2 2 2 2 2 2 2 2 2 2 2 2 2 2 2 2 2 2 2 2
left_child=4 2 -2 5 19 -3 7 15 9 -9 13 12 -12 20 -15 18 -17 -10 -6 -1 -8 22 27 25 -25 -23 -21 -4
right_child=1 3 21 -5 6 -7 10 8 17 -11 11 -13 -14 14 -16 16 -18 -19 -20 26 -22 23 -24 24 -26 -27 -28 -29
