tree
version=v4
num_class=1
num_tree_per_iteration=1
label_index=0
max_feature_idx=9
objective=binary sigmoid:1
feature_names=step type amount oldbalanceOrg newbalanceOrig oldbalanceDest newbalanceDest balance_diff amount_to_oldbalance_ratio dest_balance_diff
feature_infos=[54000:56999] [0:4] [33.920000000000002:121017.86] [1003.4:49967.220000000001] [0:49701.059999999998] [7.6600000000000001:19993.560000000001] [101.53:131414.38] [-48917.349999999999:-33.930000000000291] [0.00085095026372989811:49.130342643715494] [33.919999999999163:121017.84999999999]
tree_sizes=859 991 966 1204 1183 880 995 1203 1099 985 1410 981 978 992 1430 1223 1322 1301 1293 1532 1224 1218 1334 1535 1541 1332 1523 1528 1107 1219 1326 1108 1437 1434 1658 1436 1647 1188 1434 1555 1105 1545 1210 1104 1427 1221 1326 1337 1453 1008

Tree=0
num_leaves=7
num_cat=0
split_feature=2 8 6 0 5 4
split_gain=107.553 30.1082 46.6868 35.1235 32.6398 5.55112e-17
threshold=9884.9850000000024 0.38351299775726494 28115.370000000003 56823.500000000007 10395.625000000002 27399.245000000006
decision_type=2 2 2 2 2 2
left_child=-1 5 4 -4 -3 -2
right_child=1 2 3 -5 -6 -7
leaf_value=-4.975595736025813 -4.9755957352744753 -3.5588142557694931 -4.769340894462144 -3.5591444919290542 -4.5816553980250365 -4.9755957364166274
leaf_weight=10.470713107148184 0.098346787272021841 0.24109546805266291 0.49170814512763172 0.068280760664492846 0.1152942351764068 0.13284458580892533
leaf_count=2692 25 65 141 10 32 35
internal_value=-4.92523 -4.46571 -4.33707 -4.62178 -3.88971 -4.9756
internal_weight=11.6183 1.14757 0.916379 0.559989 0.35639 0.231191
internal_count=3000 308 248 151 97 60
is_linear=0
shrinkage=1


Tree=1
num_leaves=8
num_cat=0
split_feature=2 5 0 0 2 2 2
split_gain=53.0717 10.3365 12.6441 20.1256 1.77636e-15 1.77636e-15 1.11022e-16
threshold=9884.9850000000024 17513.865000000005 56614.500000000007 56482.500000000007 5426.9600000000009 3051.8150000000005 4865.8100000000004
decision_type=2 2 2 2 2 2 2
left_child=4 2 3 -2 5 -1 -7
right_child=1 -3 -4 -5 -6 6 -8
leaf_value=-0.050345220228233394 0.20130529305224198 0.59124216448872968 -0.051132593338770516 0.83285479413279973 -0.050345220184313436 -0.050345220307818829 -0.050345220477154708
leaf_weight=8.2355896467342919 1.3832942170556646 0.17680717795155931 0.41950319847092021 0.13880391279235471 0.79773295344784934 0.77327511960174966 0.15689144982025027
leaf_count=2223 230 35 29 14 220 204 45
internal_value=-0.00202456 0.225242 0.191913 0.258898 -0.0503452 -0.0503452 -0.0503452
internal_weight=12.0819 2.11841 1.9416 1.5221 9.96349 9.16576 0.930167
internal_count=3000 308 273 244 2692 2472 249
is_linear=0
shrinkage=0.05


Tree=2
num_leaves=8
num_cat=0
split_feature=2 3 5 5 8 7 0
split_gain=39.2307 8.25229 15.9791 10.2134 4.47547 10.566 7.03545
threshold=9884.9850000000024 12386.455000000002 8864.4800000000014 14246.805000000002 0.68082683101009811 -19526.814999999999 56504.500000000007
decision_type=2 2 2 2 2 2 2
left_child=-1 2 -2 -4 5 -3 -6
right_child=1 4 3 -5 6 -7 -8
leaf_value=-0.05032827024024588 0.062028912174279409 0.49319688251151439 0.86678627649019324 0.31323289523796638 -0.051060978657159251 0.10646157631815015 0.23616161262086593
leaf_weight=9.4806755118770507 0.30937779601663473 0.22369252936914608 0.15013105305843055 0.18727041548117995 0.67307099374011148 0.8391699078492818 0.31204897211864591
leaf_count=2692 23 19 17 24 97 114 14
internal_value=-0.00247833 0.165867 0.321564 0.559543 0.116695 0.187855 0.0399203
internal_weight=12.1754 2.69476 0.646779 0.337401 2.04798 1.06286 0.98512
internal_count=3000 308 64 41 244 133 111
is_linear=0
shrinkage=0.05


Tree=3
num_leaves=10
num_cat=0
split_feature=2 2 4 3 8 0 0 0 2
split_gain=30.7906 5.22007 6.24186 5.85745 9.55732e-05 3.1504e-05 1.77636e-15 1.77636e-15 1.77636e-15
threshold=9884.9850000000024 36202.945000000007 26133.030000000002 39607.380000000012 0.35829500693113575 56515.500000000007 56977.500000000007 56955.500000000007 6973.0250000000005
decision_type=2 2 2 2 2 2 2 2 2
left_child=6 2 3 -2 -4 -3 7 8 -1
right_child=1 5 4 -5 -6 -7 -8 -9 -10
leaf_value=-0.050312157941249352 0.15254736088982176 -0.050616712506345467 -0.050539080160175026 0.39890695941805793 -0.052242674088488705 -0.051558196518841498 -0.050312158011089896 -0.050312158195612425 -0.050312158217400683
leaf_weight=8.3745035857427794 2.2677907266188435 0.18056716793216754 0.18574550584889937 0.26999910338781763 0.14786507189273834 0.17493991088122129 0.10430955374613482 0.13362897373735982 0.40867066464852619
leaf_count=2533 199 37 36 22 7 7 17 22 120
internal_value=-0.00289787 0.129653 0.15203 0.178758 -0.0512942 -0.05108 -0.0503122 -0.0503122 -0.0503122
internal_weight=12.248 3.22691 2.8714 2.53779 0.333611 0.355507 9.02111 8.9168 8.78317
internal_count=3000 308 264 221 43 44 2692 2675 2653
is_linear=0
shrinkage=0.05


Tree=4
num_leaves=10
num_cat=0
split_feature=2 3 0 0 4 4 6 6 0
split_gain=25.7269 4.48306 7.72919 9.50394 4.27466 5.69485 4.323e-05 4.1627e-05 1.77636e-15
threshold=9884.9850000000024 22774.185000000001 55055.500000000007 55907.500000000007 12759.530000000001 18187.210000000003 31862.560000000005 25644.640000000003 54383.500000000007
decision_type=2 2 2 2 2 2 2 2 2
left_child=8 2 7 -4 6 -6 -3 -2 -1
right_child=1 4 3 -5 5 -7 -8 -9 -10
leaf_value=-0.050296841170665109 -0.05195924314438416 -0.051839076476490602 0.44359783408061881 0.14307329498153859 0.2391295836147648 0.021048303253896009 -0.050985867007491741 -0.050842527517413652 -0.05029684105301066
leaf_weight=0.54418189148418505 0.17195659363642457 0.2370866872370242 0.34671523328870524 1.0905736791901288 0.49825244839303173 0.74990202090702951 0.39715966815128922 0.16213503526523709 8.0395133446436358
leaf_count=339 15 13 25 50 34 84 51 36 2353
internal_value=-0.0029978 0.10812 0.165214 0.215568 0.0543939 0.108104 -0.0513048 -0.0514173 -0.0502968
internal_weight=12.2375 3.65378 1.77138 1.43729 1.8824 1.24815 0.634246 0.334092 8.5837
internal_count=3000 308 126 75 182 118 64 51 2692
is_linear=0
shrinkage=0.05


Tree=5
num_leaves=7
num_cat=0
split_feature=2 2 8 5 0 8
split_gain=21.8581 3.09925 3.42489 2.66122 2.77738e-05 3.43076e-07
threshold=9884.9850000000024 36202.945000000007 0.38351299775726494 11465.565000000001 56515.500000000007 0.34061607324901183
decision_type=2 2 2 2 2 2
left_child=-1 2 5 -4 -3 -2
right_child=1 4 3 -5 -6 -7
leaf_value=-0.05028228016680069 -0.050498482841206518 -0.050626342551173265 0.090829839615485505 0.18747888241816979 -0.05152022534528379 -0.050603717400868387
leaf_weight=8.1673683280823735 0.19426371483132365 0.17869244189932931 2.3730755206197505 1.0176783476490525 0.16916461661458015 0.12879710434935987
leaf_count=2692 40 37 120 84 7 20
internal_value=-0.00314205 0.0916494 0.105016 0.119837 -0.051061 -0.0505404
internal_weight=12.229 4.06167 3.71381 3.39075 0.347857 0.323061
internal_count=3000 308 264 204 44 60
is_linear=0
shrinkage=0.05


Tree=6
num_leaves=8
num_cat=0
split_feature=2 2 0 6 0 0 0
split_gain=19.0383 2.44727 2.91612 3.15661 2.38328e-05 1.77636e-15 8.88178e-16
threshold=9884.9850000000024 36202.945000000007 56834.500000000007 35298.880000000012 56515.500000000007 56680.500000000007 54503.500000000007
decision_type=2 2 2 2 2 2 2
left_child=5 2 3 -2 -3 6 -1
right_child=1 4 -4 -5 -6 -7 -8
leaf_value=-0.050268437321501873 0.093911129310844596 -0.050595497614146626 0.23036671172017026 -0.05127824721205379 -0.051444059488353233 -0.050268437433391634 -0.050268437394642054
leaf_weight=0.67063655122183252 3.3258033154997979 0.17007852066308249 0.34063565917313088 0.42184491921216238 0.16114659141749144 1.4323496688157318 5.6681403102120385
leaf_count=448 211 37 11 42 7 290 1954
internal_value=-0.00314734 0.0797089 0.0902994 0.0775682 -0.0510083 -0.0502684 -0.0502684
internal_weight=12.1906 4.41951 4.08828 3.74765 0.331225 7.77113 6.33878
internal_count=3000 308 264 253 44 2692 2402
is_linear=0
shrinkage=0.05


Tree=7
num_leaves=10
num_cat=0
split_feature=2 4 8 8 0 2 0 2 2
split_gain=16.7961 2.31548 2.40553 5.86857 1.27694 0.000165886 8.88178e-16 2.22045e-16 5.55112e-17
threshold=9884.9850000000024 26133.030000000002 1.8399625073831931 1.4551189771686859 56581.500000000007 16239.085000000001 56647.500000000007 303.26000000000005 210.84500000000003
decision_type=2 2 2 2 2 2 2 2 2
left_child=6 2 3 -2 -4 -3 -1 8 -8
right_child=1 5 4 -5 -6 -7 7 -9 -10
leaf_value=-0.050255277061212314 0.072724149566896198 -0.05054952165554405 -0.052198557825778327 0.26174927544574567 0.078236569368005396 -0.052705404421537622 -0.050255276931971994 -0.050255276910561565 -0.050255276550228434
leaf_weight=5.8926206547766924 3.1347399924416099 0.19870822946541 0.46364154899492849 0.47250621812418092 0.31520422548055649 0.16194936074316502 0.2149719027802347 1.1576287620700894 0.12878988403826952
leaf_count=2370 193 37 40 22 10 6 46 248 28
internal_value=-0.00313487 0.0702646 0.0802784 0.0974842 0.000589433 -0.0515176 -0.0502553 -0.0502553 -0.0502553
internal_weight=12.1408 4.74675 4.38609 3.60725 0.778846 0.360658 7.39401 1.50139 0.343762
internal_count=3000 308 265 215 50 43 2692 322 74
is_linear=0
shrinkage=0.05


Tree=8
num_leaves=9
num_cat=0
split_feature=2 8 8 8 8 4 0 0
split_gain=14.9493 1.87735 1.84554 3.65787 1.23131 7.92971e-07 8.88178e-16 8.88178e-16
threshold=9884.9850000000024 0.38351299775726494 1.8399625073831931 1.4551189771686859 5.72096854322663 27399.245000000006 56375.500000000007 56351.500000000007
decision_type=2 2 2 2 2 2 2 2
left_child=6 5 3 -3 -4 -2 7 -1
right_child=1 2 4 -5 -6 -7 -8 -9
leaf_value=-0.050242765059417674 -0.050651131587070547 0.064526142929978839 -0.052237885469107175 0.20021284811482462 0.075364398690107026 -0.050498877705457849 -0.050242765071719868 -0.050242765145239669
leaf_weight=4.5791704714065418 0.16843276633881021 3.3448099673260008 0.45772451488301147 0.58332102303393174 0.32209072564728558 0.17372345784679055 2.3770870461594313 0.078850863035768159
leaf_count=2101 25 176 28 22 22 35 569 22
internal_value=-0.00312678 0.0625087 0.0707272 0.0846754 0.000466281 -0.0505738 -0.0502428 -0.0502428
internal_weight=12.0852 5.0501 4.70795 3.92813 0.779815 0.342156 7.03511 4.65802
internal_count=3000 308 248 198 50 60 2692 2123
is_linear=0
shrinkage=0.05


Tree=9
num_leaves=8
num_cat=0
split_feature=2 2 8 4 6 0 0
split_gain=13.4249 1.70561 1.49 2.61134 1.34066 2.47813e-05 1.77636e-15
threshold=9884.9850000000024 36202.945000000007 0.4295694439663576 17100.110000000004 17539.495000000003 56515.500000000007 55511.500000000007
decision_type=2 2 2 2 2 2 2
left_child=6 2 4 -4 -2 -3 -1
right_child=1 5 3 -5 -6 -7 -8
leaf_value=-0.050230869263269529 0.11872328719398573 -0.050620915127209669 0.059780915266932161 0.17981994065119419 -0.051419891163439972 -0.051466312549252984 -0.050230869232857446
leaf_weight=2.2273945152992383 0.1542313746176659 0.17836843291297544 3.8464384421240538 0.51355400029569853 0.4643876098562032 0.16864323988556862 4.4661524400580674
leaf_count=1343 19 37 169 21 55 7 1349
internal_value=-0.00309575 0.0561464 0.0636167 0.0739201 -0.00900054 -0.0510318 -0.0502309
internal_weight=12.0192 5.32562 4.97861 4.35999 0.618619 0.347012 6.69355
internal_count=3000 308 264 190 74 44 2692
is_linear=0
shrinkage=0.05


Tree=10
num_leaves=12
num_cat=0
split_feature=2 3 4 8 4 6 8 6 0 6 0
split_gain=12.1278 1.44753 2.57408 2.26178 2.04121 2.03326 1.00459 0.00018757 8.88178e-16 2.22045e-16 1.11022e-16
threshold=9884.9850000000024 22774.185000000001 12759.530000000001 1.8399625073831931 18187.210000000003 31008.785000000003 5.72096854322663 31862.560000000005 54647.500000000007 6951.9900000000007 54203.500000000007
decision_type=2 2 2 2 2 2 2 2 2 2 2
left_child=8 3 7 5 -4 -2 -5 -3 9 -1 -11
right_child=1 2 4 6 -6 -7 -8 -9 -10 10 -12
leaf_value=-0.050219559014273878 0.073796192142925751 -0.052701391007016131 0.11099932593154292 -0.052346833312781643 0.0049135386615438521 0.18722234304391291 0.062103004163247336 -0.05114410382013649 -0.050219558847472492 -0.050219558661648039 -0.050219558862690389
leaf_weight=0.20288594521116454 1.6935232789255685 0.33725099219009314 0.87927956227213122 0.41300740395672608 0.93624156736768782 0.5153258112259208 0.35787127364892513 0.453194675501436 5.6340590157778934 0.14360362337902188 0.38794806320220232
leaf_count=161 59 13 34 23 84 22 22 51 2114 126 291
internal_value=-0.00305449 0.0507205 0.0235029 0.074524 0.0562922 0.100259 0.000785145 -0.0518085 -0.0502196 -0.0502196 -0.0502196
internal_weight=11.9542 5.58569 2.60597 2.97973 1.81552 2.20885 0.770879 0.790446 6.3685 0.734438 0.531552
internal_count=3000 308 182 126 118 81 45 64 2692 578 417
is_linear=0
shrinkage=0.05


Tree=11
num_leaves=8
num_cat=0
split_feature=2 3 8 8 7 0 8
split_gain=11.0102 2.19809 2.65762 2.40254 0.000422996 8.88178e-16 8.88178e-16
threshold=9884.9850000000024 1646.3300000000002 1.8399625073831931 1.3172269495093167 -4239.54 56944.500000000007 0.08561772466761057
decision_type=2 2 2 2 2 2 2
left_child=5 -2 3 -3 -4 6 -1
right_child=1 2 4 -5 -6 -7 -8
leaf_value=-0.050208805030395535 0.2418995131536959 0.036124101504469416 -0.051332608900356347 0.12179776884204135 -0.053856640617014166 -0.050208804775164761 -0.050208805002840334
leaf_weight=4.2099540646886453 0.13985764980316151 3.9876085275318474 0.31800087739247829 1.0295907878316937 0.34725180128589261 0.2003078288398682 1.6489042988978324
leaf_count=1896 7 221 30 37 13 49 747
internal_value=-0.00302715 0.0460739 0.0412542 0.0537054 -0.0526501 -0.0502088 -0.0502088
internal_weight=11.8815 5.82231 5.68245 5.0172 0.665253 6.05917 5.85886
internal_count=3000 308 301 258 43 2692 2643
is_linear=0
shrinkage=0.05


Tree=12
num_leaves=8
num_cat=0
split_feature=2 3 8 3 7 0 2
split_gain=10.0441 1.46436 2.3223 2.03363 0.000363752 8.88178e-16 2.77556e-17
threshold=9884.9850000000024 1646.3300000000002 1.8399625073831931 12630.485000000002 -4239.54 56944.500000000007 1077.7550000000003
decision_type=2 2 2 2 2 2 2
left_child=5 -2 3 -3 -4 -1 -7
right_child=1 2 4 -5 -6 6 -8
leaf_value=-0.050198580013860572 0.18589948346141325 0.10513649538196682 -0.051266589223781606 0.031559475956971943 -0.053663663783094333 -0.050198579777433507 -0.050198580181360024
leaf_weight=5.5742250410839915 0.17187657998874772 1.2259734151884911 0.30287149886135012 4.0139474414754659 0.33147395681589831 0.112678175093606 0.07789835799485445
leaf_count=2643 7 28 30 230 13 29 20
internal_value=-0.00297823 0.0420448 0.0378358 0.0487741 -0.0525192 -0.0501986 -0.0501986
internal_weight=11.8109 6.04614 5.87427 5.23992 0.634345 5.7648 0.190577
internal_count=3000 308 301 258 43 2692 49
is_linear=0
shrinkage=0.05


Tree=13
num_leaves=8
num_cat=0
split_feature=2 5 5 3 0 4 4
split_gain=9.20125 1.12799 2.96543 1.63065 8.88178e-16 1.11022e-16 1.11022e-16
threshold=9884.9850000000024 764.72000000000014 2254.0800000000004 1646.3300000000002 56757.500000000007 5555.755000000001 42213.720000000008
decision_type=2 2 2 2 2 2 2
left_child=4 -2 -3 -4 -1 -6 -7
right_child=1 2 3 -5 5 6 -8
leaf_value=-0.050188857663942127 -0.053145696314450409 0.16195262916586764 0.18429979243945238 0.027975088126385647 -0.050188857862051364 -0.050188857626604466 -0.05018885756829175
leaf_weight=4.7043559611774981 0.31837694905698288 0.48486564704217006 0.17226415965706099 5.277368544600904 0.07047349028289307 0.60058849724009633 0.10926642641425133
leaf_count=2472 16 21 6 265 20 169 31
internal_value=-0.00292071 0.0385403 0.0434592 0.0329165 -0.0501889 -0.0501889 -0.0501889
internal_weight=11.7376 6.25288 5.9345 5.44963 5.48468 0.780328 0.709855
internal_count=3000 308 292 271 2692 220 200
is_linear=0
shrinkage=0.05


Tree=14
num_leaves=12
num_cat=0
split_feature=8 4 0 0 3 6 2 8 2 0 0
split_gain=8.47228 1.52622 2.47222 2.43051 2.40037 0.000317052 2.35493e-05 9.74454e-07 9.69042e-08 8.88178e-16 8.88178e-16
threshold=0.38351299775726494 15992.390000000001 55703.500000000007 55055.500000000007 22438.120000000006 25644.640000000003 9884.9850000000024 0.34061607324901183 12111.315000000001 56966.500000000007 54779.500000000007
decision_type=2 2 2 2 2 2 2 2 2 2 2
left_child=6 3 -3 5 -5 -2 9 8 -8 10 -1
right_child=1 2 -4 4 -6 -7 7 -9 -10 -11 -12
leaf_value=-0.050179612948435141 -0.053335525902542348 0.15748811759864922 0.013774658838151037 0.060204253832857227 -0.025560063590441703 -0.051427181498288524 -0.050565908797297832 -0.05069774178646267 -0.050497665943768512 -0.050179612640831844 -0.050179612944472478
leaf_weight=0.68767584720626462 0.4500928244087844 0.60500651039183118 0.59212764911353588 3.3010047023417428 1.0836656679166479 0.42144627822563052 0.099693351425230392 0.14898722129873931 0.10878176148980856 0.095545363845303544 4.0815830596257001
leaf_count=639 71 26 14 202 48 68 19 20 21 27 1845
internal_value=-0.00286132 0.0354535 0.0864044 0.0238492 0.0390077 -0.0524127 -0.0502084 -0.0506001 -0.0505303 -0.0501796 -0.0501796
internal_weight=11.6756 6.45334 1.19713 5.25621 4.38467 0.871539 5.22227 0.357462 0.208475 4.8648 4.76926
internal_count=3000 429 40 389 250 139 2571 60 40 2511 2484
is_linear=0
shrinkage=0.05


Tree=15
num_leaves=10
num_cat=0
split_feature=2 5 5 8 8 0 4 6 0
split_gain=7.87152 0.928941 1.96389 1.28802 3.90344e-08 7.60019e-09 3.96438e-12 1.33504e-14 8.88178e-16
threshold=9884.9850000000024 764.72000000000014 2254.0800000000004 0.4295694439663576 0.38351299775726494 55055.500000000007 6990.6550000000007 18296.840000000004 56147.500000000007
decision_type=2 2 2 2 2 2 2 2 2
left_child=4 -2 -3 -4 8 7 -7 -6 -1
right_child=1 2 3 -5 5 6 -8 -9 -10
leaf_value=-0.050170822511419591 -0.052971326069543724 0.12456265986653788 -0.051499520394934717 0.035239395807884259 -0.050170284197764661 -0.050190758721832568 -0.05019024466934352 -0.050170335712445641 -0.050170822448274803
leaf_weight=2.5960689485655166 0.30001482646912325 0.58228637510910619 0.46589813008904446 5.2603838379727677 0.033277362177614012 0.27157464146148413 0.043515889788977802 0.020213729003444314 2.0322663760744035
leaf_count=1787 16 21 60 211 33 109 19 20 724
internal_value=-0.00281655 0.0329902 0.0370782 0.0281822 -0.0501721 -0.0501877 -0.0501907 -0.0501703 -0.0501708
internal_weight=11.6055 6.60858 6.30857 5.72628 4.99692 0.368582 0.315091 0.0534911 4.62834
internal_count=3000 308 292 271 2692 181 128 53 2511
is_linear=0
shrinkage=0.05


Tree=16
num_leaves=11
num_cat=0
split_feature=2 0 0 4 0 6 8 0 4 5
split_gain=7.27123 0.880418 3.49637 2.02548 1.40346 0.000337213 3.3579e-08 6.53804e-09 3.40766e-12 1.19557e-14
threshold=9884.9850000000024 55055.500000000007 55403.500000000007 17100.110000000004 56504.500000000007 25644.640000000003 0.38351299775726494 55055.500000000007 6990.6550000000007 13137.055000000002
decision_type=2 2 2 2 2 2 2 2 2 2
left_child=6 3 -3 5 -4 -2 -1 9 -9 -8
right_child=1 2 4 -5 -6 -7 7 8 -10 -11
leaf_value=-0.050162463648451908 -0.053628315180254876 0.1346788340778737 -0.00012519798258647468 0.083107433941756514 0.055301376936940309 -0.051607609748085849 -0.050161951303356413 -0.050181420704875059 -0.050180932093186338 -0.050162001340541322
leaf_weight=4.4033238811534829 0.38567090919241287 0.81462429044768203 2.7952940782997757 0.41164652840234339 1.9311109902337191 0.444317776709795 0.031767702952492871 0.25837664911523461 0.041401083115488291 0.019122836936730891
leaf_count=2511 21 34 106 38 42 67 33 109 19 20
internal_value=-0.00274984 0.0304827 0.03901 -0.00757241 0.0225209 -0.0525466 -0.0501636 -0.0501785 -0.0501814 -0.050162
internal_weight=11.5367 6.78266 5.54103 1.24164 4.72641 0.829989 4.75399 0.350668 0.299778 0.0508905
internal_count=3000 308 182 126 148 88 2692 181 128 53
is_linear=0
shrinkage=0.05


Tree=17
num_leaves=11
num_cat=0
split_feature=8 6 7 6 6 3 5 2 8 2
split_gain=6.76761 1.2348 4.01022 1.56647 1.63323 0.629302 4.99592e-05 2.25193e-05 6.69831e-07 6.2544e-08
threshold=0.38351299775726494 14196.940000000001 -8870.0699999999961 20252.630000000005 20933.605000000003 21268.745000000003 1114.9800000000002 9884.9850000000024 0.34061607324901183 12111.315000000001
decision_type=2 2 2 2 2 2 2 2 2 2
left_child=7 2 -2 5 -5 -3 -4 -1 9 -9
right_child=1 3 6 4 -6 -7 -8 8 -10 -11
leaf_value=-0.050154515010270906 0.28489321055226074 -0.054268209579612051 -0.052206444039905056 0.12523319592071322 0.026493277767453041 0.023932451216297491 -0.050170099268306526 -0.050545935093879772 -0.050658412436957095 -0.050490298296819752
leaf_weight=4.18921831890475 0.18018398620188236 0.79233258665772133 0.038564255111850687 0.45762701297644515 4.935591499262955 0.38095660333056003 0.13755213835975155 0.096271308138966449 0.14188243634998798 0.10627390537410975
leaf_count=2511 4 72 9 9 252 11 72 19 20 21
internal_value=-0.00269891 0.0284 0.119054 0.0234811 0.0348716 -0.0288771 -0.050616 -0.0501865 -0.0505751 -0.0505167
internal_weight=11.4565 6.92281 0.3563 6.56651 5.39322 1.17329 0.176116 4.53365 0.344428 0.202545
internal_count=3000 429 85 344 261 83 81 2571 60 40
is_linear=0
shrinkage=0.05


Tree=18
num_leaves=11
num_cat=0
split_feature=8 7 7 3 8 5 0 2 8 2
split_gain=6.27463 1.076 1.93965 1.67526 1.58947 1.09809 0.518243 1.93664e-05 5.75489e-07 5.37821e-08
threshold=0.38351299775726494 -9194.4199999999964 -13810.25 39607.380000000012 8.3149917067643511 7952.7800000000016 55367.500000000007 9884.9850000000024 0.34061607324901183 12111.315000000001
decision_type=2 2 2 2 2 2 2 2 2 2
left_child=7 2 3 -2 6 -4 -3 -1 9 -9
right_child=1 4 5 -5 -6 -7 -8 8 -10 -11
leaf_value=-0.050146956614531127 -0.016239479804931314 0.026202318342101866 0.030292022934005819 0.062146529747660634 0.099308289092260721 0.097110941186425007 -0.053276865176957559 -0.050519058055792238 -0.05062591025001726 -0.050466172354443922
leaf_weight=3.9854932189919055 2.0585833882214502 0.26195284124696605 1.0648265443742282 1.0190391058567909 0.2644979367032646 1.4550725301960481 0.94502132572233677 0.091623592888936289 0.1350472061894834 0.10113797523081303
leaf_count=2511 106 78 25 37 10 49 124 19 20 21
internal_value=-0.00265224 0.0263462 0.036348 0.0097151 -0.0117006 0.0688755 -0.0360273 -0.0501773 -0.0505468 -0.0504913
internal_weight=11.3823 7.06899 5.59752 3.07762 1.47147 2.5199 1.20697 4.3133 0.327809 0.192762
internal_count=3000 429 217 143 212 74 202 2571 60 40
is_linear=0
shrinkage=0.05


Tree=19
num_leaves=13
num_cat=0
split_feature=8 6 7 6 6 3 5 2 8 2 2 0
split_gain=5.83044 0.986665 2.63136 1.32536 1.20584 0.587675 5.96311e-05 1.66556e-05 4.94497e-07 4.62462e-08 8.88178e-16 4.44089e-16
threshold=0.38351299775726494 14196.940000000001 -8870.0699999999961 20252.630000000005 20933.605000000003 21268.745000000003 1114.9800000000002 9884.9850000000024 0.34061607324901183 12111.315000000001 525.61500000000012 55787.500000000007
decision_type=2 2 2 2 2 2 2 2 2 2 2 2
left_child=7 2 -2 5 -5 -3 -4 10 9 -9 11 -1
right_child=1 3 6 4 -6 -7 -8 8 -10 -11 -12 -13
leaf_value=-0.050139768817863167 0.21201190081341587 -0.054155046435379696 -0.052408207527456174 0.10338676475646724 0.022787593201539662 0.020945352869746317 -0.050155602801085775 -0.050493514495107084 -0.050595032826405019 -0.050443244044438319 -0.050139768834051024 -0.050139768679794063
leaf_weight=0.75599938980303738 0.22702871635556221 0.7655815598554907 0.038310885487589874 0.51011727086734016 5.1391077998559922 0.39483442925848067 0.12602038477780297 0.087198034860193618 0.12853729818016291 0.09624804463237524 2.0236694305203855 1.0119793743360785
leaf_count=692 4 72 9 9 252 11 72 19 20 21 1346 473
internal_value=-0.00260179 0.0245051 0.101708 0.0200682 0.0300656 -0.0286019 -0.0506808 -0.0501687 -0.0505198 -0.0504671 -0.0501398 -0.0501398
internal_weight=11.3046 7.201 0.39136 6.80964 5.64923 1.16042 0.164331 4.10363 0.311983 0.183446 3.79165 1.76798
internal_count=3000 429 85 344 261 83 81 2571 60 40 2511 1165
is_linear=0
shrinkage=0.05


Tree=20
num_leaves=10
num_cat=0
split_feature=2 5 5 7 8 6 0 8 0
split_gain=5.43889 0.807325 1.19801 1.09694 5.89226e-08 1.82327e-08 4.96047e-10 3.1837e-10 4.44089e-16
threshold=9884.9850000000024 764.72000000000014 2254.0800000000004 -26540.744999999995 0.38351299775726494 20252.630000000005 55019.500000000007 0.58641922353810538 56977.500000000007
decision_type=2 2 2 2 2 2 2 2 2
left_child=4 -2 -3 -4 8 6 -6 -7 -1
right_child=1 2 3 -5 5 7 -8 -9 -10
leaf_value=-0.050132933640784763 -0.0535629291358432 0.087690626668061711 -0.051973025345765866 0.025626804900710728 -0.050142724734905622 -0.050179838298605298 -0.050149490523897604 -0.050173494268192502 -0.05013293406840829
leaf_weight=3.5650905417860494 0.32961068488657463 0.71799393999390293 0.49441309017129143 5.7728328779339799 0.031510886386968084 0.036008223076350987 0.19314319780096412 0.043870114255696535 0.042116133263334521
leaf_count=2495 16 21 42 229 38 19 100 24 16
internal_value=-0.00254435 0.0229054 0.0265137 0.0195051 -0.0501347 -0.0501558 -0.0501485 -0.0501764 -0.0501329
internal_weight=11.2266 7.31485 6.98524 6.26725 3.91174 0.304532 0.224654 0.0798783 3.60721
internal_count=3000 308 292 271 2692 181 138 43 2511
is_linear=0
shrinkage=0.05


Tree=21
num_leaves=10
num_cat=0
split_feature=8 2 0 0 0 2 8 2 0
split_gain=5.1093 0.871379 1.07845 1.55209 1.80274e-05 1.63695e-05 4.35144e-07 3.99032e-08 4.44089e-16
threshold=0.38351299775726494 36202.945000000007 56845.500000000007 56614.500000000007 56493.500000000007 9884.9850000000024 0.34061607324901183 12111.315000000001 56746.500000000007
decision_type=2 2 2 2 2 2 2 2 2
left_child=5 2 3 -2 -3 8 7 -7 -1
right_child=1 4 -4 -5 -6 6 -8 -9 -10
leaf_value=-0.050126433714002709 0.027673457606192997 -0.050828806335869482 0.088219269325848559 -0.054215436659201116 -0.051508305242458169 -0.050483726092347775 -0.050580365753595473 -0.050436529338752346 -0.050126433597170755
leaf_weight=2.9255614569992767 5.7621051325695589 0.19435437861829985 0.62579929665662337 0.64323375956155349 0.19609520491212606 0.085217507788911351 0.12516542966477573 0.094386932672932744 0.50615339633077372
leaf_count=2298 342 36 14 29 8 19 20 21 213
internal_value=-0.00247362 0.0215335 0.0255708 0.0194501 -0.0511701 -0.0501576 -0.0505088 -0.0504589 -0.0501264
internal_weight=11.1581 7.42159 7.03114 6.40534 0.39045 3.73648 0.30477 0.179604 3.43171
internal_count=3000 429 385 371 44 2571 60 40 2511
is_linear=0
shrinkage=0.05


Tree=22
num_leaves=11
num_cat=0
split_feature=2 5 5 7 8 6 0 5 0 0
split_gain=4.77832 0.722569 1.02731 1.11952 1.07801e-07 1.78005e-08 3.42009e-10 3.34921e-10 4.44089e-16 2.22045e-16
threshold=9884.9850000000024 764.72000000000014 1114.9800000000002 -26540.744999999995 0.38351299775726494 20252.630000000005 55019.500000000007 15496.965000000002 56303.500000000007 56363.500000000007
decision_type=2 2 2 2 2 2 2 2 2 2
left_child=4 -2 -3 -4 8 6 -6 -7 -1 -10
right_child=1 2 3 -5 5 7 -8 -9 9 -11
leaf_value=-0.050120252217275646 -0.053485456612285244 0.16012183927251022 -0.051939415256815107 0.026274413343662491 -0.050139553755488953 -0.050175915873401311 -0.050145237838865334 -0.050169322936462146 -0.050120252444568185 -0.050120252064910997
leaf_weight=2.0456344856647783 0.31875758594833303 0.13490355690009881 0.49171978968661179 6.5768452906049797 0.030814652622211613 0.034926606982480735 0.18744155659805983 0.042952569201588631 0.093340488383546361 1.1257656234083695
leaf_count=1915 16 5 43 244 38 19 100 24 53 543
internal_value=-0.00240601 0.0201822 0.0234421 0.0208335 -0.0501229 -0.0501518 -0.0501444 -0.0501723 -0.0501203 -0.0501203
internal_weight=11.0831 7.52223 7.20347 7.06857 3.56088 0.296135 0.218256 0.0778792 3.26474 1.21911
internal_count=3000 308 292 287 2692 181 138 43 2511 596
is_linear=0
shrinkage=0.05


Tree=23
num_leaves=13
num_cat=0
split_feature=8 6 7 6 6 3 8 2 8 2 0 0
split_gain=4.50256 0.847965 1.70726 1.10478 1.01207 0.553629 3.97401e-05 1.59107e-05 3.72474e-07 4.94858e-08 8.88178e-16 2.22045e-16
threshold=0.38351299775726494 14196.940000000001 -8870.0699999999961 20252.630000000005 20933.605000000003 21268.745000000003 1.8399625073831931 9884.9850000000024 0.34061607324901183 12111.315000000001 56375.500000000007 56411.500000000007
decision_type=2 2 2 2 2 2 2 2 2 2 2 2
left_child=7 2 -2 5 -5 -3 -4 10 9 -9 -1 -12
right_child=1 3 6 4 -6 -7 -8 8 -10 -11 11 -13
leaf_value=-0.050114373746356723 0.16146207853543112 -0.054327393522725143 -0.05013744972708583 0.088353194893998635 0.017172010171233813 0.017651516472359519 -0.052076228486850909 -0.050478593569925359 -0.050564622013861908 -0.050425454502210712 -0.050114373880645435 -0.050114373530334891
leaf_weight=2.0519133030902603 0.27447096444666386 0.76783431554213144 0.11031453526811663 0.54957439540885378 5.4661908826092258 0.40968368190806359 0.034759039990603924 0.083660188014618941 0.121536651160568 0.091981770005077124 0.056814999086782114 0.99714411643799394
leaf_count=1978 4 72 73 9 252 11 8 19 20 21 33 500
internal_value=-0.00233669 0.0190356 0.0881328 0.0150056 0.0236748 -0.0292844 -0.050602 -0.0501478 -0.0504973 -0.0504508 -0.0501144 -0.0501144
internal_weight=11.0159 7.61283 0.419545 7.19328 6.01577 1.17752 0.145074 3.40305 0.297179 0.175642 3.10587 1.05396
internal_count=3000 429 85 344 261 83 81 2571 60 40 2511 533
is_linear=0
shrinkage=0.05


Tree=24
num_leaves=13
num_cat=0
split_feature=8 4 0 3 4 4 2 8 2 0 0 0
split_gain=4.21396 0.75934 1.69778 1.7214 1.49696 0.000536022 1.36852e-05 3.20091e-07 4.25642e-08 4.44089e-16 4.44089e-16 1.11022e-16
threshold=0.38351299775726494 15992.390000000001 55055.500000000007 22438.120000000006 18187.210000000003 13647.105000000001 9884.9850000000024 0.34061607324901183 12111.315000000001 56435.500000000007 54107.500000000007 56900.500000000007
decision_type=2 2 2 2 2 2 2 2 2 2 2 2
left_child=6 2 5 -4 -3 -2 9 8 -8 10 -1 -11
right_child=1 4 3 -5 -6 -7 7 -9 -10 11 -12 -13
leaf_value=-0.050108783363416065 -0.05228482128614223 0.1024733381064688 0.037053262758660194 -0.030371407059303409 0.0046721911062786716 -0.055510439113045089 -0.050455064406845579 -0.05053680125031549 -0.050404544794641404 -0.05010878312797129 -0.050108783196205681 -0.050108782861501389
leaf_weight=0.046166670683306932 0.76291392097482447 0.71216089092195012 3.9581575731281191 1.2442083403002469 0.86828950420022011 0.15495330467820168 0.079616208910010644 0.11567127821035683 0.087531146360561252 0.73002432857174415 1.9964745159377342 0.18205302115529776
leaf_count=83 133 16 202 48 24 6 19 20 21 392 1950 86
internal_value=-0.00227768 0.0178449 0.00986628 0.0209278 0.048742 -0.0528294 -0.0501406 -0.0504729 -0.0504286 -0.0501088 -0.0501088 -0.0501088
internal_weight=10.9382 7.70068 6.12023 5.20237 1.58045 0.917867 3.23754 0.282819 0.167147 2.95472 2.04264 0.912077
internal_count=3000 429 389 250 40 139 2571 60 40 2511 2033 478
is_linear=0
shrinkage=0.05


Tree=25
num_leaves=11
num_cat=0
split_feature=2 5 5 7 8 6 0 5 0 0
split_gain=3.96048 0.636857 0.874146 0.96777 1.70812e-07 3.22331e-08 2.624e-09 7.50946e-10 4.44089e-16 5.55112e-17
threshold=9884.9850000000024 764.72000000000014 1114.9800000000002 -26540.744999999995 0.38351299775726494 20252.630000000005 55067.500000000007 15496.965000000002 54887.500000000007 54779.500000000007
decision_type=2 2 2 2 2 2 2 2 2 2
left_child=4 -2 -3 -4 8 6 -6 -7 9 -1
right_child=1 2 3 -5 5 7 -8 -9 -10 -11
leaf_value=-0.050103466513396991 -0.053527537153120398 0.14065411698937841 -0.051955794456014372 0.022069497224363306 -0.050119858732478643 -0.050177320529993311 -0.050136251587991953 -0.050167423445399463 -0.050103466418244716 -0.050103466603234927
leaf_weight=0.39734221849357787 0.30906304856762279 0.14648696780204762 0.47195076080970366 6.8479448851430798 0.028404337412211933 0.03498261101776734 0.17365733894985169 0.042391233029775321 2.3446002627606504 0.068963462545070797
leaf_count=639 16 5 43 244 40 19 98 24 1781 91
internal_value=-0.00222511 0.0168056 0.0197169 0.0172967 -0.0501072 -0.0501445 -0.0501339 -0.0501719 -0.0501035 -0.0501035
internal_weight=10.8658 7.77545 7.46638 7.3199 3.09034 0.279436 0.202062 0.0773738 2.81091 0.466306
internal_count=3000 308 292 287 2692 181 138 43 2511 730
is_linear=0
shrinkage=0.05


Tree=26
num_leaves=13
num_cat=0
split_feature=8 7 3 7 0 0 0 2 8 0 0 0
split_gain=3.73419 0.744416 1.30941 1.21743 1.51635 0.830634 0.404732 1.31184e-05 2.66246e-07 1.34936e-08 8.88178e-16 1.11022e-16
threshold=0.38351299775726494 -9194.4199999999964 1541.0500000000004 -13810.25 56592.500000000007 55907.500000000007 55367.500000000007 9884.9850000000024 0.34061607324901183 55643.500000000007 55187.500000000007 54347.500000000007
decision_type=2 2 2 2 2 2 2 2 2 2 2 2
left_child=7 3 -3 4 -2 -5 -4 10 9 -9 11 -1
right_child=1 2 6 5 -6 -7 -8 8 -10 -11 -12 -13
leaf_value=-0.050098410082627533 -0.014291264372577467 0.078066309900915787 0.014472719685001091 0.073261206173027421 0.068958856805013055 0.020341276609472846 -0.053789824702623015 -0.050405795803914133 -0.050520566345563657 -0.050434583557492058 -0.050098410140183937 -0.050098410121561299
leaf_weight=0.14695946295978579 2.6643208616878837 0.30124855926260341 0.28132997947977834 1.4816292321775115 0.68828083667904127 1.4843731448054311 0.95170187274925411 0.080254247877746709 0.1119295209646225 0.082601322792470455 2.0253136603278108 0.5018063768511638
leaf_count=276 131 24 71 51 12 23 117 27 20 13 1522 713
internal_value=-0.00215794 0.0158571 -0.0153837 0.0234429 0.00279978 0.0467768 -0.038215 -0.0501322 -0.0504612 -0.0504204 -0.0500984 -0.0500984
internal_weight=10.8017 7.85288 1.53428 6.3186 3.3526 2.966 1.23303 2.94886 0.274785 0.162856 2.67408 0.648766
internal_count=3000 429 212 217 143 74 188 2571 60 40 2511 989
is_linear=0
shrinkage=0.05


Tree=27
num_leaves=13
num_cat=0
split_feature=8 6 0 6 0 3 8 2 8 0 0 0
split_gain=3.50323 0.703357 1.08464 0.98469 0.897009 0.500961 0.173792 1.12844e-05 2.28799e-07 1.16198e-08 4.44089e-16 5.55112e-17
threshold=0.38351299775726494 14196.940000000001 55607.500000000007 20252.630000000005 56504.500000000007 21268.745000000003 1.3172269495093167 9884.9850000000024 0.34061607324901183 55643.500000000007 54911.500000000007 54887.500000000007
decision_type=2 2 2 2 2 2 2 2 2 2 2 2
left_child=7 2 -2 5 -5 -3 -4 10 9 -9 11 -1
right_child=1 3 6 4 -6 -7 -8 8 -10 -11 -12 -13
leaf_value=-0.050093601440750639 -0.053873718193416409 -0.054483769502167649 0.088124611878739267 0.0063323681013776403 0.046972709570590632 0.012704773880926098 0.16108477143392305 -0.050385859204264187 -0.050494936414271677 -0.05041324423451865 -0.05009360146253336 -0.050093601737485532
leaf_weight=0.42201182531425807 0.11823438515420992 0.76766917295753934 0.1716527653625235 4.2900089879985899 1.9864550612401215 0.43442942062392831 0.15561483160126954 0.076369646470993646 0.10652333148755133 0.078605229035019875 2.1070435755536892 0.014845725148916245
leaf_count=730 39 72 34 225 36 11 12 27 20 13 1760 21
internal_value=-0.0021091 0.0148905 0.075924 0.0112547 0.0191947 -0.0302023 0.122817 -0.0501258 -0.0504385 -0.0503997 -0.0500936 -0.0500936
internal_weight=10.7295 7.92406 0.445502 7.47856 6.27646 1.2021 0.327268 2.8054 0.261498 0.154975 2.5439 0.436858
internal_count=3000 429 85 344 261 83 46 2571 60 40 2511 751
is_linear=0
shrinkage=0.05


Tree=28
num_leaves=9
num_cat=0
split_feature=2 5 5 5 8 6 5 8
split_gain=3.31213 0.567521 0.723508 0.790894 2.22954e-07 2.54428e-08 4.21387e-09 6.12751e-10
threshold=9884.9850000000024 764.72000000000014 2254.0800000000004 3843.5750000000003 0.38351299775726494 20252.630000000005 11006.750000000002 0.58641922353810538
decision_type=2 2 2 2 2 2 2 2
left_child=4 -2 -3 -4 -1 6 -6 -7
right_child=1 2 3 -5 5 7 -8 -9
leaf_value=-0.050089028103170286 -0.053401648132335 0.060258624806307573 -0.054630840224782484 0.015726728402664866 -0.050132465743405442 -0.050167540437492233 -0.050115966446507412 -0.050158339548283117
leaf_weight=2.4200489724171352 0.29953458183445025 0.84979740250855673 0.42601378541439761 6.3999901309143752 0.13726778159616504 0.033107561815995723 0.053890993411187083 0.039906512713059783
leaf_count=2511 16 21 18 253 94 19 44 24
internal_value=-0.002052 0.0141172 0.016752 0.0113357 -0.0500938 -0.0501374 -0.0501278 -0.0501625
internal_weight=10.6596 7.97534 7.6758 6.826 2.68422 0.264173 0.191159 0.0730141
internal_count=3000 308 292 271 2692 181 138 43
is_linear=0
shrinkage=0.05


Tree=29
num_leaves=10
num_cat=0
split_feature=8 2 0 0 0 2 5 0 0
split_gain=3.11727 0.676699 0.805529 1.32274 1.60665e-05 1.03527e-05 1.84304e-07 4.44089e-16 1.38778e-17
threshold=0.38351299775726494 36202.945000000007 56845.500000000007 56614.500000000007 56515.500000000007 9884.9850000000024 7317.9400000000014 56911.500000000007 56966.500000000007
decision_type=2 2 2 2 2 2 2 2 2
left_child=5 2 3 -2 -3 7 -7 -1 -9
right_child=1 4 -4 -5 -6 6 -8 8 -10
leaf_value=-0.050084678666300314 0.018608816202996297 -0.050930699415141438 0.067947315761542129 -0.054691165642084608 -0.051577569831503023 -0.050479954410121035 -0.050390632216095757 -0.050084678904605412 -0.050084678600769199
leaf_weight=2.1781525010010245 6.2849878048291412 0.21047269238624711 0.69320712983608235 0.68228404584806401 0.17647489346563816 0.089852337609045096 0.16164238168857992 0.078848342061973997 0.045215822989121079
leaf_count=2436 342 37 14 29 7 22 38 48 27
internal_value=-0.00198711 0.0132864 0.016545 0.0114308 -0.0512257 -0.050118 -0.0504225 -0.0500847 -0.0500847
internal_weight=10.6011 8.04743 7.66048 6.96727 0.386948 2.55371 0.251495 2.30222 0.124064
internal_count=3000 429 385 371 44 2571 60 2511 75
is_linear=0
shrinkage=0.05


Tree=30
num_leaves=11
num_cat=0
split_feature=2 5 5 0 8 6 5 7 0 2
split_gain=2.95368 0.519174 0.619266 0.764598 2.51422e-07 2.39469e-08 4.0905e-09 7.90227e-10 4.44089e-16 2.22045e-16
threshold=9884.9850000000024 764.72000000000014 2254.0800000000004 56504.500000000007 0.38351299775726494 20252.630000000005 11006.750000000002 -7034.9149999999991 56075.500000000007 159.02000000000001
decision_type=2 2 2 2 2 2 2 2 2 2
left_child=4 -2 -3 -4 8 6 -6 -7 9 -1
right_child=1 2 3 -5 5 7 -8 -9 -10 -11
leaf_value=-0.050080541991640276 -0.053297401126803513 0.054469086553344703 -0.00146045523162152 0.03408313126611718 -0.050128176617357245 -0.05016286872727848 -0.050111593408822999 -0.050152282448801801 -0.050080541948479752 -0.050080541957160288
leaf_weight=0.11386326499632726 0.28801364789251049 0.88393778237514187 4.6821906521217898 2.2354102642275393 0.13257764501031477 0.036608962807804346 0.051681988697964698 0.03399977192748338 1.0224110415438188 1.0538382573286069
leaf_count=168 16 21 232 39 94 20 44 23 781 1562
internal_value=-0.00192802 0.0126272 0.015061 0.0100254 -0.050086 -0.050133 -0.0501235 -0.0501578 -0.0500805 -0.0500805
internal_weight=10.5345 8.08955 7.80154 6.9176 2.44498 0.254868 0.18426 0.0706087 2.19011 1.1677
internal_count=3000 308 292 271 2692 181 138 43 2511 1730
is_linear=0
shrinkage=0.05


Tree=31
num_leaves=9
num_cat=0
split_feature=8 2 0 0 0 2 5 0
split_gain=2.78237 0.625002 0.656325 1.2445 1.48012e-05 9.46655e-06 1.87186e-07 8.88178e-16
threshold=0.38351299775726494 36202.945000000007 56845.500000000007 56614.500000000007 56515.500000000007 9884.9850000000024 7317.9400000000014 54227.500000000007
decision_type=2 2 2 2 2 2 2 2
left_child=5 2 3 -2 -3 7 -7 -1
right_child=1 4 -4 -5 -6 6 -8 -9
leaf_value=-0.050076607830248199 0.017088212354042353 -0.050903526700511209 0.060320570612493407 -0.054616208925827761 -0.051534447218280204 -0.050466306868294168 -0.050374452311405339 -0.050076607722687211
leaf_weight=0.071755225973903936 6.3818483825889398 0.20293366292025883 0.72269614157266904 0.66850797459483136 0.17153300158679485 0.086285800556652137 0.1552721158368513 2.0117038346652407
leaf_count=178 342 37 14 29 7 22 38 2333
internal_value=-0.00186605 0.0119014 0.0149409 0.0102893 -0.0511925 -0.050111 -0.0504073 -0.0500766
internal_weight=10.4725 8.14752 7.77305 7.05036 0.374467 2.32502 0.241558 2.08346
internal_count=3000 429 385 371 44 2571 60 2511
is_linear=0
shrinkage=0.05


Tree=32
num_leaves=12
num_cat=0
split_feature=2 3 3 7 6 8 6 5 7 0 7
split_gain=2.64139 0.489534 1.52733 1.41709 0.146039 2.73358e-07 2.23731e-08 3.92747e-09 9.91235e-10 2.22045e-16 2.22045e-16
threshold=9884.9850000000024 44382.905000000006 39607.380000000012 -14509.874999999998 24945.255000000001 0.38351299775726494 20252.630000000005 7952.7800000000016 -7034.9149999999991 55907.500000000007 -107.7850000000003
decision_type=2 2 2 2 2 2 2 2 2 2 2
left_child=5 2 3 -2 -3 9 7 -7 -8 -1 -11
right_child=1 4 -4 -5 -6 6 8 -9 -10 10 -12
leaf_value=-0.050072865967311253 -0.026113016618309018 -0.0023687369192815491 0.083318470828810873 0.022814506420796719 -0.053125465920976479 -0.050126703029316794 -0.0501589209498772 -0.050111821162643601 -0.050146855180457167 -0.050072866016968559 -0.050072865652862356
leaf_weight=0.93093623794266145 2.1602132398402309 0.2379204804310574 0.73343536420725275 4.6990782567299894 0.35047954507172108 0.090728574257809558 0.035449414688628167 0.086699310573749244 0.032745182688813657 1.009298605378717 0.04175708204274986
leaf_count=1592 99 15 30 134 30 62 20 76 23 882 37
internal_value=-0.0018094 0.0113338 0.0147386 0.00740564 -0.0326019 -0.050079 -0.0501288 -0.0501194 -0.0501531 -0.0500729 -0.0500729
internal_weight=10.4087 8.18113 7.59273 6.85929 0.5884 2.22761 0.245622 0.177428 0.0681946 1.98199 1.05106
internal_count=3000 308 263 233 45 2692 181 138 43 2511 919
is_linear=0
shrinkage=0.05


Tree=33
num_leaves=12
num_cat=0
split_feature=8 6 6 0 0 2 8 2 5 0 2
split_gain=2.49455 0.602554 0.842879 0.792065 0.741072 0.289414 0.000205223 9.22417e-06 2.35112e-07 2.22045e-16 1.11022e-16
threshold=0.38351299775726494 14196.940000000001 17852.430000000004 55607.500000000007 55403.500000000007 12111.315000000001 0.61488830199756339 9884.9850000000024 7317.9400000000014 55739.500000000007 5081.1600000000008
decision_type=2 2 2 2 2 2 2 2 2 2 2
left_child=7 3 6 -2 -4 -5 -3 9 -9 10 -1
right_child=1 2 4 5 -6 -7 -8 8 -10 -11 -12
leaf_value=-0.050069307212400188 -0.053580702991342648 -0.055770688894352084 0.035830190880073977 0.062435315952194925 0.0011592642862237486 0.15340979524192996 -0.053759349094327086 -0.050467070241848128 -0.050363291584985551 -0.050069307207228922 -0.050069307012109793
leaf_weight=0.7165343450906233 0.10631292298785222 0.23454086878336955 2.2214363618404604 0.20125258690677583 5.0334766153246164 0.15456207096576691 0.2761357169074472 0.085851887357421108 0.14980744628701359 1.1146227306453509 0.054302589007420465
leaf_count=1349 39 19 153 45 149 1 23 22 38 1062 100
internal_value=-0.00175833 0.0107058 0.00740501 0.0661728 0.0117754 0.101954 -0.0546831 -0.0501062 -0.0504011 -0.0500693 -0.0500693
internal_weight=10.3488 8.22772 7.76559 0.462128 7.25491 0.355815 0.510677 2.12112 0.235659 1.88546 0.770837
internal_count=3000 429 344 85 302 46 42 2571 60 2511 1449
is_linear=0
shrinkage=0.05


Tree=34
num_leaves=14
num_cat=0
split_feature=2 0 0 4 0 6 8 6 6 7 0 6 6
split_gain=2.36683 0.462142 1.87198 1.5149 0.976579 0.000500686 2.91208e-07 1.82617e-08 7.25814e-09 8.32618e-10 2.22045e-16 2.22045e-16 1.38778e-17
threshold=9884.9850000000024 55055.500000000007 55403.500000000007 17100.110000000004 56504.500000000007 25644.640000000003 0.38351299775726494 20252.630000000005 14196.940000000001 -7034.9149999999991 56922.500000000007 9074.3600000000024 7140.3900000000003
decision_type=2 2 2 2 2 2 2 2 2 2 2 2 2
left_child=6 3 -3 5 -4 -2 10 8 -8 -9 11 -1 -12
right_child=1 2 4 -5 -6 -7 7 9 -10 -11 12 -13 -14
leaf_value=-0.050065922459995277 -0.054338459425917002 0.075192654689571675 -0.013072314639765218 0.05422746222315239 0.02898643436710743 -0.052023958780309479 -0.050124099257207337 -0.050152764439110653 -0.050102680640044556 -0.050141493703961863 -0.050065923278039839 -0.05006592257546303 -0.050065922192091022
leaf_weight=0.68704186857212457 0.43925279937684336 1.1050977366976438 3.3802320645190775 0.50596014340408146 2.3325949730351567 0.49923535203561187 0.10896291924291279 0.03408920468064025 0.062092881824355572 0.03155396698275581 0.028359283576719352 1.0200479036138856 0.058173849945887923
leaf_count=977 21 34 106 38 42 67 80 20 58 23 22 1467 45
internal_value=-0.00170471 0.0101808 0.0156237 -0.0155101 0.00410062 -0.0531072 -0.0500728 -0.0501249 -0.0501163 -0.0501473 -0.0500659 -0.0500659 -0.0500659
internal_weight=10.2927 8.26237 6.81792 1.44445 5.71283 0.938488 2.03032 0.236699 0.171056 0.0656432 1.79362 1.70709 0.0865331
internal_count=3000 308 182 126 148 88 2692 181 138 43 2511 2444 67
is_linear=0
shrinkage=0.05


Tree=35
num_leaves=12
num_cat=0
split_feature=8 6 6 3 0 3 5 2 5 3 4
split_gain=2.24123 0.582096 0.774821 0.73292 0.643967 0.000236525 1.56305e-05 8.63081e-06 1.94584e-07 2.22045e-16 2.77556e-17
threshold=0.38351299775726494 14196.940000000001 17852.430000000004 9158.2000000000025 56504.500000000007 20242.085000000003 1781.4500000000003 9884.9850000000024 7317.9400000000014 8245.7000000000025 2489.8500000000008
decision_type=2 2 2 2 2 2 2 2 2 2 2
left_child=7 3 5 6 -4 -3 -2 9 -9 10 -1
right_child=1 2 4 -5 -6 -7 -8 8 -10 -11 -12
leaf_value=-0.050062703478227645 -0.051490751211753998 -0.053519585822911581 0.0007645890538294282 0.098765814223941512 0.033051269580137863 -0.055722733579009587 -0.050118625128831189 -0.050450032022664452 -0.05035437862537865 -0.050062703183242678 -0.050062703253055889
leaf_weight=0.032712701009587231 0.028162485337814291 0.25266660240595218 5.1283784593688324 0.35500476747984067 2.2098877679090947 0.23524823319166899 0.078909249423304573 0.083598839701153227 0.14605912275146693 1.5440316480817271 0.129509480582783
leaf_count=49 10 35 258 15 44 7 60 22 38 2262 200
internal_value=-0.00166323 0.00965062 0.0064309 0.0641829 0.0104876 -0.0545818 -0.0504795 -0.0501014 -0.0503892 -0.0500627 -0.0500627
internal_weight=10.2242 8.28826 7.82618 0.462077 7.33827 0.487915 0.107072 1.93591 0.229658 1.70625 0.162222
internal_count=3000 429 344 85 302 42 70 2571 60 2511 249
is_linear=0
shrinkage=0.05


Tree=36
num_leaves=14
num_cat=0
split_feature=2 0 0 0 4 8 7 8 6 5 7 0 0
split_gain=2.11681 0.433077 2.05111 1.65465 0.903136 0.53699 0.413322 2.61199e-07 2.01534e-08 5.23102e-09 9.07458e-10 2.22045e-16 2.77556e-17
threshold=9884.9850000000024 55907.500000000007 55847.500000000007 56504.500000000007 15992.390000000001 1.5642702021351125 -10533.299999999997 0.38351299775726494 20252.630000000005 7952.7800000000016 -7034.9149999999991 56790.500000000007 56966.500000000007
decision_type=2 2 2 2 2 2 2 2 2 2 2 2 2
left_child=7 2 4 6 -2 -5 -3 11 9 -9 -10 -1 -13
right_child=1 3 -4 5 -6 -7 -8 8 10 -11 -12 12 -14
leaf_value=-0.050059641502083502 -0.01109403453974607 -0.054157993735690538 0.11510150913871081 0.0030426823129012059 0.041793749480053523 0.050358333465760276 -0.0041398536002050946 -0.050116706110535342 -0.05014719829774076 -0.050098530393576583 -0.050135183868636024 -0.050059641235774589 -0.050059641030365865
leaf_weight=1.4243792019260588 2.3062038802308948 1.2365380742121486 0.50516768568195392 1.2704789172858002 1.2418764047324655 1.1356679294258354 0.62016755342483509 0.082744191924575605 0.032801226654555649 0.075896006019320339 0.030174929997883737 0.1668778279563411 0.031878586625680327
leaf_count=2336 128 44 10 28 68 14 16 62 20 76 23 148 27
internal_value=-0.00161179 0.00913689 0.0208384 -0.00198924 0.00741741 0.025375 -0.0374512 -0.0500666 -0.0501175 -0.050108 -0.0501414 -0.0500596 -0.0500596
internal_weight=10.1609 8.3161 4.05325 4.26285 3.54808 2.40615 1.85671 1.84475 0.221616 0.15864 0.0629762 1.62314 0.198756
internal_count=3000 308 206 102 196 42 60 2692 181 138 43 2511 175
is_linear=0
shrinkage=0.05


Tree=37
num_leaves=10
num_cat=0
split_feature=8 7 3 7 3 0 0 2 5
split_gain=2.01452 0.542809 1.06083 0.93477 1.11961 0.628716 0.369132 7.8459e-06 1.79346e-07
threshold=0.38351299775726494 -9194.4199999999964 1541.0500000000004 -13810.25 39607.380000000012 55907.500000000007 55367.500000000007 9884.9850000000024 7317.9400000000014
decision_type=2 2 2 2 2 2 2 2 2
left_child=7 3 -3 4 -2 -5 -4 -1 -9
right_child=1 2 6 5 -6 -7 -8 8 -10
leaf_value=-0.050056729375017886 -0.023231649267339588 0.061363545343621755 0.011356235016390062 0.055712122062310632 0.035871115447832842 0.011546465725872049 -0.054274446221557984 -0.050434313407127111 -0.0503408700959199
leaf_weight=1.5440619173168677 2.3277850692393258 0.3318306168948747 0.27687414793763288 1.6619293067487895 1.2219094029860569 1.5642134828958658 0.94711414613993838 0.080992823233827838 0.140298489946872
leaf_count=2511 106 24 71 51 37 23 117 22 38
internal_value=-0.0015779 0.00870249 -0.0179311 0.0148179 -0.00288674 0.0342982 -0.0394284 -0.0500966 -0.0503751
internal_weight=10.097 8.33166 1.55582 6.77584 3.54969 3.22614 1.22399 1.76535 0.221291
internal_count=3000 429 212 217 143 74 188 2571 60
is_linear=0
shrinkage=0.05


Tree=38
num_leaves=12
num_cat=0
split_feature=8 6 6 0 0 2 3 2 5 0 4
split_gain=1.90172 0.514026 0.717284 0.664929 0.593623 0.196556 0.000344217 6.75011e-06 1.54213e-07 2.22045e-16 1.11022e-16
threshold=0.38351299775726494 14196.940000000001 17852.430000000004 55607.500000000007 55403.500000000007 12111.315000000001 22927.435000000001 9884.9850000000024 7317.9400000000014 56363.500000000007 36748.980000000003
decision_type=2 2 2 2 2 2 2 2 2 2 2
left_child=7 3 6 -2 -4 -5 -3 9 -9 10 -1
right_child=1 2 4 5 -6 -7 -8 8 -10 -11 -12
leaf_value=-0.050053959450183177 -0.053850654646615405 -0.053299818556311988 0.029915956784369341 0.057175805393595541 -0.00056305328961535708 0.13081719196473945 -0.056006455358371343 -0.050412974668090554 -0.050324149230913988 -0.050053959550940864 -0.050053959613716725
leaf_weight=0.70910870528314329 0.10178552617435155 0.25236628859420296 2.3280231108365115 0.19934621930588037 5.0911932357703336 0.16611985862255096 0.21975164860486984 0.077074545668437966 0.13349927728995681 0.5064921464654617 0.25323550374014303
leaf_count=1454 39 36 153 45 149 1 6 22 38 543 514
internal_value=-0.00153986 0.00821523 0.00519809 0.0591713 0.00900074 0.0906489 -0.0545596 -0.0500919 -0.0503567 -0.050054 -0.050054
internal_weight=10.038 8.35859 7.89133 0.467252 7.41922 0.365466 0.472118 1.67941 0.210574 1.46884 0.962344
internal_count=3000 429 344 85 302 46 42 2571 60 2511 1968
is_linear=0
shrinkage=0.05


Tree=39
num_leaves=13
num_cat=0
split_feature=2 3 3 3 3 8 6 5 2 0 7 0
split_gain=1.80476 0.434127 1.18063 1.13196 0.164262 2.63782e-07 1.55819e-08 6.79603e-09 9.56596e-10 2.22045e-16 2.22045e-16 6.93889e-18
threshold=9884.9850000000024 44382.905000000006 39607.380000000012 33836.360000000008 46208.530000000006 0.38351299775726494 20252.630000000005 7952.7800000000016 7894.8450000000003 56944.500000000007 -247.43000000000026 56966.500000000007
decision_type=2 2 2 2 2 2 2 2 2 2 2 2
left_child=5 2 3 -2 -3 9 7 -7 -8 10 -1 -11
right_child=1 4 -4 -5 -6 6 8 -9 -10 11 -12 -13
leaf_value=-0.050051324956440019 0.011208412429740638 -9.5658831468651293e-05 0.068782498596168515 -0.054930885698460975 -0.054409033657576433 -0.050113118083244895 -0.050127293050582139 -0.050091716854984349 -0.050140035632282656 -0.050051324448970425 -0.050051325223472345 -0.050051324794422737
leaf_weight=1.0692907220218315 6.2772412343183515 0.22578160988632578 0.79250146879348893 0.72125033440534014 0.36304823856335133 0.0790279640641528 0.030553991266060621 0.069910943449940532 0.028435437299776822 0.020086820353753754 0.28045190832927103 0.027442597900517285
leaf_count=1946 191 13 30 42 32 62 25 76 18 20 518 27
internal_value=-0.00149028 0.00781335 0.010942 0.00439223 -0.033583 -0.0500591 -0.0501117 -0.0501031 -0.0501334 -0.0500513 -0.0500513 -0.0500513
internal_weight=9.98502 8.37982 7.79099 6.99849 0.58883 1.6052 0.207928 0.148939 0.0589894 1.39727 1.34974 0.0475294
internal_count=3000 308 263 233 45 2692 181 138 43 2511 2464 47
is_linear=0
shrinkage=0.05


Tree=40
num_leaves=9
num_cat=0
split_feature=8 2 0 0 0 2 5 0
split_gain=1.7109 0.530829 0.564044 1.09012 1.54749e-05 6.01586e-06 1.8364e-07 2.22045e-16
threshold=0.38351299775726494 36202.945000000007 56845.500000000007 56614.500000000007 56515.500000000007 9884.9850000000024 7317.9400000000014 56087.500000000007
decision_type=2 2 2 2 2 2 2 2
left_child=5 2 3 -2 -3 7 -7 -1
right_child=1 4 -4 -5 -6 6 -8 -9
leaf_value=-0.05004881940863945 0.012018465313508503 -0.050913518865755403 0.051429046787401025 -0.054809344394037812 -0.051561846308413165 -0.050404753044136379 -0.050305788048057257 -0.050048819392286295
leaf_weight=0.7144227259123006 6.6145328793209011 0.19409376021940339 0.74860576447099436 0.67225812899414439 0.17505041789263487 0.074842840316705295 0.12544026109389961 0.61476842378033325
leaf_count=1739 342 37 14 29 7 22 38 772
internal_value=-0.001446 0.00740584 0.0100991 0.00585313 -0.051221 -0.0500873 -0.0503428 -0.0500488
internal_weight=9.93402 8.40454 8.0354 7.28679 0.369144 1.52947 0.200283 1.32919
internal_count=3000 429 385 371 44 2571 60 2511
is_linear=0
shrinkage=0.05


Tree=41
num_leaves=13
num_cat=0
split_feature=2 0 0 4 6 0 8 6 5 2 0 0
split_gain=1.6274 0.420094 2.20842 1.03385 0.833641 0.264327 2.6014e-07 1.42955e-08 6.50421e-09 1.12244e-09 2.22045e-16 5.55112e-17
threshold=9884.9850000000024 55163.500000000007 55403.500000000007 17100.110000000004 18138.530000000002 55055.500000000007 0.38351299775726494 20252.630000000005 7952.7800000000016 7894.8450000000003 54911.500000000007 54155.500000000007
decision_type=2 2 2 2 2 2 2 2 2 2 2 2
left_child=6 3 -3 5 -4 -2 10 8 -8 -9 11 -1
right_child=1 2 4 -5 -6 -7 7 9 -10 -11 -12 -13
leaf_value=-0.050046436366175319 -0.053149082302843979 0.087488422544246408 0.049997764672822957 0.041738933877431682 -0.0057921783249329055 0.00084529720397193457 -0.050109428051128141 -0.050122290803148208 -0.050088045392367088 -0.050136364482737908 -0.050046436181258681 -0.050046436280131112
leaf_weight=0.02986180754669554 0.93307401111814925 0.86263102758675803 0.77350434521213163 0.56316395406611253 4.9840753278695047 0.29939409461803734 0.076037325343349838 0.029307286255061626 0.06681433881749399 0.027424720406997949 1.0472880941524634 0.18727452328312211
leaf_count=124 88 26 17 39 131 7 62 25 76 18 1760 627
internal_value=-0.0014007 0.0070631 0.012881 -0.0143866 0.00170294 -0.0400326 -0.0500548 -0.0501079 -0.0500994 -0.0501291 -0.0500464 -0.0500464
internal_weight=9.87985 8.41584 6.62021 1.79563 5.75758 1.23247 1.46401 0.199584 0.142852 0.056732 1.26442 0.217136
internal_count=3000 308 174 134 148 95 2692 181 138 43 2511 751
is_linear=0
shrinkage=0.05


Tree=42
num_leaves=10
num_cat=0
split_feature=8 6 6 0 0 2 8 2 5
split_gain=1.54849 0.462445 0.669891 0.610849 0.553955 0.143066 0.000231908 5.78633e-06 2.01319e-07
threshold=0.38351299775726494 14196.940000000001 17852.430000000004 56504.500000000007 55607.500000000007 12111.315000000001 0.61488830199756339 9884.9850000000024 7317.9400000000014
decision_type=2 2 2 2 2 2 2 2 2
left_child=7 4 6 -4 -2 -6 -3 -1 -9
right_child=1 2 3 -5 5 -7 -8 8 -10
leaf_value=-0.050044169485275992 -0.053602365046560033 -0.055669091297502749 -0.0018417784654568049 0.029315230378681407 0.053669327660814038 0.11590062326331557 -0.053427000848031092 -0.05040196315665272 -0.050297531848396776
leaf_weight=1.202810822636821 0.093448622908906986 0.21820383190060955 5.2473688390746247 2.2466527342330664 0.19868465699255466 0.17257004976272583 0.24463193159317598 0.074420493445359059 0.1214804119663313
leaf_count=2511 39 19 258 44 45 1 23 22 38
internal_value=-0.00136657 0.00672496 0.00389343 0.00749886 0.0552077 0.0825963 -0.054484 -0.0500852 -0.0503372
internal_weight=9.82027 8.42156 7.95686 7.49402 0.464703 0.371255 0.462836 1.39871 0.195901
internal_count=3000 429 344 302 85 46 42 2571 60
is_linear=0
shrinkage=0.05


Tree=43
num_leaves=9
num_cat=0
split_feature=2 5 0 0 8 0 6 0
split_gain=1.47029 0.4077 1.56903 1.53414 2.59219e-07 1.49519e-08 8.01429e-09 2.22045e-16
threshold=9884.9850000000024 17513.865000000005 56614.500000000007 56504.500000000007 0.38351299775726494 56845.500000000007 20252.630000000005 56559.500000000007
decision_type=2 2 2 2 2 2 2 2
left_child=4 2 3 -2 7 6 -6 -1
right_child=1 -3 -4 -5 5 -7 -8 -9
leaf_value=-0.050042013410451204 0.001928978950758135 0.035454332165576412 -0.054502832955410141 0.074194013589280572 -0.050092829598505501 -0.050142654308893211 -0.050117021498438309 -0.050042013615670233
leaf_weight=0.85955094287055611 5.4762245821766538 1.056385123170912 1.0454446596559135 0.84817493986338366 0.12127013198914927 0.022969318204559386 0.047700398194137961 0.28464615665143356
leaf_count=2136 235 35 29 9 131 9 41 375
internal_value=-0.00132225 0.00640462 0.00224066 0.0116206 -0.050051 -0.0501048 -0.0500997 -0.050042
internal_weight=9.76237 8.42623 7.36984 6.3244 1.33614 0.19194 0.168971 1.1442
internal_count=3000 308 273 244 2692 181 172 2511
is_linear=0
shrinkage=0.05


Tree=44
num_leaves=12
num_cat=0
split_feature=8 7 3 7 7 5 0 2 5 0 4
split_gain=1.39665 0.439302 0.916551 0.79073 1.02112 0.708083 0.336043 5.0155e-06 1.63592e-07 2.22045e-16 3.46945e-18
threshold=0.38351299775726494 -9194.4199999999964 1541.0500000000004 -14509.874999999998 -19526.814999999999 7952.7800000000016 55367.500000000007 9884.9850000000024 7317.9400000000014 54131.500000000007 14511.695000000002
decision_type=2 2 2 2 2 2 2 2 2 2 2
left_child=7 3 -3 4 -2 -5 -4 9 -9 10 -1
right_child=1 2 6 5 -6 -7 -8 8 -10 -11 -12
leaf_value=-0.050039963224036699 0.01532110710384434 0.052937095728498473 0.0093618990765399739 0.00062979036521264265 -0.041318641631337152 0.046461833532220415 -0.054243673769013102 -0.050381130459033342 -0.050284422502772576 -0.050039962696419464 -0.050039962762613389
leaf_weight=0.0055344523570973738 2.1413806672208011 0.34790507232537304 0.27018590751686111 1.4065759098157293 1.2663055094890294 2.1022471567848697 0.89726688893279061 0.070564879220910259 0.11499028722755611 1.0672116253263082 0.0156913495156914
leaf_count=27 84 24 71 28 52 53 117 22 38 2408 76
internal_value=-0.00128591 0.00608666 -0.0182957 0.0114287 -0.00572638 0.0280892 -0.0395233 -0.0500809 -0.0503212 -0.05004 -0.05004
internal_weight=9.70586 8.43187 1.51536 6.91651 3.40769 3.50882 1.16745 1.27399 0.185555 1.08844 0.0212258
internal_count=3000 429 212 217 136 81 188 2571 60 2511 103
is_linear=0
shrinkage=0.05


Tree=45
num_leaves=10
num_cat=0
split_feature=2 5 0 0 8 0 6 0 0
split_gain=1.32174 0.362503 1.4479 1.28711 2.1901e-07 1.38564e-08 6.87447e-09 2.22045e-16 3.46945e-18
threshold=9884.9850000000024 17513.865000000005 56614.500000000007 56504.500000000007 0.38351299775726494 56845.500000000007 20252.630000000005 54107.500000000007 54059.500000000007
decision_type=2 2 2 2 2 2 2 2 2
left_child=4 2 3 -2 7 6 -6 8 -1
right_child=1 -3 -4 -5 5 -7 -8 -9 -10
leaf_value=-0.050038011963884493 0.0015760349511058287 0.032981182039822324 -0.054257750716213783 0.06668243863287758 -0.050086314760223731 -0.050135777121692739 -0.050109579355508783 -0.050038012275330529 -0.050038011934551652
leaf_weight=0.0082819318922709995 5.4894434348680061 1.0683716830098999 0.99563061096705485 0.88093785569071759 0.11245162607519876 0.021399935591034591 0.044247511134017259 1.0192153141106244 0.0078958019439596683
leaf_count=43 235 35 29 9 131 9 41 2428 40
internal_value=-0.00125637 0.00576333 0.00181563 0.0105794 -0.0500468 -0.050098 -0.0500929 -0.050038 -0.050038
internal_weight=9.64788 8.43438 7.36601 6.37038 1.21349 0.178099 0.156699 1.03539 0.0161777
internal_count=3000 308 273 244 2692 181 172 2511 83
is_linear=0
shrinkage=0.05


Tree=46
num_leaves=11
num_cat=0
split_feature=8 6 8 8 0 2 2 5 0 0
split_gain=1.26079 0.459085 0.578603 0.835112 0.508634 0.107052 4.35271e-06 1.32029e-07 1.11022e-16 1.38778e-17
threshold=0.38351299775726494 14196.940000000001 0.4295694439663576 0.4847434697716469 55607.500000000007 12111.315000000001 9884.9850000000024 7317.9400000000014 56900.500000000007 56955.500000000007
decision_type=2 2 2 2 2 2 2 2 2 2
left_child=6 4 -3 -4 -2 -6 8 -8 -1 -10
right_child=1 2 3 -5 5 -7 7 -9 9 -11
leaf_value=-0.050036156935169086 -0.05351804528270674 -0.055031092453620492 0.051001795375737791 -0.00026018298607905275 0.05447821236838072 0.10844654389554516 -0.050361535334035437 -0.050272287784316985 -0.050036156507008295 -0.05003615679221745
leaf_weight=0.92424600510275989 0.088318830821661254 0.41143936582375307 0.90209266141755495 6.6613686367927585 0.19370431290008128 0.17481344938278198 0.066905654384754598 0.10887321829795837 0.033536953153088689 0.027148974069859833
leaf_count=2425 39 29 26 289 45 1 22 38 48 38
internal_value=-0.00122053 0.00550505 0.00271266 0.00585382 0.0542512 0.0800791 -0.0500771 -0.0503063 -0.0500362 -0.0500362
internal_weight=9.59245 8.43174 7.9749 7.56346 0.456837 0.368518 1.16071 0.175779 0.984932 0.0606859
internal_count=3000 429 344 315 85 46 2571 60 2511 86
is_linear=0
shrinkage=0.05


Tree=47
num_leaves=11
num_cat=0
split_feature=2 6 8 8 8 8 0 6 2 2
split_gain=1.19799 0.46544 0.717476 0.761264 0.000990579 2.15524e-07 1.34398e-08 4.67959e-09 1.11022e-16 5.55112e-17
threshold=9884.9850000000024 14553.125000000002 0.4295694439663576 0.61488830199756339 0.39311525906312522 0.38351299775726494 56845.500000000007 20252.630000000005 500.50000000000006 219.42000000000004
decision_type=2 2 2 2 2 2 2 2 2 2
left_child=5 -2 4 -4 -3 8 7 -7 9 -1
right_child=1 2 3 -5 -6 6 -8 -9 -10 -11
leaf_value=-0.050034392270786668 0.055345116712095202 -0.050869778908635511 0.032162814528259434 -0.0034452116046296481 -0.055307812292568329 -0.05008464307697974 -0.050132905490248771 -0.050104284251283528 -0.050034392414968924 -0.050034392335643968
leaf_weight=0.16437399559072285 0.43939284211955776 0.2037871517241 2.0817828169092536 5.3801887675654143 0.32826631236821413 0.10876337706577033 0.020897176116704941 0.042050501855555922 0.51498717474169098 0.25756727439875249
leaf_count=445 13 56 46 182 11 131 9 41 1382 684
internal_value=-0.00118051 0.00524296 0.00248908 0.00648892 -0.053608 -0.0500438 -0.0500953 -0.0500901 -0.0500344 -0.0500344
internal_weight=9.54206 8.43342 7.99403 7.46197 0.532053 1.10864 0.171711 0.150814 0.936928 0.421941
internal_count=3000 308 295 228 67 2692 181 172 2511 1129
is_linear=0
shrinkage=0.05


Tree=48
num_leaves=12
num_cat=0
split_feature=2 6 8 8 8 8 0 6 0 4 2
split_gain=1.13467 0.412706 0.674824 0.671092 0.00084868 1.85478e-07 1.15645e-08 4.02621e-09 2.22045e-16 1.11022e-16 6.93889e-18
threshold=9884.9850000000024 14553.125000000002 0.4295694439663576 0.61488830199756339 0.39311525906312522 0.38351299775726494 56845.500000000007 20252.630000000005 56900.500000000007 18579.845000000005 698.03000000000009
decision_type=2 2 2 2 2 2 2 2 2 2 2
left_child=5 -2 4 -4 -3 8 7 -7 9 -1 -10
right_child=1 2 3 -5 -6 6 -8 -9 10 -11 -12
leaf_value=-0.050032713904291905 0.051770559405690635 -0.050828771241872198 0.029916597096524274 -0.0032805159074659135 -0.055035752970963463 -0.050080509391410177 -0.050126408625149402 -0.050099188177566756 -0.050032713939753087 -0.050032713780322549 -0.05003271321784495
leaf_weight=0.26567504998820435 0.44606548687443037 0.19400078558828493 2.1250240122899413 5.3680998441996053 0.31376111879944801 0.10346724910777994 0.019880519947037101 0.040003640402574092 0.029990594368427992 0.57067341936635785 0.02492398681351915
leaf_count=783 13 56 46 182 11 131 9 41 47 1642 39
internal_value=-0.00114162 0.00496363 0.00235405 0.00613407 -0.0534284 -0.0500417 -0.0500907 -0.0500857 -0.0500327 -0.0500327 -0.0500327
internal_weight=9.50157 8.44695 8.00089 7.49312 0.507762 1.05461 0.163351 0.143471 0.891263 0.836348 0.0549146
internal_count=3000 308 295 228 67 2692 181 172 2511 2425 86
is_linear=0
shrinkage=0.05


Tree=49
num_leaves=8
num_cat=0
split_feature=8 7 3 5 2 5 6
split_gain=1.07548 0.417847 0.568796 0.880894 3.09885e-06 1.55526e-07 1.11022e-16
threshold=0.38351299775726494 -29422.724999999995 39607.380000000012 7952.7800000000016 9884.9850000000024 7317.9400000000014 4054.3400000000006
decision_type=2 2 2 2 2 2 2
left_child=4 -2 3 -3 6 -6 -1
right_child=1 2 -4 -5 5 -7 -8
leaf_value=-0.050031117436101669 -0.051522120196499821 -0.023073692943774607 0.04054166005894811 0.014305774284640381 -0.050336471670381536 -0.050233932237343716 -0.050031117375892234
leaf_weight=0.12802267490769803 0.31805519643239577 2.3776719390007184 1.0882483241148291 4.6755612466076855 0.061102966836187989 0.093666484928689897 0.71979933411057573
leaf_count=377 36 124 19 250 22 38 2134
internal_value=-0.00110335 0.00469983 0.0068962 0.00170501 -0.0500687 -0.0502744 -0.0500311
internal_weight=9.46213 8.45954 8.14148 7.05323 1.00259 0.154769 0.847822
internal_count=3000 429 393 374 2571 60 2511
is_linear=0
shrinkage=0.05


end of trees

feature_importances:
step=127
amount=85
amount_to_oldbalance_ratio=80
newbalanceDest=54
oldbalanceDest=48
oldbalanceOrg=30
balance_diff=27
newbalanceOrig=25

parameters:
[boosting: gbdt]
[objective: binary]
[metric: auc]
[tree_learner: serial]
[device_type: cpu]
[data_sample_strategy: bagging]
[data: ]
[valid: ]
[num_iterations: 50]
[learning_rate: 0.05]
[num_leaves: 15]
[num_threads: 0]
[seed: 0]
[deterministic: 0]
[force_col_wise: 0]
[force_row_wise: 0]
[histogram_pool_size: -1]
[max_depth: 4]
[min_data_in_leaf: 20]
[min_sum_hessian_in_leaf: 0.001]
[bagging_fraction: 1]
[pos_bagging_fraction: 1]
[neg_bagging_fraction: 1]
[bagging_freq: 0]
[bagging_seed: 3]
[bagging_by_query: 0]
[feature_fraction: 1]
[feature_fraction_bynode: 1]
[feature_fraction_seed: 2]
[extra_trees: 0]
[extra_seed: 6]
[early_stopping_round: 0]
[early_stopping_min_delta: 0]
[first_metric_only: 0]
[max_delta_step: 0]
[lambda_l1: 0]
[lambda_l2: 0]
[linear_lambda: 0]
[min_gain_to_split: 0]
[drop_rate: 0.1]
[max_drop: 50]
[skip_drop: 0.5]
[xgboost_dart_mode: 0]
[uniform_drop: 0]
[drop_seed: 4]
[top_rate: 0.2]
[other_rate: 0.1]
[min_data_per_group: 100]
[max_cat_threshold: 32]
[cat_l2: 10]
[cat_smooth: 10]
[max_cat_to_onehot: 4]
[top_k: 20]
[monotone_constraints: ]
[monotone_constraints_method: basic]
[monotone_penalty: 0]
[feature_contri: ]
[forcedsplits_filename: ]
[refit_decay_rate: 0.9]
[cegb_tradeoff: 1]
[cegb_penalty_split: 0]
[cegb_penalty_feature_lazy: ]
[cegb_penalty_feature_coupled: ]
[path_smooth: 0]
[interaction_constraints: ]
[verbosity: -1]
[saved_feature_importance_type: 0]
[use_quantized_grad: 0]
[num_grad_quant_bins: 4]
[quant_train_renew_leaf: 0]
[stochastic_rounding: 1]
[linear_tree: 0]
[max_bin: 255]
[max_bin_by_feature: ]
[min_data_in_bin: 3]
[bin_construct_sample_cnt: 200000]
[data_random_seed: 1]
[is_enable_sparse: 1]
[enable_bundle: 1]
[use_missing: 1]
[zero_as_missing: 0]
[feature_pre_filter: 1]
[pre_partition: 0]
[two_round: 0]
[header: 0]
[label_column: ]
[weight_column: ]
[group_column: ]
[ignore_column: ]
[categorical_feature: ]
[forcedbins_filename: ]
[precise_float_parser: 0]
[parser_config_file: ]
[objective_seed: 5]
[num_class: 1]
[is_unbalance: 0]
[scale_pos_weight: 1]
[sigmoid: 1]
[boost_from_average: 1]
[reg_sqrt: 0]
[alpha: 0.9]
[fair_c: 1]
[poisson_max_delta_step: 0.7]
[tweedie_variance_power: 1.5]
[lambdarank_truncation_level: 30]
[lambdarank_norm: 1]
[label_gain: ]
[lambdarank_position_bias_regularization: 0]
[eval_at: ]
[multi_error_top_k: 1]
[auc_mu_weights: ]
[num_machines: 1]
[local_listen_port: 12400]
[time_out: 120]
[machine_list_filename: ]
[machines: ]
[gpu_platform_id: -1]
[gpu_device_id: -1]
[gpu_use_dp: 0]
[num_gpu: 1]

end of parameters

pandas_categorical:[]
